Weight Shape: (64, 3)
-0.2724479436874390 -0.0872533321380615 -0.0482985228300095
-0.3873573243618011 -0.3213738799095154 0.2972069382667542
0.3515347540378571 -0.1059989854693413 0.5275003314018250
0.3852839469909668 0.1190335378050804 0.3033555150032043
-0.2232624292373657 0.0766264051198959 0.5459269881248474
-0.0982339829206467 -0.4294915497303009 -0.2876415550708771
0.5193256735801697 0.1385422796010971 -0.0142549825832248
-0.3273470699787140 0.3863848447799683 0.1627440005540848
-0.3397341072559357 0.0642924904823303 -0.4918160140514374
0.3273706436157227 -0.2845586538314819 0.3370508253574371
0.5380191206932068 0.5003800988197327 0.1862816959619522
0.0896636694669724 0.0215166043490171 -0.5125657916069031
-0.5823687911033630 -0.1895988434553146 0.0202082898467779
0.2261471003293991 0.4792912006378174 0.1856471598148346
-0.2379618883132935 -0.2370863258838654 0.1885629296302795
0.4025188088417053 0.3319129049777985 -0.3162642419338226
-0.0698605626821518 -0.2814115583896637 -0.4837089776992798
0.5375942587852478 0.4150290787220001 0.5451807379722595
-0.2550788223743439 -0.1543245315551758 -0.4284270405769348
0.0286876540631056 0.1965430974960327 0.1213852167129517
-0.0357768461108208 -0.5184988975524902 0.4182732701301575
-0.2532248497009277 0.3187151849269867 -0.1405697464942932
0.4053294360637665 0.3128204047679901 -0.4213814437389374
0.2345847636461258 0.1622064411640167 -0.4850092530250549
-0.1951717287302017 -0.4109920859336853 -0.0551626756787300
0.3267025351524353 0.5324661731719971 0.5203543901443481
-0.1408544033765793 -0.1585519760847092 -0.1512454301118851
0.5033718347549438 0.5777421593666077 0.5482037663459778
-0.4853734970092773 -0.2392322719097137 -0.3105867803096771
-0.5696214437484741 -0.5525192022323608 -0.3273234367370605
0.5904200673103333 0.5892394185066223 0.3083660602569580
0.5549092888832092 0.3166584670543671 -0.3953904807567596
-0.1198451668024063 -0.3815536499023438 -0.5307822823524475
0.2244195044040680 -0.3927491307258606 -0.2850526273250580
-0.1863447129726410 -0.2902413308620453 -0.2142666578292847
-0.5632240772247314 -0.1601151674985886 -0.1524900048971176
-0.1354738771915436 -0.3668285608291626 0.1565344035625458
0.4784351289272308 -0.1449760794639587 0.1109592318534851
-0.5011218786239624 -0.4397609233856201 -0.1560689210891724
0.4758123755455017 0.4370503127574921 0.2306962311267853
-0.5865863561630249 -0.2300695627927780 0.3626027405261993
0.2144122570753098 0.5175855755805969 0.1076278015971184
-0.3851529061794281 -0.0009306721622124 -0.2804671823978424
-0.2457041591405869 -0.0293885692954063 -0.5303691029548645
0.1242906004190445 -0.3511014282703400 0.5214245319366455
0.3223590850830078 0.0637934878468513 0.4889985918998718
0.0814845785498619 -0.0986875370144844 -0.5091763734817505
0.2300827652215958 0.2664670050144196 0.0916441008448601
-0.3201333582401276 -0.6166561245918274 -0.2461578249931335
-0.4825237095355988 -0.5681440234184265 -0.3055572509765625
0.2536267042160034 0.3371247351169586 0.2966065406799316
0.2390505373477936 0.2442918717861176 0.5435321927070618
0.1983650624752045 -0.5948200225830078 0.0922662541270256
-0.2902002334594727 -0.3626704216003418 0.0162182487547398
0.0928283557295799 0.5607624053955078 -0.3070243299007416
0.5362571477890015 0.4340934753417969 -0.2916964590549469
-0.2378652393817902 0.3644242286682129 0.2528829872608185
-0.5242862701416016 -0.6347426772117615 0.1650237441062927
-0.3745096921920776 0.5602886080741882 0.4372034370899200
0.3556638956069946 0.3628900051116943 -0.0413862466812134
0.3238311707973480 0.0116136306896806 0.2935873270034790
-0.0338478423655033 0.5931745171546936 -0.1476813554763794
0.3556144833564758 -0.1253645718097687 -0.0852715820074081
-0.3815678954124451 -0.0332093611359596 0.3956317901611328
Bias Shape: (64,)
0.4673187732696533
-0.3063328862190247
-0.1535618454217911
-0.3129869103431702
-0.4389695823192596
-0.2844924628734589
-0.1720736920833588
0.1666577160358429
0.1752036660909653
0.1163514927029610
0.0187168382108212
-0.1043429672718048
0.2289288640022278
-0.1538879126310349
0.1455317437648773
0.2419635653495789
0.5444382429122925
-0.3150797188282013
0.0566850788891315
0.1119414716959000
0.3037544488906860
0.4931343495845795
0.3267246782779694
-0.5012331604957581
-0.3030536770820618
-0.4915069341659546
-0.1370903551578522
0.5025997757911682
0.4722283482551575
-0.1779747009277344
0.1226307749748230
-0.4542356431484222
0.2431623637676239
-0.0537162236869335
-0.4602846801280975
0.0003575871523935
-0.1857310384511948
0.4722549915313721
0.5467754602432251
-0.4824538528919220
0.5190111994743347
0.3317322134971619
-0.4615110754966736
0.5623660683631897
0.2820394039154053
0.0745508819818497
-0.1039705350995064
-0.2597695589065552
0.1962514668703079
0.5370815992355347
0.5951463580131531
-0.1172272190451622
0.1309259235858917
0.5335060954093933
0.5554365515708923
0.4588682651519775
0.5118377208709717
-0.0589954443275928
0.0867915898561478
-0.0689252987504005
0.4320237636566162
-0.4545629620552063
0.0386463366448879
-0.1797966361045837
Activation Code: 1

Weight Shape: (128, 64)
0.1006612181663513 -0.0655769631266594 0.0014572283253074 0.0807134658098221 0.1307287663221359 0.0015567415393889 -0.0227339863777161 0.1116727814078331 0.0850860178470612 -0.0090193878859282 0.0243614595383406 0.0501964129507542 -0.0691151618957520 0.1594361662864685 -0.0441001988947392 0.0203072465956211 0.0532908253371716 -0.0264258570969105 0.0884883552789688 -0.0160482246428728 0.0866058766841888 0.0266665071249008 0.0221433993428946 -0.0089894048869610 0.0905100256204605 0.1445900350809097 -0.1381619870662689 0.1408455818891525 0.0120782703161240 0.0496944412589073 0.1060242056846619 0.1029960289597511 -0.1004339680075645 -0.0471424125134945 -0.0247675273567438 0.0876074135303497 0.1418372541666031 0.0028029913082719 -0.0320562906563282 0.1597963422536850 0.0993218645453453 0.1398559510707855 0.0648028999567032 0.0246894042938948 -0.0378501117229462 -0.0084003405645490 0.1234075352549553 0.0241511855274439 -0.1299220621585846 -0.0559946596622467 0.0467210598289967 0.1297388821840286 0.1503185927867889 -0.0359744429588318 -0.0578057691454887 0.0705980882048607 0.0891878455877304 -0.1162213012576103 0.1277962028980255 0.0009810769697651 0.1632521152496338 0.0023920733947307 -0.0032380479387939 0.0166116375476122
0.0302763506770134 -0.0530700422823429 -0.0009715917403810 0.0004176586517133 0.0060578463599086 0.1115194708108902 0.0291483048349619 -0.0669649019837379 0.1199926659464836 -0.1142302677035332 0.0067452592775226 0.0823948904871941 0.1532658338546753 0.0633433908224106 0.0095896534621716 -0.0190299097448587 0.0691730529069901 -0.0746830776333809 -0.0202289465814829 -0.0489447638392448 0.0006251659942791 0.1324116885662079 -0.0083760721608996 0.0881188884377480 0.0151643771678209 0.0937406420707703 0.1316951215267181 0.0914344936609268 0.0392815023660660 0.1405068784952164 -0.0639444813132286 0.1024163290858269 0.1310592740774155 0.0084463469684124 0.0903122574090958 0.1540452837944031 0.1012725010514259 -0.0730107426643372 0.0746199488639832 0.0236341841518879 0.1289539486169815 0.0314105525612831 0.0284626111388206 0.1138077154755592 -0.1008426174521446 -0.0346779637038708 -0.0374939665198326 0.0499076358973980 -0.0642637014389038 0.0508821830153465 -0.1019476577639580 -0.1608274281024933 -0.0511339381337166 0.1232559755444527 -0.0459498316049576 -0.0710764229297638 0.0919660851359367 -0.0026262134779245 -0.1216034591197968 -0.1170201152563095 0.0710271224379539 -0.0299529861658812 0.0440789423882961 -0.0304721444845200
-0.0576433427631855 0.0458716191351414 0.0975924432277679 0.0347716249525547 0.0424226112663746 0.0448303408920765 0.0281934253871441 0.1193141713738441 -0.0645017400383949 -0.0606535263359547 0.0190845932811499 0.1331981122493744 0.0587608925998211 -0.0672288388013840 -0.0514617078006268 0.0000945626961766 0.0790107771754265 0.0449634417891502 0.1416305601596832 0.0073205963708460 0.1555084884166718 -0.0554783679544926 0.1149142682552338 -0.0254189632833004 0.0672653540968895 -0.0443065389990807 0.0483527928590775 0.0178801063448191 0.0621087513864040 -0.0048011373728514 -0.0077465856447816 0.0823795050382614 -0.0649977773427963 0.1459310203790665 0.1438215225934982 -0.0262127313762903 0.0700997784733772 -0.0076403371058404 0.1330455541610718 -0.0391095392405987 0.1197954639792442 -0.0857710912823677 0.0097706383094192 0.0546953864395618 0.0530150234699249 -0.0365371964871883 0.0685988962650299 -0.0819133371114731 0.1312260627746582 0.1518950164318085 -0.0806340277194977 0.0772655829787254 0.1415989547967911 0.1488586962223053 0.0066024279221892 -0.0045033358037472 0.1425164639949799 -0.0453019738197327 0.0304418560117483 -0.1292300671339035 -0.0638284757733345 -0.0388766229152679 0.1476617455482483 -0.1071444451808929
-0.1024762615561485 0.0365820713341236 0.1028743013739586 -0.0749959498643875 0.0554873608052731 -0.0062158941291273 0.0489616207778454 -0.0759218409657478 -0.0831458941102028 0.0150544419884682 0.0559660419821739 0.0569178797304630 0.0938267856836319 -0.1558549553155899 0.0702174156904221 0.0548322834074497 -0.0520728752017021 0.0283199734985828 -0.0236673410981894 -0.0533213540911674 0.0036234778817743 -0.1085011735558510 -0.0328624248504639 -0.0541856810450554 0.0098548168316483 -0.0539757199585438 0.0161746367812157 0.0993700250983238 0.1332810968160629 0.0714297667145729 0.0669062882661819 0.0340759679675102 -0.0818388834595680 0.0487746000289917 0.1568741500377655 0.0777360051870346 0.0070348079316318 0.1054343059659004 0.0972819551825523 -0.0803692191839218 0.0584600269794464 0.0351661592721939 0.0453734956681728 0.0767910853028297 -0.0687191113829613 -0.1118429601192474 -0.0129746859893203 0.0410718768835068 0.0036448573227972 0.0943384394049644 -0.1341233551502228 -0.0063100196421146 0.0644851848483086 -0.0029945257119834 0.0453967638313770 -0.0995617285370827 -0.0620242692530155 0.0131028750911355 0.0725514069199562 -0.0357909277081490 -0.0405606888234615 0.0045122718438506 0.0524633750319481 0.1289708018302917
0.0912984758615494 -0.0394950248301029 0.1205264702439308 0.0005581342848018 -0.1113237515091896 -0.0590806491672993 0.0584222562611103 -0.0012474418617785 -0.1067036315798759 0.0570097938179970 -0.0574942417442799 -0.0404543019831181 0.0632455796003342 0.0871239900588989 0.0495492517948151 -0.0686079040169716 -0.0374411679804325 -0.0293726380914450 -0.0225796978920698 -0.0278858672827482 0.1021778061985970 0.0553449243307114 0.0417354665696621 -0.0410027801990509 -0.0694996416568756 0.0697025284171104 -0.0959126576781273 -0.0199466943740845 0.0343476347625256 -0.0050858589820564 0.0499281249940395 -0.0635652914643288 -0.1231730580329895 -0.1151620373129845 0.0112501149997115 -0.1134227290749550 -0.1454640030860901 0.0990221798419952 -0.1068235710263252 0.2053049355745316 -0.1003352552652359 -0.0240679737180471 -0.0193231385201216 -0.0243805795907974 -0.0562685430049896 0.1419127881526947 -0.0665582418441772 0.0076455380767584 -0.0881808996200562 0.0150246340781450 0.0908504053950310 -0.0035179585684091 0.1272168457508087 -0.1045631021261215 0.0451351441442966 0.0045401821844280 0.0628617033362389 -0.0194741468876600 -0.0916814133524895 0.1440570503473282 -0.0627988353371620 0.0137276547029614 0.0471444837749004 -0.1276936382055283
0.0042974157258868 -0.0211925674229860 0.1050753965973854 0.0855165123939514 0.0248817168176174 0.1066924408078194 -0.0577527433633804 0.1189688965678215 0.0580309368669987 -0.0079364730045199 0.1466181576251984 0.1409809440374374 0.1088523641228676 0.0309415422379971 0.0075150867924094 -0.0208862759172916 -0.0600791871547699 -0.0128392260521650 -0.0285431854426861 0.0829766541719437 -0.0034308242611587 -0.1061663106083870 -0.0623933523893356 0.1240157783031464 0.1229552254080772 0.1577309370040894 -0.1550705879926682 -0.0370478741824627 -0.0992312133312225 -0.1567004770040512 -0.0619917139410973 -0.0973163172602654 -0.0872553810477257 0.0832261294126511 0.0658491626381874 0.0932970717549324 0.1139915958046913 0.0255700666457415 -0.1143871694803238 0.0450270548462868 -0.1054303571581841 0.0019291170174256 0.0602385215461254 0.0606044270098209 -0.0082120355218649 -0.0758254826068878 -0.0902995914220810 0.0039591304957867 0.0169322062283754 0.0616822130978107 0.0280274823307991 0.0863846540451050 -0.0212027952075005 -0.1065666973590851 0.1272511631250381 0.1639107763767242 0.1184380128979683 0.0002357888297411 0.0199784953147173 0.0655136108398438 -0.0746483430266380 0.0886291265487671 0.0252518095076084 0.1354005783796310
0.1417878419160843 -0.0481712482869625 0.0461670607328415 0.1721895039081573 0.1041460335254669 0.0349319651722908 -0.0586918108165264 -0.0369869582355022 0.1321310102939606 -0.0915764346718788 0.1563494354486465 0.0356853380799294 -0.0128704803064466 -0.0267912428826094 0.0261156633496284 0.0738227069377899 -0.0035298406146467 0.0888473764061928 0.0532415881752968 0.0975269153714180 0.0670744106173515 0.1285784840583801 0.1349453926086426 0.0627070963382721 -0.0517491474747658 0.1075654178857803 -0.0905827134847641 0.1394038796424866 -0.0268081389367580 0.0216260179877281 0.0922432243824005 -0.0428651235997677 -0.0097450893372297 0.0940333604812622 -0.0684104636311531 0.1400872915983200 0.0767882019281387 0.1013901457190514 -0.0914219245314598 0.1114061921834946 0.0856658816337585 0.0473199710249901 0.0544271096587181 0.0972334966063499 0.0353125631809235 0.1243282407522202 0.0214237142354250 0.2045752704143524 0.0222033299505711 -0.1096093729138374 0.0823745205998421 0.1555229723453522 0.0082772457972169 0.0146759115159512 0.0394331514835358 0.0354659594595432 -0.0432386547327042 0.0528435371816158 -0.0692578107118607 0.0266668740659952 0.0548425093293190 0.0642458349466324 0.1085358485579491 -0.0109957000240684
-0.0859154537320137 0.0490091294050217 0.0479565113782883 -0.0803633108735085 0.1517936289310455 0.0340290553867817 -0.0850618556141853 -0.0782767534255981 0.0121954670175910 0.0160139873623848 -0.0900467261672020 0.0172015242278576 -0.0780547186732292 -0.0950030013918877 0.1054246425628662 0.1146348118782043 -0.0439643412828445 -0.0592506974935532 0.0469252206385136 -0.1346711814403534 -0.0428003892302513 0.1486296206712723 0.0788627266883850 -0.0416849553585052 0.0626230835914612 0.0412799827754498 0.2311039865016937 0.0173661503940821 0.0590472035109997 0.1085498556494713 0.0226457715034485 0.1051554307341576 0.0809610560536385 -0.0501274205744267 0.1746937930583954 0.1001423299312592 0.0298573151230812 0.0545625984668732 0.0982864499092102 0.0372071601450443 -0.0905435010790825 0.0973889082670212 -0.0183150693774223 -0.0638412460684776 -0.0346159487962723 0.1237225979566574 0.1106881648302078 -0.1431876271963120 0.1022175252437592 0.0025284881703556 0.0182405132800341 0.0503499694168568 0.0902174711227417 0.0728511139750481 -0.0900370925664902 0.0152961676940322 -0.0232014451175928 0.0361603572964668 0.0314721837639809 -0.0676465034484863 -0.0605909228324890 0.0174092054367065 -0.0682613626122475 -0.0066764857620001
-0.0610207542777061 0.0363262668251991 0.1412048339843750 0.1547007560729980 -0.0846834480762482 0.0498918257653713 0.1180318966507912 0.0634234249591827 -0.0334533378481865 -0.0937570780515671 0.0582905113697052 0.1013113111257553 0.0240174941718578 0.1285897344350815 0.0098479483276606 0.1395241171121597 0.1092434152960777 0.1637823134660721 0.0118410224094987 -0.0210144929587841 -0.0493396595120430 -0.0475247651338577 -0.0346277393400669 -0.1046470627188683 -0.0201281011104584 -0.0026250102091581 -0.0095601920038462 0.1567015349864960 -0.0555822625756264 -0.0328185074031353 -0.0232940241694450 -0.0645421445369720 -0.1213497817516327 -0.0493344627320766 -0.0159307662397623 0.0204141288995743 0.0969329699873924 0.0865124315023422 0.0970594361424446 0.0100192734971642 -0.0527423284947872 -0.0556249581277370 -0.0114459795877337 0.0915126726031303 -0.0300298556685448 -0.0039850892499089 -0.0246395971626043 0.1892780661582947 -0.1009181812405586 -0.0677052512764931 -0.0536385066807270 0.0642019882798195 0.0508419387042522 0.1292234212160110 0.0426882840692997 0.0600239373743534 0.1531644463539124 0.0002092295471812 0.0151025438681245 0.1255706846714020 0.0512050949037075 0.1131847947835922 0.0530993305146694 0.0509923547506332
0.0051404875703156 -0.0298172123730183 0.1277151256799698 0.1607789099216461 0.0049158241599798 0.1401215791702271 0.0569865405559540 -0.0841272845864296 0.0475401766598225 -0.1258692741394043 0.1433217227458954 -0.0260137449949980 0.1499141007661819 0.0694907456636429 0.0611766092479229 -0.0004673626390286 -0.0313967876136303 0.0158731490373611 0.0577390938997269 0.1015725880861282 0.0211850423365831 0.0058026872575283 0.0502814836800098 -0.0357499718666077 0.2047483921051025 -0.0004748092906084 0.1474023759365082 -0.0819549560546875 -0.0787526071071625 -0.0346943289041519 -0.0043592136353254 -0.0921118706464767 -0.0303959902375937 0.0318511165678501 0.2244705557823181 0.0993292480707169 0.0757208392024040 0.0832203030586243 -0.0280224382877350 0.0850173458456993 -0.0328451357781887 0.1381651312112808 0.0006048412760720 0.1082076504826546 0.0250248257070780 0.1564924716949463 -0.0654066801071167 0.1186180859804153 -0.0666104853153229 0.0003300898824818 0.0164068602025509 0.0855662152171135 0.0463712848722935 -0.0016414937563241 -0.0250897575169802 -0.0303266067057848 0.0657783374190331 0.1363860219717026 -0.0628233551979065 -0.0098444130271673 0.0970729365944862 0.0206193737685680 -0.0823465809226036 -0.0685808733105659
0.0082127368077636 0.0699180290102959 0.0426964871585369 0.1290713101625443 -0.0080201048403978 -0.0061574252322316 0.0091621084138751 0.0674487575888634 0.0195029899477959 -0.0271122641861439 0.0491026081144810 0.1182506829500198 0.0504865199327469 0.1449915021657944 -0.0294866804033518 0.0389169976115227 0.0236193388700485 0.1675324589014053 -0.0811447426676750 0.0055366693995893 0.0556864812970161 0.0595799759030342 0.1239827275276184 0.0648276284337044 0.1105296835303307 0.1388431787490845 -0.2116784602403641 0.1596209555864334 -0.0341403037309647 0.0567148439586163 0.0655183941125870 0.1144405975937843 -0.0540590807795525 -0.0370187051594257 -0.0606321729719639 0.0334210470318794 0.0215491037815809 -0.0074558127671480 -0.0301983449608088 0.2116197943687439 0.0282451659440994 0.0884447917342186 0.0137554407119751 0.0361120142042637 0.0741605013608932 0.0397532805800438 0.0875716805458069 0.0073708835989237 -0.1012377366423607 -0.0943457037210464 0.0498777031898499 0.0473201945424080 0.1484910696744919 0.0075596030801535 -0.0414084233343601 0.0837376192212105 0.1039713099598885 -0.0498714260756969 0.0142799150198698 0.1757576763629913 0.1049858033657074 -0.0492230318486691 -0.0024013523943722 0.1237022131681442
-0.0674918144941330 0.1249753311276436 0.0180441346019506 0.0232688784599304 -0.0568473637104034 0.0371907241642475 -0.0933336839079857 0.0653850212693214 0.0932740494608879 -0.0703075006604195 0.0311213564127684 0.0252800937741995 0.1092862933874130 -0.1199980601668358 -0.0354766808450222 -0.0601163879036903 0.1286034584045410 -0.0040202229283750 0.1764238625764847 -0.0203033406287432 0.0891252383589745 0.0308313667774200 -0.0789745748043060 0.0977739691734314 0.0712171047925949 -0.0204549115151167 0.0310489814728498 -0.0479332357645035 0.1190479919314384 0.1522401124238968 -0.0386221148073673 0.1262470185756683 0.0919181928038597 0.1293133497238159 0.2416177392005920 0.1104153916239738 -0.0557352080941200 -0.0820957645773888 0.0617072358727455 -0.0561190061271191 0.0110115623101592 -0.0671381801366806 0.0875135138630867 0.0608198009431362 -0.0742426365613937 -0.0003605228557717 -0.0012399110710248 0.0957002341747284 0.1726818382740021 0.0816957429051399 0.0425942093133926 -0.0928529947996140 -0.0954572930932045 0.1101052612066269 -0.0574276782572269 0.0285543650388718 0.1104020550847054 0.1004362329840660 0.0182348657399416 0.0234976634383202 0.0662342607975006 0.1814612001180649 0.1066570207476616 0.1204258054494858
-0.0890917554497719 0.0945220515131950 0.0484555214643478 0.1117125451564789 0.1194362118840218 0.0753419250249863 -0.1035599559545517 0.0338220410048962 -0.0478683970868587 0.1142629683017731 -0.0123396050184965 -0.1114514246582985 0.0477324984967709 0.0872671008110046 0.0509109683334827 -0.0034338925033808 0.0165047459304333 -0.0106987105682492 0.1549315899610519 -0.1033424288034439 0.1305151879787445 -0.0666580572724342 0.0168288946151733 0.0204495768994093 -0.0132099315524101 0.0474058017134666 0.2426116615533829 0.0044392724521458 0.0123989610001445 0.1261513084173203 0.0591166578233242 0.0728336498141289 0.0351681523025036 0.0325786881148815 0.1512271910905838 0.1047544255852699 -0.0668869614601135 0.0345760956406593 0.0235089529305696 0.0884774401783943 -0.0481452494859695 0.0200564675033092 0.1827917546033859 0.0347099378705025 0.1246594339609146 0.0977429226040840 -0.0397293753921986 0.0954104959964752 0.1476446241140366 0.0302791856229305 -0.0539143383502960 -0.0886510089039803 0.0630308315157890 0.0948811098933220 0.0358209870755672 0.1397400051355362 -0.0477287061512470 0.0795236974954605 0.0655813738703728 -0.0679257959127426 -0.0689340233802795 -0.0447713360190392 -0.1161970943212509 0.1243916302919388
0.1018696427345276 0.0828322023153305 0.1528443545103073 -0.0015103820478544 -0.0640624836087227 -0.0338427089154720 0.1135120987892151 0.0624857880175114 -0.0289945993572474 -0.1034724786877632 0.1515040844678879 0.1176191568374634 0.0514880977571011 0.1072243377566338 0.0006363011780195 0.0174227021634579 -0.0252483766525984 0.0582815743982792 0.0028859672602266 0.0110341403633356 0.1265264898538589 -0.0215949974954128 0.0816852748394012 -0.1183659657835960 0.0825434625148773 0.1950838565826416 0.0151488762348890 0.1292135715484619 -0.0098268687725067 -0.1362017393112183 0.0892511606216431 -0.0481305979192257 0.0248335171490908 -0.0176443848758936 -0.1532974094152451 0.0889948382973671 -0.0615946166217327 -0.0280785933136940 0.0290392134338617 0.1892710477113724 -0.0505320094525814 0.0011248241644353 0.0190919525921345 -0.0318618379533291 0.0707445666193962 0.0490345284342766 0.0563416182994843 0.2424672991037369 -0.0760913416743279 0.0741654485464096 0.0118247428908944 -0.0119410175830126 -0.0661624893546104 -0.0414502136409283 -0.0531991906464100 0.1084774658083916 -0.0545148365199566 -0.0091796824708581 0.1325211673974991 0.0777018368244171 -0.0159540623426437 -0.1136823892593384 0.0875221937894821 -0.0433688908815384
0.0827722474932671 0.0635784119367599 -0.0880490168929100 0.0697852075099945 -0.0900622233748436 -0.0412892922759056 0.0131438979879022 0.0522470474243164 -0.0415343046188354 -0.0157393682748079 0.1170851364731789 -0.0257948581129313 -0.1021306291222572 0.1306421905755997 0.0547966286540031 0.1433513313531876 0.0159602146595716 0.0554076507687569 -0.0115630635991693 0.0077446750365198 -0.0289389528334141 -0.0314937196671963 -0.0691717490553856 -0.0024002173449844 -0.0602234974503517 0.1463213115930557 -0.0811551064252853 0.0478645823895931 0.0411626845598221 -0.1196815744042397 0.0199407320469618 0.0595021210610867 0.0442255362868309 -0.1026047691702843 0.0356953144073486 -0.0328801833093166 -0.0450579375028610 0.1262377202510834 0.0718993321061134 0.1509033441543579 -0.0579263046383858 -0.0687249824404716 0.0613629855215549 0.1315092444419861 -0.0984607636928558 -0.0562767311930656 0.1154280528426170 0.1855305135250092 -0.0800501480698586 -0.0148495212197304 0.1624430865049362 0.1479120105504990 0.0785735920071602 0.0477684698998928 -0.0555849783122540 0.1494532674551010 0.1627067774534225 -0.0118588376790285 0.1416019797325134 0.1671715676784515 -0.0336546786129475 -0.0329588204622269 -0.0290060918778181 0.0489164367318153
-0.0178226530551910 0.0479110293090343 0.0580129958689213 -0.1104657128453255 -0.0389390625059605 -0.0379593484103680 -0.0743551850318909 -0.0031724614091218 0.1439821869134903 0.0332553945481777 -0.0592946894466877 -0.0961707755923271 0.0423894934356213 0.0838784724473953 -0.0297097805887461 -0.0485803522169590 -0.0092086112126708 0.0562172457575798 0.0666711851954460 0.0788479521870613 0.0187201872467995 -0.0207316782325506 -0.0677303597331047 -0.0377638898789883 0.1382543742656708 0.0552194118499756 0.2221492677927017 0.0789275020360947 0.1316365152597427 -0.0365368202328682 -0.0099705336615443 0.1190170198678970 -0.0050780675373971 0.1275450587272644 0.2253407239913940 -0.0147642502561212 -0.0868430957198143 -0.1464308500289917 -0.0654820799827576 0.0151647171005607 0.1138751953840256 -0.0585078597068787 0.0612709820270538 0.1494306474924088 -0.0381888970732689 -0.1349125504493713 0.0679719597101212 -0.1029528379440308 0.0428181588649750 0.1175395250320435 -0.1226637661457062 0.0900918468832970 -0.0134621122851968 0.0605812184512615 0.0356752909719944 -0.0912527069449425 -0.0431306809186935 0.0747720152139664 -0.0752457752823830 0.0059597380459309 0.0097139431163669 0.0420772433280945 -0.0407288521528244 0.1263890713453293
0.0896701887249947 0.0641494542360306 -0.0370850339531898 -0.0166673958301544 0.1000781804323196 0.1221613511443138 0.1449581831693649 0.0949766412377357 -0.0768029317259789 0.0719198286533356 0.0791822224855423 -0.0040198243223131 -0.0547254085540771 -0.0128924828022718 -0.0492529161274433 0.1252844631671906 -0.1154631450772285 0.0829567313194275 -0.0202223602682352 -0.0740287676453590 -0.0600455813109875 -0.0491025447845459 -0.0715653821825981 -0.1167635172605515 0.0083689866587520 -0.0062066521495581 0.0697489082813263 -0.0209341812878847 0.0019129342399538 -0.0544951744377613 0.1313760578632355 -0.0493621900677681 -0.1100028008222580 -0.0289491135627031 -0.0071800872683525 0.0435753762722015 -0.1025184020400047 0.0992068052291870 0.0148249426856637 0.1826933920383453 -0.0420895926654339 -0.0311539620161057 0.0202450603246689 0.0402640812098980 -0.0929163843393326 -0.0120366280898452 0.0806321576237679 0.2606789767742157 -0.0273540932685137 0.0406438671052456 -0.0683618932962418 -0.0162011664360762 0.0514222942292690 0.0638260915875435 -0.1069625169038773 0.0288420803844929 -0.0355273447930813 -0.0537693686783314 -0.0570636466145515 0.0963701754808426 -0.0537350811064243 0.1220953464508057 -0.0013369589578360 -0.1487239003181458
-0.0200987663120031 0.0648561790585518 0.0804909393191338 0.0126987593248487 -0.0759018063545227 -0.0813778340816498 0.1692289412021637 -0.0719620957970619 0.0503929294645786 -0.0519158430397511 0.0867552682757378 -0.0178624298423529 0.0007864278741181 0.0717341154813766 0.0296519584953785 -0.0080649070441723 0.0707604438066483 0.0057714330032468 -0.0177424903959036 0.0968836769461632 0.0656208470463753 -0.0914402231574059 0.0077519617043436 -0.0458304695785046 -0.0032232287339866 0.1432993710041046 -0.0908138453960419 0.1303176283836365 0.0352141633629799 -0.0601240433752537 0.0384337343275547 0.0234693381935358 0.0518393926322460 -0.0891401544213295 0.0164255648851395 -0.0506648421287537 0.0832714363932610 -0.0177876278758049 -0.0884042233228683 0.1199280768632889 0.1441064924001694 0.1065625548362732 0.0625870823860168 -0.0100466506555676 0.0693947225809097 0.0840769708156586 0.0867048054933548 0.1839128881692886 0.0423266030848026 -0.0972487404942513 -0.0547384545207024 -0.0220606699585915 -0.0590372830629349 -0.0221346206963062 0.1075081005692482 0.0702150836586952 -0.0638435035943985 0.0983937308192253 -0.0856184735894203 0.0716923996806145 0.1123260110616684 0.1152622103691101 -0.0818840861320496 0.0623010136187077
0.0468343384563923 0.0638757571578026 0.0984640866518021 0.0902779847383499 0.0245899017900229 -0.0504754409193993 0.0009262682870030 -0.0297077447175980 -0.0700063109397888 0.0600233078002930 -0.0751226544380188 0.0950190201401711 0.0795742347836494 -0.0162667036056519 -0.0002880549291149 0.1459024101495743 0.1246021017432213 0.1577184200286865 -0.0449555441737175 -0.0177284944802523 -0.0447960011661053 0.1081572920084000 -0.0659854337573051 0.0322623364627361 -0.0790438652038574 0.1042254343628883 0.0125726414844394 0.1169790849089622 0.0900293961167336 -0.0584679841995239 0.1659218072891235 -0.0304695740342140 -0.0749106630682945 0.0639530867338181 -0.1501269340515137 -0.0690581426024437 -0.0181663837283850 -0.0626940205693245 -0.0853658095002174 0.1826756596565247 -0.0410710163414478 0.0363825559616089 -0.0389985181391239 -0.0375248752534389 -0.0115568386390805 0.1677160263061523 0.0977665558457375 0.0575857050716877 0.0967317223548889 -0.0739641487598419 0.1083420068025589 -0.0607508420944214 0.1469230651855469 -0.0200870800763369 0.0577531121671200 -0.0179557893425226 0.0848835632205009 0.1061481535434723 -0.0705285072326660 0.0593241378664970 0.0209158603101969 -0.0289636198431253 0.0005087872850709 0.0405543223023415
-0.0127504449337721 0.0819355919957161 -0.0887697860598564 0.1151508316397667 -0.0636920183897018 0.1987483650445938 0.1174455061554909 0.0108447279781103 0.0844460576772690 0.0412463992834091 0.1377702206373215 -0.1685590893030167 0.0371778197586536 0.0070439092814922 -0.0439318828284740 -0.0060068541206419 0.0924458131194115 0.0565540045499802 0.1355679482221603 0.0822215676307678 0.0661684125661850 0.0501708835363388 0.0255775600671768 -0.0909953787922859 0.0134852863848209 -0.0068111652508378 0.1817546188831329 0.0791822895407677 0.0765915736556053 -0.0326580777764320 0.0106556322425604 -0.0192929282784462 -0.0175754688680172 0.1166328787803650 0.2828439772129059 0.1536624878644943 -0.0427507385611534 -0.0313449837267399 0.0441223829984665 0.1045231297612190 -0.0333019830286503 0.1448394060134888 0.1213033944368362 0.0248844511806965 -0.1416706293821335 -0.0495911613106728 -0.0545114278793335 0.2315992563962936 -0.0719670578837395 0.0338853001594543 0.1063507348299026 0.1391940712928772 0.0794902369379997 0.1080295518040657 0.0047888443805277 0.1015954837203026 -0.0833872333168983 0.1357118338346481 0.1228978484869003 0.0185964573174715 0.0307228229939938 0.0958591625094414 -0.0270215310156345 -0.0308388546109200
-0.0099760517477989 0.1055481657385826 0.0147147290408611 0.1774385422468185 0.0671091899275780 -0.0106768626719713 0.0796215608716011 0.0422339849174023 0.1180611029267311 -0.1309288591146469 0.0913705304265022 -0.0009170130942948 0.0130261210724711 0.0483202710747719 0.0166634377092123 -0.0194686483591795 0.0413618199527264 -0.0221026074141264 -0.0480345264077187 0.0923560634255409 0.0189397968351841 -0.0261814147233963 -0.0363921746611595 0.0365118645131588 0.1825298070907593 0.1034040674567223 0.1631071567535400 -0.0205166433006525 0.1301440894603729 0.2015805542469025 0.1453692167997360 0.0587012693285942 0.0335718840360641 0.0331381410360336 0.1935627311468124 0.1164656579494476 0.1480938196182251 -0.0910544544458389 0.0364289917051792 0.0107927201315761 0.0226102918386459 0.1017697751522064 0.0715638473629951 0.0363513864576817 -0.1411769241094589 0.1391344070434570 0.0563275329768658 0.1412074565887451 0.0097111500799656 -0.0058071641251445 0.0653415396809578 0.1361397057771683 -0.0563712865114212 0.0781364217400551 0.0591451823711395 0.1037578955292702 0.1057734787464142 -0.0145778767764568 -0.0252081677317619 -0.0246510487049818 0.0342709310352802 0.0864403173327446 -0.0387905687093735 0.0553933344781399
0.0722539871931076 -0.0290961787104607 -0.0549349039793015 0.0334578342735767 0.0641130954027176 0.0443462282419205 0.1493615955114365 0.0633205175399780 0.1372978538274765 0.0530777163803577 -0.0916848033666611 -0.0992654412984848 0.0042981221340597 -0.0224219560623169 0.0884507596492767 -0.0337103120982647 -0.0974322035908699 0.0852006673812866 0.0946670249104500 0.0540001839399338 -0.1005422547459602 -0.0470643974840641 -0.0125553570687771 0.0702325999736786 0.0201516412198544 0.0134326620027423 0.0283100176602602 0.1317177116870880 0.1315876990556717 -0.1270760297775269 0.0170437768101692 0.0934139415621758 0.0192927084863186 0.1190825998783112 -0.0804904848337173 -0.0625655502080917 -0.0542636625468731 0.0136828394606709 -0.1019471734762192 0.0864059776067734 0.0105295842513442 0.0909261032938957 0.0286479163914919 -0.0523570068180561 0.0453981608152390 0.0693819969892502 -0.0140356365591288 0.0625247135758400 0.0016163951950148 -0.0761617347598076 -0.0776569694280624 0.1036670207977295 0.0501333922147751 0.1011864244937897 0.0380190275609493 -0.0549500212073326 0.1265510618686676 0.0009049612563103 0.0131342774257064 0.0779456347227097 0.1474721133708954 0.0262341313064098 -0.0495615340769291 0.0570448823273182
-0.0096046756953001 0.0243145991116762 -0.0244601983577013 -0.0147919943556190 0.0603654459118843 -0.0508081652224064 -0.0216044560074806 -0.1242078989744186 0.0068728933110833 -0.0871443748474121 0.1530510038137436 -0.1604388505220413 0.1199639290571213 -0.0160148795694113 0.1262263655662537 0.1168407350778580 0.1038364544510841 0.0373814851045609 0.1076273396611214 0.1088701561093330 -0.0230215918272734 0.0894277542829514 -0.0400480255484581 -0.0099381953477859 0.0551712177693844 0.0639706328511238 0.0570347867906094 -0.0853820145130157 0.1064017042517662 0.0903074666857719 0.1621149331331253 0.0243650674819946 0.0939483121037483 0.0168768540024757 0.3054666221141815 0.1179834529757500 0.0001937100605574 0.0249636415392160 -0.0715783983469009 0.1147654950618744 0.0514060258865356 0.0225359480828047 0.1946300715208054 -0.1303022950887680 0.0061187967658043 -0.0413922257721424 -0.1248190626502037 0.1236555948853493 -0.0775308907032013 0.0220077596604824 0.0821660608053207 0.0609138160943985 0.0728929936885834 0.0177733805030584 0.0511746890842915 0.0465230233967304 -0.0466553792357445 -0.0477096959948540 -0.0724879726767540 -0.0664555951952934 0.0682207569479942 -0.0651333332061768 -0.0732566341757774 0.0357331745326519
0.0350397154688835 0.0709435939788818 -0.1031846627593040 0.0091788386926055 -0.0813083723187447 0.0906043127179146 -0.0998097211122513 -0.0213685538619757 0.1162294894456863 -0.0430391952395439 -0.0217098463326693 0.0105144334957004 0.0844449028372765 0.0144637906923890 -0.0370719656348228 -0.0237870514392853 0.0450359284877777 -0.1175785884261131 0.0230653863400221 0.0601298920810223 -0.0783550962805748 -0.0455413162708282 -0.0572771541774273 0.0117513136938214 -0.0241714026778936 -0.2469213604927063 0.1973257809877396 0.1132021993398666 0.1571590155363083 -0.0297617260366678 0.0374835059046745 -0.0050473529845476 0.0145135978236794 0.1072357520461082 0.0315772853791714 0.1114214137196541 0.0987699627876282 0.0774366557598114 0.0528941154479980 -0.0758281126618385 -0.0028780470602214 -0.0562616027891636 0.1811886876821518 0.0599480681121349 -0.0566348955035210 -0.0936354994773865 -0.0739394500851631 -0.1845071315765381 0.0033945769537240 0.0333625786006451 -0.0093327779322863 0.0731887966394424 -0.1096396520733833 0.1141583546996117 -0.0843540951609612 0.1292273700237274 -0.0217514857649803 0.1654729098081589 -0.1115108728408813 0.0684105530381203 -0.0457444116473198 -0.0200924072414637 0.0950509384274483 -0.0435880608856678
0.1242893710732460 -0.0882059261202812 0.1409725099802017 0.0040548401884735 0.0746962577104568 -0.0806518793106079 0.0109641440212727 0.0746209844946861 0.0770205184817314 0.1314032971858978 0.1312857717275620 -0.0545121543109417 -0.0980961024761200 0.0506966039538383 -0.0727718621492386 0.1394582986831665 0.0051917824894190 0.1076988652348518 0.1354661583900452 0.1289923042058945 0.1302347481250763 0.0541150122880936 -0.0064865779131651 -0.0691541805863380 -0.1424862742424011 0.0320604480803013 0.0060043837875128 -0.0844498798251152 -0.0817971751093864 -0.0334852077066898 0.1645847260951996 -0.0876979157328606 0.0481061972677708 -0.0344704873859882 -0.0821644589304924 -0.1068149879574776 0.0851155892014503 0.0294145587831736 0.0895318165421486 0.1927318572998047 0.0753331705927849 0.0597258619964123 0.0479341447353363 -0.0212224405258894 -0.0483206659555435 0.1198844239115715 0.1160679161548615 0.0480764023959637 -0.0739148855209351 -0.0840794742107391 -0.0367779321968555 0.1607885509729385 -0.0317623242735863 0.0609533786773682 -0.0751683190464973 0.0037348803598434 0.1057222858071327 0.1038025617599487 0.1175972446799278 0.1260370761156082 0.1452873051166534 0.0815268680453300 -0.0103365583345294 -0.0872936844825745
0.1029570400714874 0.0201435778290033 0.0529198944568634 -0.0769918262958527 -0.0797501951456070 0.0437541455030441 0.0295069515705109 -0.0502770096063614 -0.0487082302570343 0.0295038521289825 0.0491201393306255 -0.0707112699747086 0.0882458686828613 0.0884535610675812 0.0128478035330772 0.1204401776194572 0.0418018884956837 0.1337151378393173 -0.1176013574004173 0.1685035079717636 0.0756498575210571 0.0969556644558907 -0.0841883644461632 0.0945464372634888 0.0448179841041565 0.0465439967811108 -0.2034693211317062 0.1185989901423454 -0.0890151336789131 -0.0086311977356672 0.1442055404186249 0.1035411134362221 0.0052690533921123 0.0150598445907235 0.0697429403662682 -0.0413796529173851 -0.1191476956009865 0.0171054620295763 -0.0616608746349812 0.1157763004302979 0.0159564055502415 0.0500071123242378 -0.0103710526600480 0.1299266517162323 0.0412604026496410 -0.0532707050442696 0.0401058308780193 0.0406216867268085 0.0451608076691628 -0.0496159680187702 -0.0757537260651588 0.1377319395542145 -0.0220584627240896 -0.0602587014436722 0.0726248621940613 0.0363822877407074 0.0838850140571594 0.0573214739561081 0.1458799242973328 -0.0424363389611244 0.1008113995194435 0.0785896629095078 0.0484924018383026 -0.0915819779038429
-0.1272783130407333 -0.0917065888643265 -0.0226251259446144 0.0093169715255499 0.1138428449630737 0.0670761391520500 0.1083570495247841 0.0150384763255715 -0.1528170704841614 -0.0838555917143822 -0.0605370625853539 -0.0296096801757812 -0.1539609283208847 -0.0201292317360640 0.0420394502580166 0.0957915559411049 0.0176063403487206 -0.0001067002885975 -0.0068195136263967 0.0628847628831863 -0.0803794562816620 0.0186651740223169 0.1022548303008080 -0.0679267719388008 -0.0810105577111244 0.0079479254782200 -0.0044365194626153 0.0920143201947212 -0.0261957701295614 0.0384404398500919 0.1572990715503693 -0.0641324967145920 0.0384178608655930 0.0400868318974972 -0.0030170804820955 -0.0527561269700527 -0.0889304950833321 -0.0772971659898758 -0.0962424203753471 0.0217001829296350 -0.0689639449119568 0.0314556658267975 0.2128296494483948 -0.1290672421455383 0.0046576866880059 0.1103446856141090 0.0822696089744568 0.1633824110031128 0.0333349592983723 -0.0026068668812513 -0.0949894189834595 -0.0532909743487835 0.0597479529678822 -0.0852390527725220 0.0851239711046219 0.0707087293267250 -0.0983693301677704 -0.0729605108499527 0.0791303217411041 0.0562480315566063 0.0322025455534458 -0.0709638744592667 -0.0749086514115334 -0.1448129415512085
-0.0909838750958443 -0.1170077472925186 -0.0749392285943031 0.1158678159117699 -0.0838879123330116 -0.0908184647560120 -0.0154834501445293 0.1189455762505531 0.0832991749048233 -0.0539946183562279 0.1124248132109642 -0.0608525313436985 -0.0105828894302249 -0.0462635159492493 -0.0710973739624023 0.0802541971206665 0.0817537233233452 0.0819733813405037 -0.0679991319775581 0.1426043063402176 -0.0461418591439724 0.1210228428244591 0.0816747397184372 -0.0801899209618568 -0.0008168002241291 0.1603824198246002 -0.1584396213293076 -0.0145289069041610 -0.0522574745118618 -0.1464083045721054 0.1492137461900711 -0.0901603549718857 -0.0763172060251236 0.0528517514467239 -0.0656339228153229 0.0207056365907192 0.0589217394590378 -0.1066128835082054 0.0005551977083087 0.0347708314657211 -0.0766182839870453 0.0199604593217373 0.1456009149551392 -0.0713203251361847 0.0181318931281567 -0.0315284430980682 0.1131272166967392 0.1936594098806381 0.0395879410207272 0.0316446311771870 0.1428001224994659 -0.0084170419722795 -0.0234035626053810 0.0142367435619235 -0.0531412623822689 0.0549335591495037 -0.0861303508281708 0.0717095583677292 -0.0799100771546364 -0.0714365094900131 -0.0914199799299240 0.0790654644370079 0.0353866256773472 0.0202616471797228
0.0762666538357735 0.1535729914903641 -0.0234031323343515 -0.0248499158769846 0.0792155787348747 0.0758713260293007 -0.0815031379461288 0.0446724817156792 0.0891279876232147 -0.0084880311042070 0.1069755926728249 -0.0456474758684635 0.0196673683822155 -0.0643582567572594 -0.0795107483863831 -0.0751337409019470 0.0990383699536324 -0.0780214816331863 -0.0454318188130856 0.1055524200201035 -0.0437355488538742 0.0739278495311737 -0.0002697311574593 0.1292360723018646 0.1970810592174530 0.0000443298449682 0.1300768703222275 0.1159107834100723 0.1115875244140625 0.0587021224200726 -0.0701228752732277 0.0074524856172502 0.0252684447914362 0.1026152670383453 0.1755986958742142 0.0812498405575752 0.0050378362648189 0.0541508272290230 0.1604088544845581 0.0182889066636562 0.1047092080116272 -0.0496513284742832 0.1464722007513046 0.0369504354894161 0.1287679374217987 -0.0011462798574939 0.0461548306047916 -0.0227895583957434 0.1573053598403931 0.1242183968424797 -0.0276132002472878 0.0337150469422340 0.1309065222740173 0.1345022469758987 0.1154160425066948 0.0700966492295265 0.0458848215639591 0.0081066796556115 -0.0426397025585175 -0.0941308215260506 0.0850449055433273 0.0432227030396461 0.0593629330396652 0.1353948414325714
0.0572809465229511 -0.0799912437796593 0.0951790884137154 0.0048735872842371 0.0600612349808216 0.0511646047234535 0.1283838301897049 -0.0139282345771790 0.1124795451760292 -0.1264752596616745 0.1574998199939728 0.0286415461450815 -0.0434453338384628 0.1551271080970764 -0.0898853614926338 0.1213273182511330 0.0904078930616379 -0.0330751314759254 0.1182742640376091 -0.0426366031169891 -0.1136762350797653 0.0619053207337856 0.0936445593833923 -0.1487244069576263 0.0649245381355286 0.0826759263873100 0.1785151660442352 0.0828438773751259 -0.0736912712454796 0.0210253782570362 0.0971645414829254 0.0306893736124039 0.0623410679399967 0.1015153601765633 0.0687781944870949 0.1058773994445801 -0.0576707497239113 -0.0469791553914547 -0.0646333396434784 0.0913590043783188 -0.0998201519250870 0.0893519148230553 0.0814418345689774 0.0192879196256399 0.0647756606340408 0.0090992823243141 -0.0170372091233730 0.0670283734798431 0.1687712967395782 -0.0684051066637039 0.1086983531713486 0.1573269814252853 -0.0055751036852598 0.1288270354270935 0.0356055460870266 -0.0812333673238754 -0.0851198211312294 0.1090831607580185 -0.0427180156111717 0.0458452180027962 0.0953303426504135 0.1324746310710907 -0.1041456758975983 -0.0103396605700254
-0.0198405329138041 -0.0138929244130850 0.1280465424060822 -0.0166825819760561 0.0138316666707397 0.0147851277142763 0.0280993226915598 -0.0450249202549458 -0.0988538339734077 0.0499979890882969 0.0446571744978428 -0.0088835600763559 -0.0855338275432587 0.0873690620064735 -0.0274985749274492 0.1298819035291672 -0.0210793931037188 0.1622885167598724 0.0156321786344051 -0.0013938450720161 -0.0581907965242863 -0.0574286840856075 0.0754641070961952 0.0360705740749836 -0.0833112597465515 0.0799446180462837 -0.2138577103614807 0.0655593276023865 0.0440885759890079 0.0542228147387505 0.1584420502185822 0.0570722706615925 -0.0257295388728380 -0.0261970572173595 -0.0362875051796436 0.0662967413663864 -0.0685961768031120 -0.0747673436999321 0.0358901768922806 0.0925843939185143 0.0162973627448082 0.1256960779428482 0.0042389947921038 -0.0973473712801933 0.0899713337421417 0.1564886271953583 0.0719071701169014 0.0647890046238899 0.0021122801117599 -0.0000320276158163 0.0589558184146881 -0.0646081492304802 -0.0955805480480194 -0.0118023231625557 0.0784920752048492 -0.0351139195263386 0.0407219491899014 0.0634737834334373 0.0276739820837975 0.0158973168581724 -0.0410419069230556 -0.0023713253904134 0.0582888908684254 -0.0467787459492683
-0.0244780462235212 0.1438584476709366 0.1147579178214073 0.1118426695466042 0.0819649025797844 -0.0496975593268871 -0.1165332719683647 -0.0361035987734795 0.1229450479149818 -0.0775862112641335 -0.0503648631274700 -0.0826792642474174 0.1344906836748123 -0.1538306921720505 0.0120898727327585 0.1135613396763802 -0.0236627012491226 -0.0317425951361656 -0.0520426034927368 0.0376980900764465 -0.0036917577963322 0.0758346468210220 -0.0132171222940087 0.1259278208017349 0.1805906742811203 0.0409388318657875 0.1074200794100761 -0.0136820618063211 -0.0711281597614288 0.0450363717973232 0.0186745524406433 0.0853026434779167 0.0074829231016338 0.0768451020121574 0.2045600414276123 0.0342829748988152 0.0632852315902710 0.1433739066123962 -0.0412769727408886 0.0535829663276672 0.0327502898871899 -0.0027833601925522 -0.0494594499468803 0.0290496107190847 -0.0547881051898003 -0.0560453943908215 0.0688178390264511 0.0183132831007242 0.1534276455640793 0.1081976965069771 -0.1355750411748886 -0.0079824011772871 -0.0606985390186310 0.1162591502070427 -0.0679892301559448 0.0963075011968613 0.1179058402776718 0.0618325956165791 0.0505518577992916 -0.0450996942818165 -0.0789611414074898 0.0288643296808004 0.1093368753790855 0.0706761404871941
-0.0871845930814743 0.0672225728631020 0.0543675646185875 0.0675264894962311 0.0698679834604263 -0.0864862352609634 0.1441403627395630 -0.0623065941035748 0.0123791033402085 -0.0353100001811981 0.0452639535069466 -0.0928787440061569 -0.0842566192150116 0.0423264242708683 0.0610593631863594 0.0581921711564064 -0.0182429086416960 0.0925916060805321 0.0097394790500402 -0.0378418713808060 0.0120368152856827 0.0043353014625609 -0.0945529416203499 0.0947411507368088 -0.0951208248734474 0.0751497596502304 -0.0429657697677612 0.1416527926921844 -0.0816936939954758 0.0656184554100037 -0.0243210569024086 -0.0765039399266243 0.0572799928486347 -0.0980725288391113 -0.0754997804760933 0.0222302284091711 -0.0939001590013504 0.1361570805311203 0.1154904067516327 0.0743111446499825 -0.0596210174262524 0.0751982703804970 -0.0457052960991859 -0.0470621138811111 -0.0318113118410110 -0.0053898757323623 0.0477213785052299 0.1251937448978424 -0.0060437936335802 0.0069015319459140 0.1588421016931534 0.1535231173038483 0.0107863089069724 0.1289908289909363 -0.0124582275748253 -0.0467614196240902 -0.0160744395107031 0.0240634847432375 0.0594271235167980 0.0533129051327705 -0.0305653065443039 0.0771447569131851 0.0961244627833366 -0.0748406723141670
-0.0089096687734127 0.0883672013878822 -0.0146031938493252 0.0948984473943710 -0.1077806577086449 0.0675906687974930 -0.0460342019796371 0.0550584308803082 0.0882718116044998 0.1034259274601936 -0.0656152293086052 -0.0787301659584045 -0.0463759042322636 0.0314365662634373 0.0294094383716583 -0.0481578931212425 0.0168107859790325 0.0206621401011944 0.1216614246368408 -0.0359337553381920 -0.0431525707244873 0.0563924610614777 -0.1661082357168198 0.0181233622133732 -0.0520236603915691 -0.0781844928860664 0.0543641149997711 -0.1040178611874580 0.0024019661359489 0.0191429723054171 -0.0568893551826477 -0.0899418070912361 -0.0360719114542007 0.0090741682797670 0.1302925795316696 0.1239753216505051 0.1036695316433907 0.0431948453187943 -0.0106474980711937 0.0678418278694153 -0.0175653006881475 -0.0509488284587860 0.1589568257331848 -0.0170165747404099 0.0829214975237846 -0.0044396147131920 0.0217688493430614 0.0587189048528671 0.0636222213506699 -0.0213499721139669 0.0930722579360008 0.1010694354772568 0.0756778344511986 -0.1194567233324051 -0.1351716369390488 -0.0874685645103455 -0.0081797605380416 0.0985908508300781 -0.0636610612273216 -0.0353898517787457 0.0544688738882542 0.1100802570581436 -0.0574841201305389 -0.0891590416431427
0.0698618888854980 0.1604378074407578 0.0898899585008621 -0.0439953804016113 0.0510296747088432 0.0032607838511467 0.0562291741371155 0.0224696770310402 0.1086309328675270 -0.0820187106728554 -0.0278895385563374 0.0498814508318901 -0.0285853520035744 0.0575072318315506 0.0796035006642342 -0.0256365034729242 -0.0698395818471909 0.0602709949016571 0.0121893584728241 0.0601629279553890 -0.0062240161933005 -0.0092112654820085 -0.0040040081366897 0.0813769623637199 0.1304925531148911 0.2191398441791534 0.0949052423238754 -0.0633066892623901 0.0583627447485924 0.1113332659006119 0.0069850678555667 -0.0495661050081253 0.0467036627233028 -0.0073744566179812 0.0991678461432457 0.0313384532928467 0.0045706131495535 -0.1215935721993446 0.0367089770734310 -0.0878456607460976 0.0909856110811234 -0.0154315344989300 -0.0330758690834045 0.0598722696304321 0.0092198839411139 -0.1006271988153458 0.1099450290203094 -0.1737704873085022 0.1743662655353546 0.1220571920275688 0.0592620447278023 -0.1113757789134979 -0.0659601688385010 -0.0347965396940708 -0.0234074946492910 0.0344008468091488 -0.0891135931015015 -0.0006263409159146 -0.0918536856770515 -0.0081667788326740 -0.0345734283328056 0.0429606065154076 -0.1098086982965469 0.1052583903074265
0.0586553066968918 -0.1000624895095825 -0.0632373094558716 0.0319319516420364 0.1027657091617584 0.0182746052742004 0.0498767942190170 -0.0503492504358292 -0.0800112485885620 -0.0568521618843079 -0.0428494364023209 -0.0346622914075851 0.1069054454565048 -0.0429132282733917 0.0215447545051575 -0.1063071191310883 0.0334617942571640 -0.0075803250074387 -0.1106561869382858 0.0608720928430557 -0.0600542277097702 -0.0054600089788437 -0.0533113628625870 0.0634243935346603 -0.0069143921136856 -0.1139989793300629 0.1077689379453659 -0.0292813181877136 0.1176538318395615 -0.0860376209020615 0.0070254951715469 -0.0465147197246552 0.0714173913002014 -0.0468029826879501 -0.0997786968946457 0.0000497400760651 -0.0973801016807556 -0.0922371149063110 -0.1018530875444412 0.1098827719688416 -0.0412869006395340 -0.1216014325618744 -0.0544728040695190 -0.1237575411796570 -0.0418606847524643 -0.0667257010936737 0.1091494262218475 -0.0256075561046600 -0.0024397522211075 -0.0988276451826096 -0.1192811280488968 -0.0972126275300980 -0.0129078328609467 -0.0484171807765961 0.0910944044589996 0.0656334310770035 -0.0085916519165039 -0.0761814564466476 -0.0578371882438660 0.0864385813474655 0.0710612386465073 0.0063011944293976 0.0076016783714294 -0.0294527709484100
-0.0609195046126842 0.0860030129551888 0.0991563349962234 0.0204305145889521 0.0677026584744453 0.0223266705870628 -0.0753786265850067 -0.0576218776404858 -0.0062895682640374 0.1205434426665306 0.0903368592262268 0.0002196005953010 -0.0727090835571289 0.0013283302541822 -0.0373946540057659 -0.1048238500952721 -0.0125147039070725 -0.1211476698517799 -0.0465344972908497 -0.0294421222060919 -0.0461049638688564 -0.0286908242851496 0.0468519516289234 0.0471707768738270 0.1157728582620621 -0.1474903672933578 0.1895860582590103 0.0030136257410049 0.1466010510921478 0.1301301866769791 0.0476745367050171 0.0362240523099899 0.0945317745208740 -0.0176189169287682 0.0040003163740039 -0.0722110643982887 0.1552442461252213 0.0675783231854439 0.0067278584465384 -0.1172435209155083 -0.0623701848089695 0.0606699660420418 0.0819155350327492 0.0646117702126503 -0.0303284246474504 -0.0843020156025887 -0.0028131902217865 -0.1794075071811676 0.0549417510628700 0.1033971086144447 -0.1027662083506584 0.0107673732563853 0.0214875526726246 -0.0317349955439568 0.0215851832181215 -0.0014456876087934 -0.0604270212352276 0.0547360554337502 0.0202804356813431 0.0278154276311398 -0.0838078707456589 -0.0555695481598377 0.0898626372218132 0.0239178873598576
0.0423023030161858 0.0601414218544960 -0.0155813675373793 0.0703287720680237 -0.0992140099406242 -0.0972596853971481 -0.0359622165560722 0.1099006906151772 -0.0030654082074761 -0.0558249726891518 0.1321060955524445 0.0772544592618942 0.1210232153534889 0.1347064822912216 0.0146305989474058 -0.0281556714326143 0.0223608687520027 -0.0485769547522068 -0.1021171063184738 0.0727985650300980 -0.0216895975172520 0.0702522322535515 -0.0180286169052124 0.0008483225246891 -0.0722576901316643 0.2150942832231522 -0.0079021118581295 0.0485101751983166 -0.0230973903089762 0.0574172362685204 -0.0088312225416303 0.0836639553308487 -0.0500434972345829 -0.0551112182438374 0.0487139895558357 -0.0528007596731186 -0.0678733587265015 0.0311464797705412 0.0421620719134808 0.1274307966232300 -0.0457481816411018 -0.0531821884214878 0.0667400062084198 0.1289193928241730 -0.1141071692109108 -0.0226111914962530 0.0119244204834104 0.1753445118665695 -0.0914060696959496 -0.0073452056385577 0.0358137376606464 0.1172661930322647 0.0780737474560738 0.0958303138613701 0.0143151413649321 0.1169399395585060 -0.0863893032073975 0.0536274984478951 -0.0729879885911942 0.1320202052593231 -0.0167873967438936 0.0535476543009281 0.0454075559973717 -0.1257987916469574
0.0826031193137169 -0.0794355720281601 -0.0636520311236382 0.1186557933688164 -0.0005140966386534 -0.0305325370281935 0.0679062902927399 0.0782059356570244 0.0950090661644936 0.0549521148204803 0.1599597334861755 0.0451241359114647 0.1199763193726540 0.0720919668674469 -0.0705211833119392 -0.0212754793465137 0.0796880424022675 0.1628940701484680 -0.1020755618810654 0.1077404245734215 -0.0428201705217361 0.0043467152863741 -0.0698255449533463 -0.0500488281250000 0.0812829434871674 -0.0318176895380020 -0.0675054565072060 -0.0352801680564880 0.1225224658846855 -0.0902756825089455 0.0625386759638786 -0.0335540622472763 -0.1173508316278458 0.0150972595438361 -0.1431741565465927 -0.1129902154207230 0.0333760306239128 0.1170742511749268 0.0992020443081856 0.2201348245143890 0.0967234969139099 0.1224896833300591 -0.0997026115655899 -0.0475060008466244 -0.0866474509239197 -0.0277942381799221 0.0047249137423933 0.1180190891027451 -0.1247010156512260 -0.0281285066157579 0.0050267139449716 0.1355696171522141 0.0688851177692413 0.1028085052967072 -0.0071742483414710 -0.0121321929618716 -0.0266192313283682 -0.0036588676739484 -0.0133423237130046 -0.0151805207133293 0.1611804366111755 0.0299267340451479 0.1398020535707474 -0.0038374536670744
0.1372770071029663 0.0548290722072124 -0.0095858070999384 0.0360297001898289 -0.0869950428605080 0.0463861487805843 0.0604878813028336 -0.0009045616607182 0.0967088267207146 0.0278278365731239 0.0598927810788155 0.0471088364720345 0.0873040035367012 -0.0852033197879791 0.0645501613616943 -0.0653370693325996 0.0955221205949783 0.0820562541484833 0.0771635621786118 0.0653401464223862 0.0840653479099274 -0.0117187229916453 -0.0626674443483353 -0.0417240411043167 0.1122823357582092 0.0353549458086491 0.0621740967035294 0.0052953734993935 0.0161586143076420 0.1153638288378716 -0.0535894930362701 -0.0550025254487991 0.0739687979221344 0.0234419796615839 0.0303138103336096 0.0768433362245560 -0.0286368690431118 0.1005485281348228 0.0666871592402458 0.0097835864871740 0.0582310706377029 0.0316129289567471 0.0009495150297880 0.0742751508951187 0.0303424727171659 0.0958139449357986 0.0303602013736963 -0.1306887567043304 0.0322645045816898 0.0282328482717276 -0.0760775879025459 -0.0935755372047424 -0.0584484636783600 -0.0644047483801842 -0.0091795781627297 -0.0621161386370659 0.0891708359122276 0.1546215862035751 -0.0293133817613125 0.1165552660822868 -0.0723623782396317 0.0353368036448956 -0.0976956710219383 0.0110935401171446
0.1115886941552162 0.0839000642299652 -0.0478733740746975 0.0418582670390606 -0.0302087087184191 -0.0228796992450953 0.0587080083787441 -0.0514900200068951 0.0738969296216965 0.0195350628346205 -0.0344763360917568 0.1255340427160263 -0.0134370420128107 -0.0413259938359261 0.0323866158723831 -0.0862223207950592 0.1098971739411354 0.0068756993860006 0.1584388911724091 0.0438175387680531 -0.0208170525729656 0.0637756884098053 0.1369513720273972 0.1012211367487907 -0.0305116213858128 0.0294617116451263 0.1713199019432068 0.0598383098840714 0.1444596201181412 0.0116044133901596 0.0224689971655607 -0.0404432974755764 -0.0245351847261190 0.0841977596282959 0.1069238260388374 -0.0641381517052650 0.1115428209304810 -0.0469002276659012 0.0611465200781822 -0.0803648382425308 -0.0415641255676746 -0.0377861224114895 -0.0037860225420445 0.0279085747897625 0.1247307732701302 -0.0020348147954792 0.1228912770748138 -0.1441555768251419 0.1391213834285736 0.0789004415273666 -0.1076573655009270 0.0707913264632225 0.1014129221439362 -0.0672153383493423 -0.0532606802880764 0.0638323053717613 0.0604421235620975 0.0644961893558502 0.1170151010155678 -0.0439198575913906 -0.0305370427668095 0.0491612851619720 0.0461768656969070 -0.0456908084452152
0.0979872122406960 0.1400658637285233 -0.0271886605769396 0.1006454005837440 0.0745533928275108 0.1634402871131897 0.0655650198459625 -0.0915457531809807 -0.0789455100893974 0.0197321437299252 -0.0497389547526836 0.0768909454345703 0.1493358314037323 -0.0112166553735733 -0.0070618796162307 0.0367026776075363 0.0924616083502769 -0.0166198294609785 0.0105876345187426 0.0492198355495930 -0.0459234006702900 0.1192156076431274 -0.0521089769899845 0.0219787452369928 0.1634259074926376 0.1262144744396210 0.2096567153930664 0.0344861820340157 0.0469992235302925 -0.0194708518683910 0.0373323522508144 -0.0461095459759235 -0.0666892677545547 0.1343193352222443 0.2294835448265076 0.0871380269527435 0.0343508534133434 -0.0822018086910248 0.0748260766267776 -0.0023572302889079 -0.0574954450130463 -0.0638780072331429 0.1995438635349274 0.1381724923849106 -0.0835631191730499 0.1322932243347168 0.0571151636540890 0.0763560459017754 0.1462385356426239 -0.0054314611479640 0.0983342304825783 0.0815988481044769 -0.0499746352434158 0.0601594708859921 0.0389842875301838 0.0909406542778015 0.0322614908218384 -0.0747604370117188 0.0427017360925674 0.1365508437156677 -0.1023394539952278 -0.0527655258774757 0.0233041066676378 -0.0356781706213951
0.0121918180957437 0.0652426704764366 -0.0194406844675541 -0.0396983548998833 0.0234052594751120 -0.0484329685568810 0.0528190694749355 -0.0720036700367928 -0.0961015149950981 -0.0751672759652138 0.1509185135364532 0.1140326932072639 0.1055941432714462 0.1227386221289635 0.1158405169844627 0.0482064075767994 -0.0192460976541042 0.0375956557691097 -0.0163627993315458 0.1518473178148270 0.0300809834152460 -0.0653140619397163 0.1042059659957886 0.0769606679677963 -0.0138691803440452 0.1464568525552750 -0.1643327772617340 0.1520446836948395 0.0871805027127266 -0.0681262537837029 0.0868269950151443 0.0972968339920044 -0.0532948747277260 -0.0212319176644087 -0.0771543383598328 0.1172032505273819 -0.0027553050313145 -0.0792324766516685 0.1062090024352074 0.0713061913847923 -0.0136370537802577 0.1361754536628723 -0.1200766339898109 0.0495852380990982 -0.0887085869908333 0.0034088478423655 0.0766908749938011 0.0188768953084946 -0.0789823159575462 0.1302624344825745 0.1111007705330849 -0.0327824018895626 -0.0463730394840240 0.1230320259928703 0.1132274791598320 -0.0283758006989956 0.1162690967321396 -0.0350546501576900 0.0209045540541410 0.1145411208271980 0.0193483065813780 -0.0195578597486019 0.0661631524562836 -0.0807396322488785
-0.0375041142106056 0.0256711971014738 0.1301322132349014 -0.0712231323122978 0.1186262667179108 -0.1196301355957985 -0.0771536827087402 -0.0333941765129566 -0.0593583323061466 0.1390115618705750 -0.1320540904998779 0.1046518087387085 0.0447628088295460 0.0211506206542253 -0.0706218555569649 -0.0537012405693531 0.0945088714361191 0.0303677916526794 -0.0720572993159294 -0.0420688837766647 0.0221264977008104 0.0495258271694183 0.0319601185619831 -0.0095689482986927 0.1208126246929169 -0.0653471276164055 -0.0159731488674879 -0.1156289353966713 0.0907460898160934 0.0712799802422523 -0.1224562600255013 0.0500329695641994 -0.0635466873645782 -0.0791193246841431 0.1372251361608505 0.0319157950580120 -0.0899192988872528 -0.0689661428332329 -0.0590556152164936 -0.0925911739468575 -0.0868704989552498 0.0949213728308678 -0.0033163013868034 -0.0511116422712803 0.1133620813488960 -0.0274975467473269 -0.0161502454429865 -0.0215834528207779 0.0760952085256577 -0.0761730521917343 -0.1149890199303627 0.0840541571378708 0.1059038639068604 -0.0712895244359970 0.0139308460056782 0.0783166587352753 -0.0605507306754589 -0.0686129853129387 -0.0484199263155460 -0.0045321076177061 0.0257519651204348 0.0144679006189108 0.1091882362961769 0.0870226323604584
-0.0160277690738440 -0.0714917927980423 0.0854040831327438 -0.1186013296246529 0.0320592857897282 0.0980577766895294 -0.2729305028915405 -0.0549121238291264 -0.0811346918344498 -0.0012816027738154 -0.0593541562557220 -0.0405120365321636 0.0712798014283180 -0.0575285926461220 0.0282506272196770 -0.0442263819277287 0.0281748920679092 -0.0575455874204636 0.0317928567528725 0.0146465040743351 -0.0691930726170540 -0.0941120237112045 -0.0806792825460434 0.0583835206925869 0.0468131005764008 -0.1189469248056412 0.2404588460922241 -0.0896325930953026 0.1178182810544968 0.1695382595062256 -0.2301080673933029 -0.1428773701190948 0.1591982841491699 0.1423455774784088 0.0792077630758286 0.1031914204359055 -0.0654269307851791 -0.1138648986816406 0.1598700433969498 0.0336593091487885 0.1346512138843536 -0.1424771845340729 0.0713999643921852 0.1549978405237198 -0.0693243592977524 0.0456752926111221 -0.0228859968483448 -0.0864267796278000 -0.0332575701177120 -0.0009935521520674 -0.0797283574938774 -0.1392877101898193 0.1450808346271515 0.1375793367624283 -0.0651058927178383 -0.1150318980216980 0.1093753576278687 -0.0198241211473942 -0.0329065807163715 -0.0588021166622639 -0.0688822045922279 0.0790039077401161 -0.0243525486439466 -0.0937898531556129
0.1069043502211571 0.0631417706608772 -0.0109959160909057 -0.0778101533651352 0.0422740764915943 0.1289682388305664 0.0138395205140114 0.1166916638612747 0.0978220701217651 0.1257779747247696 -0.0655474960803986 0.0748357772827148 -0.0163911450654268 -0.1639981418848038 0.0502542741596699 -0.0631381422281265 0.1078427061438560 0.1049122512340546 0.0811420381069183 0.0112436143681407 0.0047853174619377 -0.0982649102807045 0.0731453597545624 0.0618270300328732 0.1964881569147110 0.1184194162487984 0.2343216240406036 -0.1058869212865829 0.0642950311303139 0.1991791427135468 0.0514650605618954 -0.0073900399729609 0.1392737179994583 0.0112730888649821 0.2626329362392426 -0.0201198384165764 0.0192681867629290 -0.0594013892114162 0.1203851327300072 0.0061408989131451 0.0042042699642479 -0.0618119798600674 0.0245373509824276 0.0278273057192564 -0.0520307272672653 0.0132908951491117 -0.0689295753836632 -0.1320980489253998 0.0303150583058596 0.0876929610967636 0.0656553059816360 -0.0557801239192486 0.1066354140639305 0.1552089005708694 0.0958603322505951 0.0125933587551117 0.0922998785972595 0.0866246595978737 0.1136366054415703 -0.0840892642736435 0.0132661769166589 0.0187780819833279 0.1268878579139709 0.0844281390309334
0.0293398536741734 0.0445329099893570 0.0183534715324640 0.1763220578432083 -0.0381567403674126 0.2021706700325012 0.1021005585789680 -0.0957264304161072 0.0073570483364165 0.0568151473999023 -0.0060933418571949 -0.0426167286932468 0.0036123162135482 -0.0478411614894867 0.0478949882090092 0.0839116424322128 0.1363235861063004 0.0278992466628551 0.0535546168684959 0.1521027386188507 0.0909712910652161 -0.0132981119677424 -0.0692281723022461 -0.1033246591687202 0.0997807085514069 0.1846215724945068 0.1046919971704483 0.0337824337184429 -0.0222047008574009 0.1967920362949371 0.1227935031056404 0.0102396588772535 0.0657850503921509 0.0741709768772125 0.2214767932891846 -0.0034537171013653 0.1587968915700912 0.0892887040972710 -0.0779606476426125 0.1751790940761566 0.1318863034248352 0.0867646262049675 0.1615421324968338 0.0782928913831711 -0.0570152923464775 -0.0020682737231255 -0.1085468530654907 0.1082523092627525 -0.0695051401853561 0.1261890977621078 0.0682091489434242 -0.0614006817340851 -0.0146042015403509 0.0117990681901574 -0.0749769583344460 -0.0829076021909714 0.0428547933697701 0.1066520288586617 -0.0497255213558674 0.1292428374290466 -0.0025226902216673 -0.0489844828844070 -0.0247046630829573 -0.0568919293582439
-0.0540451854467392 0.1157824546098709 -0.0765584409236908 -0.0945744365453720 -0.0126898130401969 -0.1027620881795883 0.0751674026250839 0.0292859710752964 0.0093186041340232 -0.1342776417732239 0.0079114362597466 0.0110456366091967 -0.1108825504779816 -0.0134911257773638 -0.0545192770659924 0.0268451850861311 0.0117583796381950 0.0684002265334129 0.0493468567728996 0.0054492978379130 -0.0426570512354374 -0.0464932508766651 -0.0519585944712162 0.0077850120142102 -0.0107442289590836 -0.0151747586205602 -0.0598835051059723 0.0424572229385376 -0.0771767050027847 0.0443670153617859 -0.0098323663696647 -0.0170265268534422 0.0054929889738560 -0.0956813842058182 -0.0312712341547012 -0.0790719389915466 0.0441448986530304 -0.0608291886746883 -0.0568908751010895 -0.0381838157773018 -0.0565890260040760 -0.0474102497100830 -0.0386590063571930 -0.1020849943161011 0.0709031298756599 -0.1336428076028824 0.0179396662861109 -0.0895604714751244 0.0676128566265106 -0.1092079579830170 0.0025869747623801 0.0635238066315651 -0.0259258411824703 -0.0178837981075048 -0.0589952692389488 0.0276779700070620 -0.0926547870039940 0.0634778141975403 -0.0690275803208351 0.0483732372522354 0.0575520545244217 -0.0354450978338718 0.0889847055077553 -0.0860854238271713
0.0240503288805485 0.1460781842470169 0.0750973299145699 0.0128326071426272 0.1227358132600784 0.1723613291978836 -0.0922067314386368 0.1638682335615158 0.0247409176081419 0.1445258706808090 0.0927676483988762 0.0525887720286846 -0.0393179617822170 -0.0495930463075638 -0.0034414865076542 -0.0234876666218042 0.0980093553662300 -0.0476342141628265 0.0016396476421505 -0.0951045081019402 0.1106187924742699 0.0516254864633083 -0.0614296346902847 -0.0764569640159607 0.0487746223807335 -0.0098393168300390 0.0645492076873779 -0.0356626696884632 -0.0164445899426937 0.0650824084877968 -0.0593784339725971 -0.0109431678429246 -0.0526447370648384 0.0456656999886036 0.2138309478759766 0.0691358223557472 0.0019939504563808 0.0563823841512203 -0.0419742204248905 -0.0771643221378326 -0.0226937308907509 -0.0089244209229946 0.1051677614450455 0.1102766990661621 -0.0282125882804394 0.1458380669355392 0.0695040971040726 -0.0369708351790905 0.0304251443594694 0.0197541043162346 -0.0203807670623064 0.0328690186142921 0.0455615781247616 0.1347606480121613 0.0184758547693491 0.1258706748485565 -0.0630233660340309 0.1697355210781097 -0.0765623971819878 -0.0773174390196800 0.0396160818636417 0.0157085936516523 0.0818114131689072 0.0159272905439138
-0.0426484905183315 0.1244251802563667 0.0175065193325281 0.0544196479022503 -0.0392922013998032 0.0761218443512917 -0.1130854710936546 -0.0676982700824738 0.0503896363079548 0.0167068690061569 -0.0447030588984489 0.1106483861804008 0.0619527623057365 0.0597161203622818 0.0776673331856728 0.1001094579696655 0.0118443965911865 0.0583819262683392 0.0586308948695660 -0.1191588863730431 -0.0491107143461704 -0.0624689608812332 0.0655102431774139 -0.0517340488731861 -0.0111767137423158 0.1016394942998886 0.0981064438819885 -0.0559963695704937 0.0500061027705669 0.1679294556379318 -0.0967620536684990 -0.0695612654089928 -0.0093873338773847 0.0822914317250252 0.1880013197660446 -0.0761174783110619 0.0411909520626068 0.0291647333651781 0.0927909016609192 -0.0167054217308760 0.0508024655282497 0.0573491789400578 0.1087652519345284 0.1057358086109161 0.1016315743327141 -0.1047841534018517 0.1322911977767944 -0.1578587442636490 0.0725554972887039 0.1026558056473732 -0.1305828690528870 0.0801137313246727 0.0496981702744961 0.0725273042917252 -0.0031115435995162 0.0437679998576641 0.1350910365581512 0.0290613621473312 -0.0619093738496304 0.0442906804382801 0.0828454196453094 0.0415894724428654 -0.0489062033593655 0.0561267323791981
0.1095862537622452 0.0693660378456116 0.0129431989043951 -0.0285054929554462 0.1263710558414459 0.1975607573986053 0.0318141318857670 0.0830430313944817 -0.0492754802107811 0.0151890460401773 0.1125929728150368 -0.0824122056365013 0.1431850492954254 0.0398990735411644 0.0697371140122414 -0.0880443081259727 -0.0872364789247513 0.0953339114785194 -0.0021519695874304 -0.1055103093385696 0.0641414821147919 -0.0790971666574478 0.1022353544831276 -0.0213584285229445 0.1025065407156944 0.0340757742524147 0.2567930519580841 0.0774034112691879 0.0318614058196545 0.0066134845837951 0.0035262783057988 0.0626070722937584 0.0236365105956793 0.0026211522053927 0.0998807549476624 0.0271119903773069 0.1193434670567513 -0.0502898469567299 0.0522187352180481 -0.1137884482741356 0.0085899196565151 -0.0026859147474170 0.1457938551902771 0.1158131510019302 0.0494414120912552 -0.0206286441534758 -0.0409449003636837 0.0772212967276573 0.0814432054758072 0.0835609063506126 -0.0926750898361206 0.0746698305010796 0.1117244064807892 0.0783717185258865 0.0164333377033472 -0.0613858737051487 0.0873213186860085 0.1074315086007118 0.0743582397699356 -0.0315858386456966 -0.0616680383682251 0.1164032518863678 0.1214556246995926 0.1158654540777206
0.0777717530727386 -0.0830158442258835 0.0856110826134682 0.1352456212043762 0.1201959848403931 -0.0843472182750702 0.0008666179492138 0.1520877182483673 0.1068628877401352 0.0620050877332687 0.1353577226400375 0.0315320491790771 0.0537164248526096 0.0346820950508118 -0.0062715588137507 0.1408811062574387 0.0561552569270134 0.1394798159599304 0.0166611447930336 -0.0038995682261884 -0.0790979936718941 -0.0517925545573235 0.0391008593142033 0.0711083114147186 -0.1273397654294968 0.1803046017885208 -0.2258630096912384 0.1276053488254547 0.0092316074296832 -0.1199001446366310 -0.0088765481486917 0.1134346798062325 -0.0220535863190889 -0.1608292609453201 -0.0683829411864281 0.0921523571014404 0.0342521704733372 0.0361432544887066 -0.0798263475298882 -0.0136929871514440 -0.0731577500700951 -0.0648801177740097 -0.0951431319117546 -0.0709547847509384 0.0125157982110977 -0.0554641298949718 0.0195054858922958 0.1784507185220718 -0.0880404561758041 0.0003837593249045 0.1681030243635178 0.1429054141044617 -0.0602229535579681 -0.0339050889015198 0.1438236236572266 0.1473151892423630 0.1473826617002487 -0.0184828676283360 0.0385140329599380 0.0522210784256458 0.1499942243099213 0.0695129632949829 -0.0405307002365589 0.1191654130816460
0.0347046367824078 0.1233152076601982 0.1136445999145508 0.0356710590422153 0.0282455086708069 -0.0709910094738007 0.0006922328611836 0.0396454222500324 0.0410786792635918 0.0179195143282413 0.0186648480594158 0.0488364100456238 0.1328378766775131 -0.0272123515605927 -0.0062707010656595 0.1330735087394714 -0.0357855595648289 0.0481853410601616 -0.0527246482670307 -0.0405028313398361 0.1135497242212296 0.0199885033071041 0.0609957762062550 -0.0982146263122559 -0.0041949432343245 0.0816168263554573 0.1114943027496338 -0.0359994471073151 0.0304075330495834 0.0227254666388035 -0.0374318137764931 0.1119180023670197 0.0578864999115467 0.1522645801305771 0.0524062626063824 -0.0037827941123396 -0.0649701431393623 -0.0291015803813934 0.0411757007241249 -0.0762874707579613 -0.0712125524878502 -0.1237434819340706 0.1140583455562592 0.1327537745237350 -0.0446870774030685 0.0703561455011368 0.0225099492818117 0.0857386663556099 0.0411243066191673 -0.0469383448362350 -0.1348293721675873 0.0361097827553749 0.0517932884395123 -0.0179271157830954 -0.0057338643819094 0.0688588619232178 -0.0150660835206509 0.1267099529504776 0.0876519009470940 -0.1206042990088463 -0.0192519500851631 0.0139265675097704 0.0333684161305428 -0.0206649806350470
-0.1127843335270882 0.0879528969526291 -0.0912626385688782 -0.1227200776338577 0.0021576220169663 -0.0843555629253387 -0.0205640643835068 -0.1380194127559662 -0.0894902721047401 -0.1050545200705528 0.0324720032513142 0.0868465527892113 0.0053714178502560 0.0596150942146778 -0.1174236461520195 0.0532455407083035 -0.0687163397669792 0.0816923975944519 -0.0413611829280853 0.0302372165024281 -0.1328154802322388 -0.1285336017608643 -0.0668754354119301 0.1103926822543144 -0.1150930225849152 0.0215002596378326 0.0885228067636490 0.0023542749695480 0.0074841380119324 -0.0043819546699524 -0.0094795376062393 -0.1202411875128746 -0.0199769288301468 -0.0083739757537842 -0.0091456323862076 -0.0235480815172195 0.1195474267005920 -0.1202548146247864 -0.0874547213315964 0.0151682021096349 0.0811269953846931 -0.0014877028297633 -0.0798975676298141 -0.1150122210383415 -0.1030729860067368 0.0979402959346771 -0.0460302717983723 -0.0902015343308449 0.1207845211029053 -0.0096993148326874 -0.0093752630054951 -0.0809869691729546 0.0304117053747177 -0.1037804111838341 0.0808502659201622 0.0452235154807568 -0.0501492805778980 -0.0840447247028351 -0.0467150397598743 -0.0960186943411827 -0.0008202373282984 0.0256233494728804 -0.0963644534349442 0.0560902208089828
0.0512964464724064 0.0333077013492584 0.0484086759388447 0.0555843263864517 0.0432951152324677 0.1667379587888718 0.0539731457829475 -0.0924253910779953 0.1660401821136475 -0.0903650820255280 0.0650255158543587 -0.0372434705495834 0.0312881022691727 -0.0972997918725014 0.1130864173173904 -0.0392488017678261 0.1014597490429878 0.0211997646838427 0.1725441813468933 -0.0866044089198112 -0.0788287445902824 0.0529869608581066 -0.0048803212121129 0.0467109568417072 0.1453655809164047 0.0684342607855797 0.2239228934049606 0.0363599248230457 0.0975946113467216 0.0189782753586769 0.1107322573661804 -0.0967744067311287 0.0692039728164673 -0.0553291812539101 0.1471676081418991 0.1795455515384674 0.1536611467599869 -0.0015453603118658 -0.0202319752424955 0.1345541477203369 0.1221859306097031 0.1335221529006958 0.0541498623788357 0.0915389880537987 0.1231427192687988 0.0009361114352942 -0.0199825484305620 -0.0712105557322502 0.0330196321010590 0.0227093100547791 -0.0779241397976875 0.0919489413499832 0.1140778884291649 0.0589545778930187 0.0803525149822235 0.1143819317221642 -0.0421277210116386 0.0706267133355141 0.0578225180506706 0.0171359851956367 -0.0726190060377121 0.0969681665301323 0.0989141166210175 -0.0618665404617786
0.1369908452033997 -0.0435864441096783 -0.0133361853659153 0.0345674492418766 -0.0605677142739296 0.0868558883666992 -0.0006701083038934 0.0036942830774933 0.0882066786289215 -0.0920674726366997 -0.0089600970968604 0.0101671284064651 0.0214179251343012 0.0685168355703354 -0.1032191067934036 0.0341093838214874 -0.0194816123694181 -0.0610308870673180 0.1139228940010071 -0.0950590372085571 -0.0456984415650368 0.1346745640039444 0.0283471811562777 0.0320554450154305 -0.0406828820705414 0.0318657644093037 0.1493338048458099 -0.0283754970878363 -0.0139635764062405 0.0187229793518782 0.0917290747165680 0.0039199148304760 0.0969918891787529 0.0742828547954559 0.0736141726374626 0.0229694731533527 -0.0043294592760503 0.0898229926824570 0.1305994838476181 0.0819124355912209 -0.0668198913335800 -0.1182928681373596 0.0824833959341049 0.1045959740877151 -0.0292678885161877 0.0319875553250313 0.0492325872182846 0.0370452553033829 0.1577043831348419 0.1034290567040443 -0.0428093224763870 -0.1048279106616974 0.1061124056577682 0.1418926864862442 -0.0370168201625347 0.0465606153011322 0.0122304391115904 0.1489379107952118 -0.0741908997297287 -0.0714962407946587 -0.0009383215801790 -0.0001299810246564 0.1058744415640831 -0.0795440226793289
0.1454761773347855 -0.0060625481419265 0.1001836806535721 0.0681682080030441 0.0498839020729065 0.0209500938653946 -0.1109612658619881 -0.0836567357182503 -0.0126464990898967 0.1065570190548897 -0.0459723696112633 0.0725007355213165 -0.0281964372843504 -0.1059589460492134 0.0880262926220894 0.0402733385562897 0.0267517026513815 -0.0101300096139312 0.0416139960289001 -0.0435166880488396 0.0546592511236668 0.1353659480810165 0.0810638219118118 0.0246335770934820 0.0378883853554726 0.1458743959665298 0.0133122038096189 -0.1186516657471657 0.1528702676296234 0.0634269639849663 -0.0610331557691097 0.0513622723519802 0.0699770823121071 0.0409470200538635 0.0557346679270267 0.1426645666360855 0.0077324463054538 -0.0693701654672623 0.0617997720837593 -0.0782822668552399 -0.0182251669466496 0.0088955396786332 0.1600676029920578 0.0563440509140491 -0.0439155995845795 0.0275784749537706 0.0330561809241772 -0.0358997769653797 0.1052680909633636 0.1005556285381317 0.0699312537908554 0.1038718596100807 0.0176990460604429 -0.0091454721987247 0.0676173120737076 0.1235795244574547 -0.0443250834941864 0.0594818145036697 0.0666379705071449 -0.1096039563417435 -0.0752131342887878 0.0211695078760386 -0.0663886740803719 0.0209338366985321
0.0429715886712074 0.1333331763744354 0.1310155987739563 0.0293199364095926 -0.0947600230574608 -0.0451364032924175 -0.0641207918524742 -0.0364311710000038 0.0269074868410826 -0.0147356651723385 -0.0476053431630135 -0.0053823427297175 -0.0427143797278404 0.1859219670295715 0.0639588311314583 0.1320897340774536 -0.0653283074498177 0.1599243283271790 0.0790058746933937 0.1021479815244675 0.0983772352337837 0.1122626364231110 0.0158917345106602 0.1026889085769653 -0.1165695935487747 0.1856958419084549 -0.0168223679065704 0.1406082510948181 0.0480181053280830 -0.0755342245101929 0.0173246096819639 -0.0654640793800354 -0.0059816981665790 -0.0856964066624641 0.0651365891098976 0.1234765797853470 0.0119014279916883 -0.0126252481713891 0.0334317721426487 0.0512040331959724 -0.0764197483658791 -0.0616147816181183 -0.0888031870126724 0.0076513295061886 0.0843982994556427 0.1050673276185989 -0.0516049638390541 0.1048321500420570 0.0162382852286100 -0.0748435780405998 0.0634179934859276 -0.0113902315497398 -0.0510124042630196 -0.0377706177532673 -0.0116744153201580 -0.0051973485387862 -0.0397286154329777 -0.0152252092957497 -0.0850539654493332 -0.0795439109206200 0.0623636581003666 -0.0040938365273178 -0.0113618392497301 0.0370855331420898
-0.0516423359513283 -0.0536827296018600 0.1253141313791275 0.0972725003957748 -0.1161343678832054 0.0361028127372265 0.0921294242143631 -0.0484233759343624 -0.0645581185817719 0.0591407120227814 0.1173080727458000 -0.0648023784160614 -0.0755906701087952 0.1550304591655731 0.0809405744075775 -0.0254572406411171 -0.0226691868156195 0.0636613517999649 0.1097192168235779 0.1463578194379807 -0.0336813442409039 0.0655780807137489 0.0472500324249268 -0.0345688574016094 0.0415482781827450 0.1410522311925888 0.0291553940623999 0.1430148035287857 -0.0250099673867226 -0.0263036508113146 0.0907845497131348 -0.0220391750335693 0.0175252091139555 -0.0394856743514538 -0.0851073041558266 -0.0126997418701649 -0.0284466352313757 0.0586768947541714 0.0661582946777344 0.0070639681071043 0.0561893768608570 0.0828823372721672 0.0236981585621834 0.1246472820639610 0.0084828315302730 0.1315273642539978 0.1469236016273499 0.1614249050617218 0.0303355474025011 -0.1128539294004440 0.0364576727151871 0.0443501360714436 0.0784007683396339 -0.0467485785484314 -0.0571328811347485 0.0556056424975395 -0.0207390673458576 0.0672181770205498 -0.0553959012031555 0.0498443134129047 0.0886247679591179 0.0827182382345200 -0.0639791786670685 0.0018210462294519
0.1160119995474815 0.1054919734597206 -0.0399555340409279 0.1171336174011230 0.0964662879705429 -0.0494445040822029 0.0613766200840473 0.0648902133107185 0.1666205376386642 0.0308020915836096 -0.0343230068683624 -0.0445635132491589 0.0301279164850712 -0.1328531354665756 0.0821273028850555 0.1324039399623871 -0.0121112652122974 0.1122885420918465 -0.0640888065099716 -0.1187606081366539 0.1119151860475540 0.1010698452591896 -0.0427614338696003 -0.0560656525194645 0.1173335313796997 0.0721183419227600 0.1119331270456314 -0.1035152450203896 0.1017354130744934 0.1882515251636505 -0.0539326071739197 0.0568087659776211 -0.0644010901451111 -0.0674828290939331 0.2357485294342041 0.1284963637590408 0.0835058763623238 -0.0515548363327980 0.0957691669464111 -0.1210850626230240 -0.0193541776388884 0.0281281024217606 0.0035693850368261 0.0455955602228642 -0.0798520222306252 0.0672919601202011 0.1374595016241074 -0.0592020228505135 0.0849326476454735 0.1570529937744141 0.0077197402715683 0.0270640198141336 -0.0509137324988842 0.0004497498448472 0.0814432874321938 -0.1018809601664543 0.0145480874925852 0.1526195853948593 -0.0718504264950752 0.0789490938186646 0.1085440963506699 0.0087880194187164 0.0448015443980694 -0.0415465161204338
0.0609561204910278 -0.0506902933120728 -0.0386317260563374 0.0565012246370316 -0.0584526434540749 0.1913353353738785 0.1052823066711426 -0.0437628142535686 0.0723791643977165 -0.0047380644828081 0.1246976330876350 -0.0881561189889908 0.1601136624813080 0.1280363798141479 -0.0976479500532150 -0.0593992695212364 -0.0332328602671623 0.0273801963776350 0.0870977267622948 0.1613983064889908 -0.1173175424337387 0.0848618671298027 0.1064095571637154 0.0107950922101736 0.1228918656706810 0.1254021823406219 0.0728869438171387 0.0293763577938080 0.1099371314048767 -0.0416978299617767 0.0526063963770866 -0.0810415372252464 -0.0414754264056683 0.0706122666597366 0.1125128865242004 0.0194778833538294 0.1261963993310928 -0.0255059637129307 0.0628130063414574 0.0493047758936882 0.0347937345504761 0.1611662507057190 0.0923665687441826 -0.0316462330520153 -0.0387364849448204 0.0680601894855499 -0.0538907796144485 0.2242975085973740 0.1410371810197830 0.0122164255008101 -0.0402489043772221 0.1014617532491684 0.0444232039153576 0.0484964810311794 -0.0867458879947662 0.1018496826291084 0.0774717256426811 0.0601493231952190 0.0523310340940952 0.1679606139659882 0.0758675485849380 -0.0683910027146339 0.0821842849254608 -0.1287745982408524
0.1438150107860565 -0.0338071286678314 0.0815856233239174 0.1293166279792786 -0.0938557535409927 0.1104857251048088 0.1137131899595261 -0.0591061264276505 -0.0507041402161121 0.0544125810265541 -0.0148208308964968 0.1205335855484009 0.1087893471121788 -0.0090550370514393 -0.0737947821617126 0.0053593730553985 0.1198812648653984 0.0338409952819347 0.0244302563369274 -0.0981786996126175 -0.0202570501714945 -0.0403609052300453 0.1122670918703079 0.0257733985781670 0.1236478164792061 0.0095489481464028 0.0302408933639526 0.0450954474508762 0.0369493961334229 0.1266109198331833 0.0422253310680389 0.0415338464081287 0.0162186641246080 0.0857432633638382 0.0560869835317135 -0.0365404225885868 0.0953695550560951 0.1020085811614990 0.0900711044669151 0.1139127835631371 0.0371974855661392 0.1016164124011993 0.0826882198452950 0.0950248762965202 -0.0327247679233551 0.0911476686596870 -0.0935511961579323 0.1115855425596237 -0.0444912128150463 0.1707719862461090 -0.1131608411669731 -0.0425328090786934 0.0327314697206020 0.0013119380455464 -0.0636938139796257 -0.0557267591357231 0.0982423350214958 0.1447115838527679 0.1302849501371384 0.0764364227652550 0.0039215153083205 0.0180913284420967 -0.0143028562888503 0.0541372783482075
-0.0230705197900534 0.0374034866690636 0.0284269545227289 -0.0501216650009155 0.0469878241419792 0.1930203884840012 -0.0724322944879532 -0.0231104604899883 0.1363836824893951 -0.0320680513978004 0.0346462056040764 -0.0075321532785892 0.1292643547058105 0.0884589776396751 0.1030505150556564 0.0998254045844078 0.1311772614717484 0.1108683943748474 0.1229931712150574 0.1020873412489891 0.0733299329876900 0.0523903854191303 -0.0033500418066978 0.1495999842882156 0.0355926640331745 -0.0330900438129902 0.0325503684580326 0.0140818059444427 -0.0645071789622307 0.0096041243523359 0.1179971769452095 0.0700154528021812 0.0016238010721281 0.1151061579585075 0.1519486308097839 -0.0167908221483231 0.1667528003454208 0.0680416598916054 0.1525819897651672 -0.0978307202458382 0.1513535678386688 -0.0292228981852531 0.1828648298978806 0.0137982433661819 -0.0862453281879425 -0.0429912582039833 0.1276408433914185 0.0700094029307365 0.0175718516111374 0.1140683889389038 -0.1220087632536888 0.0242059435695410 0.1071734949946404 -0.0323409885168076 0.1244056299328804 -0.0873621776700020 -0.0907227694988251 -0.0684376135468483 0.0030907131731510 -0.0338309854269028 -0.0706545412540436 0.1229441538453102 0.1124450862407684 -0.0304433982819319
0.1130183786153793 0.0782999992370605 -0.0216800216585398 0.0969191268086433 0.0694535151124001 0.1821146160364151 -0.1184114068746567 -0.0670715048909187 0.1076906025409698 -0.0842540487647057 0.0221762377768755 -0.0513684377074242 0.0140901673585176 0.0276861004531384 0.0682974383234978 -0.0948436707258224 -0.0903435721993446 -0.0739994570612907 -0.0175532791763544 -0.0995204895734787 0.1183602586388588 -0.0694607347249985 0.0734676495194435 0.1177980452775955 0.0855381041765213 -0.0206644684076309 0.0262961052358150 -0.0325630269944668 0.0789115354418755 0.1047843322157860 0.0216239653527737 -0.0564072839915752 0.0650685653090477 0.0352036766707897 0.0922035202383995 0.1155682802200317 0.0930082276463509 0.0260646529495716 -0.0480579920113087 0.0584411621093750 0.0956557691097260 -0.0212302654981613 -0.0411913283169270 0.0870967358350754 -0.0417767688632011 0.0919138863682747 -0.0858019739389420 -0.0520368628203869 0.0623637586832047 0.0378501079976559 0.0160737447440624 -0.0189984366297722 0.0424049980938435 0.0857607871294022 0.1197156608104706 0.1253982931375504 0.0367129668593407 0.1504448056221008 -0.0528376437723637 0.0277099385857582 -0.0600267015397549 -0.0946050062775612 0.0312696807086468 0.0436111278831959
-0.0085062496364117 0.0509087108075619 0.1313376277685165 -0.0673393905162811 0.0370660200715065 0.0923474654555321 0.0246836673468351 0.0162992533296347 0.0426020659506321 -0.0924275517463684 -0.0309089422225952 -0.0374087579548359 0.0495451986789703 0.0098462039604783 -0.0190664492547512 0.0299274958670139 -0.1029688939452171 0.0224506519734859 -0.1047180593013763 0.0024035216774791 -0.0781817063689232 -0.0863369181752205 -0.0148605015128851 0.1284850984811783 -0.0247883722186089 0.0989891737699509 -0.1798132061958313 0.1544416844844818 -0.0772416219115257 0.0295824967324734 0.0082178683951497 0.1335226744413376 -0.0417554378509521 -0.0577624067664146 -0.0736101120710373 -0.0015165614895523 0.0480601973831654 -0.0542120523750782 -0.0054655834101140 0.1708205938339233 -0.0410564169287682 0.1490718275308609 -0.1550995111465454 0.1140332370996475 -0.0669736191630363 0.1495300829410553 0.0807801187038422 0.0312562808394432 -0.1038195565342903 0.0586133562028408 -0.0407156646251678 0.1229026019573212 -0.0697852969169617 0.0219790842384100 -0.0519741252064705 0.1042713522911072 0.0795646235346794 0.0726296156644821 0.1503400355577469 -0.0003370227059349 0.1370822042226791 0.0804656893014908 -0.0175672918558121 -0.0309158824384212
0.0506873354315758 0.1395135223865509 0.0042494582012296 -0.0421864762902260 0.0628127306699753 0.1993354558944702 -0.0274369791150093 -0.1127375885844231 0.0820019990205765 0.0320167317986488 0.0512026734650135 0.0811357051134109 -0.0096837598830462 -0.0225616265088320 0.0236119255423546 0.1048666983842850 -0.0330818705260754 0.1436005383729935 0.0268171504139900 -0.0528852231800556 -0.0143802659586072 0.0632356554269791 -0.0042596203275025 -0.1101840212941170 -0.0028277311939746 0.1817761510610580 0.0161247793585062 0.1558599025011063 0.0604017898440361 0.0563262738287449 0.0714716613292694 -0.0486066341400146 -0.0678267702460289 -0.0670395493507385 0.2956819534301758 0.0901490226387978 0.1307777017354965 0.0993215292692184 0.0059281550347805 0.2040984928607941 -0.0142049090936780 0.1069169566035271 0.0701711699366570 0.1018264591693878 0.0503834858536720 0.0871945098042488 0.0034031749237329 0.1325018703937531 0.0703180730342865 -0.0293877162039280 -0.0639967322349548 0.1311532706022263 -0.0812591537833214 -0.1080644950270653 0.0508911497890949 -0.0645530149340630 0.0053381714969873 0.0835100486874580 -0.0099083054810762 -0.0011883643455803 0.0753521844744682 0.1126201599836349 -0.1101903766393661 -0.0712695121765137
-0.0980773419141769 -0.0615551434457302 0.1068297922611237 -0.0449404381215572 -0.0080612096935511 0.0120325749740005 0.0691190138459206 0.1047929152846336 0.0203988384455442 0.0220400802791119 -0.0349026024341583 0.0452653393149376 0.0524291954934597 0.0410880781710148 -0.0697595030069351 -0.0084959324449301 -0.0474677607417107 0.0731962099671364 0.1151246577501297 0.1112365499138832 0.0928900465369225 -0.0989168807864189 -0.0601362511515617 0.0290597900748253 -0.0056827082298696 0.0889049619436264 0.0958653986454010 0.0419163778424263 -0.0408983752131462 0.0668501481413841 -0.0516494214534760 0.1245817467570305 0.0793142691254616 0.0865588188171387 0.1880910992622375 0.1522672474384308 0.1378829777240753 0.0991097390651703 0.0368351712822914 0.1061854287981987 0.1245067566633224 -0.0407925583422184 0.0682071819901466 0.0032555807847530 0.0140261212363839 0.0083038629963994 -0.0104887830093503 0.0625188201665878 0.0760139673948288 0.0620436631143093 0.1139296814799309 0.1332425922155380 0.1002026647329330 -0.0433109402656555 -0.0383129119873047 -0.1145664751529694 0.1092487424612045 -0.0295961555093527 0.0223935395479202 0.0246443841606379 0.0708355382084846 0.0553552173078060 0.0432774238288403 0.0832500308752060
0.0678546726703644 0.0301394481211901 0.1144013479351997 0.0269223172217607 -0.0700576752424240 0.1552584916353226 -0.0474328920245171 -0.0013111789012328 0.0017182584851980 -0.0785641893744469 -0.0461324229836464 -0.1180910915136337 0.0492332912981510 0.2072596698999405 0.0210599116981030 0.0656096562743187 0.0979158803820610 0.0913474038243294 -0.0356179811060429 0.0751977935433388 -0.0711419731378555 -0.0473124310374260 -0.0402678623795509 0.0079621654003859 0.1245281249284744 0.1720590889453888 0.0262726247310638 0.0594475753605366 -0.0184931792318821 0.0170001890510321 0.0514314211905003 -0.0217519719153643 0.1377084702253342 0.0768717825412750 0.2016125619411469 0.0972888693213463 -0.0685003474354744 0.0616042800247669 0.0988523215055466 0.1221892982721329 -0.0463832095265388 0.1112152636051178 0.2188961356878281 0.0695897936820984 0.0512232817709446 0.0743800327181816 -0.0069792014546692 0.2682617306709290 -0.0579298846423626 -0.0410201400518417 0.0927561596035957 0.1214465722441673 -0.0590629838407040 0.0772749260067940 0.0930687934160233 -0.1081540659070015 -0.0268556699156761 -0.0101210568100214 -0.0414311774075031 0.1606182307004929 0.0956769958138466 0.0180112291127443 -0.0423016808927059 0.0404867045581341
0.0328773595392704 -0.0050012818537652 0.1310340464115143 0.0241348445415497 0.1293442696332932 0.0156140346080065 0.1140142083168030 0.0430159457027912 0.1288519203662872 0.0810322314500809 0.0864190980792046 0.0198495071381330 -0.0177107751369476 0.0002076886012219 -0.0923158004879951 -0.0287058148533106 0.1424314379692078 0.1591362208127975 0.0280407331883907 0.0489923544228077 0.1350418329238892 -0.0482982471585274 0.1398004740476608 0.0111798858270049 -0.0875480473041534 0.1015340387821198 -0.0434071458876133 0.0471028946340084 -0.1229109913110733 -0.1087817624211311 0.0113610764965415 0.1524631828069687 0.0106257693842053 -0.0562126189470291 0.0380703806877136 0.0966877192258835 0.0768147781491280 -0.0160508211702108 0.0175211261957884 0.1341262310743332 -0.0835729613900185 -0.0562435537576675 0.0018363607814535 -0.0750686824321747 -0.1089485362172127 0.0926952809095383 -0.0570513755083084 0.0366352796554565 -0.0292040724307299 -0.0096970703452826 0.0680479034781456 -0.0127117931842804 0.0762169137597084 -0.0023674559779465 0.1167608797550201 0.0715043023228645 0.0577578507363796 -0.0050071072764695 -0.0025742582511157 0.0098080765455961 0.0310374293476343 0.0560800023376942 -0.0603593513369560 -0.0605291016399860
-0.0428858026862144 -0.0707273334264755 0.0749439001083374 0.0504736900329590 -0.0874722227454185 -0.0679873004555702 0.0915117338299751 0.0654171407222748 0.0119041660800576 0.0220168270170689 0.0531621053814888 0.0194582510739565 0.0076015400700271 0.1803760826587677 0.0521324239671230 0.0185514353215694 -0.0170670561492443 0.0500694550573826 0.0809940472245216 -0.0550128705799580 0.1398852467536926 0.0694369971752167 0.0106841158121824 0.1260289847850800 -0.0503761246800423 0.0134956175461411 -0.0695127323269844 0.1075082644820213 0.0394589602947235 -0.0658266171813011 0.0146173276007175 0.1516627222299576 0.0736546292901039 0.0287248734384775 0.0395930148661137 0.0085431793704629 0.0996547862887383 0.0628407076001167 -0.0291794724762440 0.0297314450144768 -0.0288697071373463 0.0183751955628395 -0.0607449337840080 0.0733263492584229 0.1055035665631294 -0.0501031316816807 0.0018755209166557 0.0894898846745491 -0.0766733214259148 -0.0811832174658775 0.1743412464857101 0.0168198477476835 -0.0482137836515903 0.0695572495460510 0.1556293517351151 0.0016057707834989 0.1586876958608627 -0.0751388594508171 -0.0175916589796543 -0.0039953365921974 0.1575744152069092 0.0318455658853054 -0.0706393942236900 0.0244153235107660
0.0615735463798046 -0.0239033792167902 0.1031202524900436 -0.0494622662663460 0.0691906139254570 0.0101118823513389 -0.0071522076614201 -0.0523935891687870 0.1092898398637772 0.0182652622461319 0.1206833869218826 -0.1158320978283882 0.0065174400806427 0.0204441454261541 0.0812883377075195 0.0127335693687201 -0.0985664725303650 0.1382678151130676 0.0564295090734959 0.0878378376364708 -0.0984946936368942 -0.0298823490738869 -0.0719995498657227 0.0581534653902054 0.0189648196101189 0.1750147193670273 0.1735533773899078 0.1163091063499451 -0.0005626856000163 0.0572610422968864 0.0629191100597382 -0.0199191030114889 0.0917153730988503 0.1474304348230362 0.1070831418037415 0.1216147840023041 0.1083382293581963 0.0379085689783096 0.0970692187547684 0.0685557425022125 0.1401157528162003 0.1272165030241013 -0.0258959643542767 -0.0284468717873096 -0.0665585026144981 0.0320309922099113 -0.0443508327007294 0.0179972071200609 0.1039780601859093 0.0788655281066895 -0.0096282316371799 0.0616552829742432 -0.0623139813542366 0.0571404546499252 0.0990958362817764 -0.1075899824500084 -0.1053795143961906 0.1346189528703690 0.1287316828966141 0.0613205023109913 -0.0617530718445778 -0.0552149973809719 -0.0733945891261101 0.0183282624930143
-0.1157128363847733 0.1055934280157089 0.0013366834027693 0.0226842314004898 -0.0350958183407784 0.0122621506452560 -0.0174547582864761 -0.0922556966543198 -0.0237395018339157 -0.0002020263345912 -0.0117391198873520 0.0130728930234909 -0.0501190945506096 -0.1307828873395920 -0.0033167477231473 -0.1155833303928375 -0.1189105361700058 0.0743747502565384 0.1097699850797653 0.0002284906804562 -0.1383805423974991 -0.1309118568897247 -0.0102943181991577 0.0593071132898331 0.0218752846121788 -0.1158829778432846 0.0004592835903168 0.0431324504315853 0.0310277678072453 -0.1184888258576393 -0.0211846530437469 -0.0170520544052124 0.0430517345666885 0.0934431999921799 0.0655474960803986 -0.0266525130718946 0.0750746876001358 -0.0063616633415222 0.0614703223109245 -0.0524759888648987 0.0690730288624763 0.0107743535190821 -0.1155345737934113 0.0285860151052475 -0.0119250779971480 0.0669068247079849 -0.0310087203979492 0.0140814483165741 -0.0455307997763157 -0.0320043675601482 -0.0185933411121368 -0.0744781494140625 -0.1371285617351532 -0.0166680738329887 -0.1136771589517593 -0.0717441588640213 0.0436026975512505 0.0124762291088700 0.0163884107023478 0.0820950120687485 -0.1205464601516724 0.0278211981058121 0.0542978048324585 -0.0807294696569443
-0.0593115836381912 0.0746288597583771 -0.0583795867860317 -0.1106724068522453 0.0161006581038237 0.1570376902818680 -0.0526078008115292 -0.0077356854453683 0.0339802354574203 -0.0624770410358906 -0.0616747327148914 0.0797805786132812 0.0700935274362564 0.0069702668115497 0.0255451463162899 -0.0270999521017075 0.0768970176577568 -0.0083064325153828 0.0001327779755229 -0.0221166331321001 -0.0566992871463299 0.1342796981334686 -0.0391905382275581 -0.0814402103424072 0.0856664180755615 0.0556811168789864 0.0430392473936081 0.0213216152042150 0.0458217337727547 0.1071897298097610 0.0746705830097198 -0.0722262933850288 0.1458865106105804 -0.0644180402159691 0.2470208257436752 0.1476978659629822 0.0975762978196144 0.0492639206349850 0.1212223544716835 0.0438035279512405 0.1455445885658264 -0.0047813942655921 0.1085604429244995 0.1402882933616638 0.0208054818212986 0.1008450835943222 0.0568494908511639 -0.1173303276300430 -0.0166044067591429 0.0610462538897991 -0.0005369635764509 0.1046777740120888 -0.0377127267420292 0.0472654215991497 -0.1028959676623344 0.0436916910111904 0.0187529884278774 0.0850869193673134 -0.0111129703000188 0.1025236994028091 -0.1296438425779343 0.0336250402033329 -0.0190772376954556 0.0664048418402672
0.0934329107403755 -0.0037205317057669 -0.0570767223834991 0.0656758695840836 -0.0259343702346087 0.1523416489362717 0.0668969973921776 0.0645919516682625 0.0442842617630959 -0.0556840561330318 -0.0287194997072220 0.1013371497392654 0.0838197767734528 -0.0181208476424217 0.1232334971427917 -0.0601005442440510 0.0354875065386295 -0.0191830247640610 0.0721148401498795 0.0847604796290398 -0.0799021571874619 0.0034817538689822 -0.0833408012986183 0.1350374668836594 0.1647955626249313 -0.0314261764287949 0.2511962652206421 -0.0949710682034492 0.1442663222551346 0.0833128467202187 -0.0864727273583412 -0.0082102781161666 0.0744567960500717 -0.0667942240834236 0.1164529174566269 0.0265525262802839 -0.0685789957642555 0.1303734928369522 0.1469860225915909 -0.0812194198369980 0.0373300202190876 0.0958352312445641 0.1563752889633179 0.0727531313896179 0.0078494269400835 0.0657801628112793 0.0947356298565865 0.1308922469615936 0.1521502137184143 -0.0152032431215048 -0.0524452887475491 0.0417885184288025 0.1222017630934715 0.0272341072559357 0.0243822969496250 0.1025330722332001 0.0238140113651752 0.0272981356829405 -0.0579063743352890 0.0667287632822990 0.0658412799239159 0.1088284254074097 -0.0918241143226624 -0.0011371728032827
0.0743523389101028 -0.0516849495470524 -0.0031061195768416 -0.0990227162837982 -0.0239655189216137 -0.0553317554295063 0.0181201547384262 0.1564022451639175 0.1681359857320786 0.0363843254745007 -0.0090640084818006 -0.0887598544359207 0.0848131477832794 0.0731135904788971 0.0377954281866550 0.0706137493252754 0.1234724968671799 0.0143870161846280 0.0207413248717785 -0.1179523617029190 0.1487699151039124 -0.0670933872461319 0.0510304495692253 -0.0688680335879326 0.1487865746021271 0.1034320816397667 0.1254690587520599 -0.0929623916745186 -0.0397841595113277 0.0951984003186226 -0.0478584989905357 0.0097349314019084 0.1651608198881149 0.1095093712210655 0.1910448074340820 0.0512226484715939 0.1462285518646240 0.1180654093623161 0.1097685173153877 0.0581925995647907 0.0079548032954335 0.0967360809445381 0.1473615914583206 0.0372355692088604 -0.0376721471548080 0.1018785759806633 0.0363397821784019 0.0092951087281108 0.0461269952356815 -0.0427343733608723 -0.1287242174148560 -0.0772389546036720 0.0600209422409534 0.1364210397005081 -0.0372835546731949 -0.1028470769524574 0.1363623589277267 0.0276442766189575 -0.0599947161972523 0.0351054593920708 -0.0183965079486370 -0.0347339697182178 0.0000209656536754 -0.0933138951659203
-0.0271269623190165 0.0671646520495415 0.0996878370642662 0.1355134993791580 -0.0898802280426025 -0.0985817611217499 -0.0178052168339491 -0.0531001947820187 -0.0818924307823181 0.0756918415427208 -0.0688997209072113 0.1354472041130066 -0.0554073899984360 0.1509570628404617 -0.1044330894947052 -0.0810720548033714 0.0265710931271315 0.1491224914789200 0.0383613705635071 0.1370417475700378 0.1352136284112930 -0.0600879676640034 -0.0389404669404030 -0.0457187332212925 -0.0717753693461418 0.1847052872180939 0.0059212432242930 0.0338450334966183 0.1199954822659492 -0.0164051614701748 0.1652193665504456 0.0856674388051033 0.0608737133443356 -0.0558737255632877 -0.0067611746490002 0.0451356470584869 -0.1033371463418007 -0.0146905276924372 -0.0660262927412987 0.1211592182517052 0.1175370439887047 -0.0107820741832256 0.0942662954330444 -0.0335095636546612 -0.0249643605202436 0.0525846779346466 0.0248949714004993 0.2419067174196243 -0.0858361124992371 0.0194961726665497 0.0688617527484894 -0.0471879728138447 -0.0242205429822206 -0.0195084977895021 0.0720479413866997 0.0021002485882491 0.0173288360238075 -0.0393023788928986 -0.0535319671034813 0.0155398026108742 0.0974199846386909 0.0342576578259468 0.0255023892968893 0.0621868744492531
