Weight Shape: (64, 3)
-0.5566709041595459 -0.4454454183578491 -0.1988427191972733
-0.3329006135463715 0.2361658662557602 0.2403242141008377
0.1594950556755066 -0.3985877037048340 -0.2275748997926712
-0.5497990250587463 -0.1009061932563782 -0.5426694154739380
-0.5081552863121033 -0.3068010509014130 0.2720387578010559
-0.0913794040679932 0.4402484595775604 0.1475554704666138
0.4460117518901825 0.5118386149406433 -0.3464265167713165
-0.4598033428192139 -0.5362316966056824 0.3663366734981537
-0.2799215912818909 0.0505072325468063 0.3309627175331116
-0.3094953596591949 0.2097918540239334 -0.2563367486000061
-0.5886190533638000 -0.0127847185358405 0.0106157837435603
0.5874633789062500 -0.2121946662664413 0.0786988809704781
0.0913696289062500 -0.6291626691818237 -0.3110150694847107
0.1644400805234909 -0.0694187730550766 0.4063551127910614
-0.5144571661949158 -0.0862636268138885 -0.4342371523380280
-0.2465005218982697 -0.2416727542877197 0.0198070611804724
0.0247142221778631 -0.4420885443687439 -0.2441804856061935
-0.3035039305686951 -0.6238998770713806 0.3297931849956512
0.0726942941546440 0.1999403983354568 -0.1756935119628906
-0.1208899021148682 0.5831581950187683 0.5354819893836975
-0.3668924868106842 -0.3125324249267578 -0.5237697362899780
-0.4373410940170288 0.1152621284127235 -0.0514247678220272
0.5350005626678467 0.0655864402651787 0.0673246979713440
-0.2136729657649994 -0.4889713823795319 -0.4300722777843475
0.5011685490608215 0.5114145874977112 0.2493396699428558
-0.1556887328624725 0.3174800872802734 -0.3027442991733551
0.2312724739313126 0.4587948918342590 0.2174058705568314
0.2508347332477570 0.4969093799591064 -0.3348248600959778
-0.1325325518846512 -0.5725505948066711 -0.5839416980743408
0.4211693108081818 0.3183837831020355 -0.0571918487548828
-0.5904751420021057 -0.3584135174751282 0.2183080166578293
-0.3439475595951080 -0.3217347264289856 -0.1651414334774017
-0.3922519981861115 0.1126486808061600 -0.3964766860008240
0.1377547681331635 0.4236687421798706 0.1517649888992310
-0.1085031777620316 -0.0969083681702614 0.0386445932090282
-0.5431986451148987 0.0219181552529335 -0.4477177560329437
-0.1278112977743149 -0.5640989542007446 -0.1617768704891205
0.4784582257270813 0.2161368727684021 -0.0121204657480121
0.5675306916236877 -0.2877746224403381 0.2743498980998993
-0.4529632627964020 0.4023900628089905 0.5158344507217407
-0.3919378519058228 0.2894838154315948 0.5040610432624817
0.0744143500924110 0.4854710400104523 0.5689363479614258
-0.4094707965850830 -0.3005362153053284 0.0114657599478960
-0.4284837245941162 0.1600159406661987 -0.0549707412719727
0.2285415083169937 -0.4331526160240173 -0.2916038334369659
0.1208793371915817 -0.5043810606002808 -0.4741714596748352
0.6076638698577881 -0.3762210607528687 0.5473923087120056
0.2960192263126373 0.1871506869792938 -0.1378808021545410
0.0953607857227325 -0.5575867295265198 0.4320604503154755
-0.0728388875722885 0.4796800315380096 0.1623353809118271
0.4843415915966034 0.1237589120864868 0.0312500186264515
0.2250783741474152 0.4978095889091492 0.1975446492433548
-0.5212037563323975 -0.2611562907695770 0.0734366029500961
-0.4013551771640778 -0.1398072391748428 0.2536196410655975
0.4624607861042023 0.3103588223457336 0.0433793999254704
0.4577026665210724 -0.3079988360404968 -0.5286105871200562
0.4105327129364014 -0.3961762189865112 0.3121066987514496
-0.2769461870193481 -0.1591399312019348 -0.0581324025988579
0.1382621079683304 0.3318496644496918 -0.1988778412342072
0.3766875565052032 0.2040123194456100 0.1477362662553787
0.1939913630485535 0.5166834592819214 0.2680207490921021
-0.2761810123920441 -0.2232578694820404 -0.3204831182956696
0.5261969566345215 0.1576677560806274 0.5669569373130798
0.4913640022277832 -0.2577685117721558 -0.5777796506881714
Bias Shape: (64,)
0.5830270051956177
0.5160818099975586
-0.2119478434324265
0.4789110720157623
0.1706016212701797
-0.2986449301242828
-0.3505120575428009
0.3362767994403839
-0.2602845132350922
-0.0917270630598068
0.5218588709831238
0.3616633117198944
-0.2031843066215515
0.2944258749485016
0.0249134879559278
-0.4160245656967163
-0.4540019929409027
-0.2228169292211533
0.4032568037509918
-0.0664818435907364
-0.4713734984397888
0.1578940600156784
0.1639913320541382
-0.3081511259078979
0.3792781233787537
-0.1981799602508545
-0.1958515644073486
0.2445635646581650
0.3252460956573486
0.1632134318351746
0.2851106822490692
-0.2499616444110870
0.2975225746631622
-0.3533878028392792
0.0424544438719749
0.3686244487762451
0.3895161151885986
-0.3121594190597534
0.1810696274042130
-0.3198199570178986
0.1378968209028244
-0.2291660308837891
-0.1669296920299530
-0.2248304337263107
0.4012370407581329
0.0151927191764116
0.1000013127923012
0.3939279019832611
-0.1873542368412018
0.5033907890319824
0.4861614406108856
0.5628263950347900
0.3178939819335938
0.1092542484402657
0.5253516435623169
0.1055902615189552
-0.3365427851676941
-0.3095615506172180
-0.0413980931043625
0.5517088174819946
0.0455572307109833
-0.5412628650665283
0.1111070066690445
-0.0837228819727898
Activation Code: 1

Weight Shape: (128, 64)
0.0944741517305374 0.0167372114956379 0.1423784643411636 -0.0778843238949776 0.0035838955081999 0.1262288540601730 0.1139338836073875 -0.0672107115387917 0.0082119945436716 -0.0318138487637043 0.0870183184742928 -0.0620419122278690 0.1097178235650063 -0.0002240084577352 0.0306057743728161 0.0261135157197714 -0.0556363686919212 -0.1095032095909119 0.0126887243241072 0.0674400106072426 -0.0743488669395447 0.1128858700394630 0.1651766300201416 0.0231707580387592 0.1235798001289368 -0.0953455045819283 0.1902542710304260 0.0418031848967075 0.0183610860258341 -0.0522404499351978 0.1145215556025505 -0.0695949718356133 0.0065311514772475 0.1378905177116394 0.0643968284130096 0.0796144455671310 -0.0615564286708832 0.1093457490205765 0.1178830415010452 0.0871426761150360 0.1003747209906578 0.0809523388743401 0.0436472073197365 -0.0731000900268555 -0.0690025985240936 0.0472817458212376 0.1704782396554947 -0.0308472830802202 0.0259451661258936 0.0523150824010372 0.1082814335823059 0.1187918335199356 -0.0275118425488472 -0.0749007910490036 0.0404797308146954 -0.0707190632820129 0.0419052839279175 -0.0359213575720787 0.1079088300466537 -0.0587872453033924 0.0435291826725006 -0.0887561440467834 0.0468725040555000 -0.0620829239487648
-0.0151311997324228 -0.0741371065378189 -0.0358503870666027 0.0299418997019529 0.0738725066184998 -0.0814139395952225 0.1153638958930969 -0.0529695004224777 -0.1134008318185806 0.0080732414498925 -0.1249827146530151 -0.0443196445703506 -0.1065140962600708 -0.0719568431377411 -0.0581894107162952 0.0422396361827850 0.0006084676133469 0.0712504535913467 -0.0272738356143236 -0.1076048761606216 0.0981644541025162 -0.0568548627197742 -0.0874289274215698 -0.0013918096665293 0.1219477057456970 0.0203078240156174 -0.0342652797698975 -0.1074664071202278 0.1017779111862183 -0.0622691549360752 0.0110280662775040 -0.0651490017771721 -0.0259532574564219 0.0799354165792465 -0.1168448179960251 0.0654715374112129 -0.0013591067399830 -0.0834877938032150 -0.0353621989488602 0.0492110848426819 -0.1042500883340836 0.0301423817873001 -0.1219267249107361 0.0058261039666831 -0.1088751554489136 -0.1284804046154022 0.0365405827760696 -0.0286021418869495 0.1195924729108810 -0.1133719608187675 -0.0881368517875671 0.0564527660608292 -0.1162488907575607 -0.0294451564550400 -0.1191084533929825 0.0669838339090347 0.0144161581993103 0.0743239521980286 0.0032175912056118 -0.0118846148252487 0.0311291813850403 -0.1240373104810715 -0.1058620363473892 0.0866892933845520
0.1589122265577316 0.1173418834805489 -0.0789833664894104 0.0829560086131096 0.1430763751268387 -0.0565516985952854 -0.0513890311121941 -0.0509713739156723 -0.0704179182648659 0.0424335859715939 0.0356012098491192 -0.0495506897568703 -0.0091956714168191 0.0157506670802832 -0.0471273623406887 0.0209443848580122 0.0763504281640053 0.0166068170219660 0.1303490549325943 -0.0733478218317032 0.0627095475792885 -0.0317694619297981 0.0193678643554449 0.0628345683217049 0.0871506854891777 0.0091754002496600 -0.0185874011367559 0.0106322839856148 0.0467565581202507 0.0127052627503872 -0.0657753273844719 0.0928339138627052 -0.0292166173458099 -0.0511868782341480 0.0377455987036228 0.0786084234714508 0.1441815644502640 -0.0870254486799240 -0.0047808475792408 -0.0210469476878643 -0.0584993809461594 -0.0744551569223404 0.1870813220739365 -0.0761496126651764 0.0813330784440041 0.0561935715377331 -0.0157394967973232 0.1436620056629181 0.1320220679044724 -0.0701834559440613 0.0969341099262238 -0.0139739662408829 0.0063702384941280 0.0974965319037437 -0.1117530837655067 -0.0534934513270855 -0.0627107173204422 0.1087911650538445 0.0313487686216831 -0.0820230320096016 0.0517990700900555 0.1177515089511871 0.0579816997051239 -0.0317462980747223
0.1395291239023209 -0.0501648709177971 0.1400636732578278 0.1522327661514282 -0.0462553724646568 -0.0900082886219025 0.0869207158684731 0.1238768026232719 -0.0446395911276340 0.0629545673727989 -0.0534609928727150 -0.0681100562214851 0.0109106758609414 0.0604126676917076 -0.0445984564721584 0.1682232767343521 -0.0367103107273579 0.1435343623161316 -0.0379128679633141 0.0431263744831085 0.0675914213061333 0.0780104845762253 -0.0618920624256134 0.1660769879817963 0.0834749713540077 0.0446240007877350 0.0484872572124004 -0.0579353831708431 0.0280625335872173 -0.1065738648176193 -0.0095103150233626 0.1626816391944885 0.1579457968473434 -0.0078099402599037 0.0623128041625023 -0.0066298088058829 0.1307783722877502 -0.1522068083286285 0.0124758929014206 0.0917968675494194 -0.0461875945329666 0.0855548679828644 0.1728124916553497 -0.0476080030202866 0.0867499336600304 0.0565402507781982 -0.0158140566200018 0.0898996442556381 -0.0441642701625824 0.0872453898191452 -0.0034534409642220 -0.0283744782209396 -0.0507875792682171 0.0137430913746357 0.0042714993469417 0.0967730805277824 0.0366527512669563 0.0770848095417023 -0.0466036610305309 -0.0931580290198326 -0.0575130768120289 0.1257143616676331 0.0005384029354900 0.1225285530090332
0.1223533526062965 0.1231748461723328 -0.0654253736138344 0.0835162177681923 -0.0602235943078995 0.0697940886020660 -0.0807872563600540 0.0656155943870544 0.0633554533123970 -0.0024535842239857 0.0660443082451820 -0.0004131299792789 -0.0086734732612967 0.0205658581107855 0.0279209055006504 0.0049055409617722 0.0598832704126835 0.0324403382837772 0.1148448511958122 -0.0029567321762443 -0.0014148938935250 0.0510240159928799 0.1138845086097717 -0.0007293545058928 -0.0088020646944642 0.0314308740198612 0.1857620328664780 -0.0716045349836349 0.1678513884544373 0.1164652556180954 -0.0456769689917564 0.1579967290163040 0.0443134307861328 0.0997508615255356 0.0776424482464790 0.0054859193041921 0.0771312862634659 0.1575865745544434 -0.0575097985565662 0.1131624132394791 -0.0169238001108170 -0.0329809375107288 0.1603949815034866 0.0607177689671516 0.0830701962113380 -0.0606709159910679 -0.0251453500241041 -0.0251601301133633 0.0507914423942566 -0.0696281865239143 0.0825994536280632 -0.0549065358936787 -0.0509000644087791 0.1502670794725418 0.1028229668736458 0.0973798707127571 -0.0454205460846424 0.1824760884046555 0.0594650357961655 0.1332005858421326 -0.0023448632564396 0.0576478019356728 0.1127425730228424 -0.0586836971342564
0.0166170969605446 0.0637442842125893 0.1149571239948273 0.0603518299758434 0.0433180294930935 0.1113130152225494 -0.0144404089078307 -0.0197928436100483 -0.1035938262939453 0.0586150065064430 -0.0694682747125626 -0.0796397849917412 0.1451070457696915 -0.1008158549666405 0.1483335047960281 0.0580993890762329 0.0033727344125509 -0.0647512376308441 0.1091990768909454 0.0661467015743256 0.0845896974205971 -0.0199018046259880 -0.0822795405983925 0.0922158509492874 -0.1036512181162834 -0.1125138998031616 0.0135740954428911 -0.0199894905090332 0.1112283691763878 0.0284203756600618 -0.0644371733069420 0.1769729107618332 0.0333438739180565 -0.1450623869895935 0.0635893046855927 0.0646226704120636 0.1167433187365532 0.0225022453814745 -0.0699114277958870 0.1118984594941139 0.0445754714310169 0.0276213828474283 -0.0057013174518943 0.0328670255839825 -0.0237100329250097 0.1513406038284302 0.0553941279649734 -0.0496443435549736 0.1253343373537064 -0.0568504892289639 0.0724509656429291 0.1279325932264328 0.0891843214631081 0.0326058082282543 0.0677986666560173 -0.0629788935184479 0.0740750953555107 0.1987050473690033 0.0529695525765419 -0.0301339384168386 -0.0754602774977684 -0.0348106846213341 0.0409153811633587 0.0431832224130630
0.0452134124934673 -0.0448871366679668 0.0512275919318199 -0.0394116751849651 -0.0326036550104618 0.0683985054492950 0.1118208318948746 0.0504044778645039 -0.1008388698101044 -0.0261892247945070 -0.0465519502758980 -0.1064549833536148 0.1504838466644287 -0.0464436635375023 0.0731541588902473 0.0187490880489349 0.1227009072899818 0.1120986565947533 -0.0553425773978233 0.0467153675854206 0.2493001818656921 -0.1008917167782784 -0.0488747321069241 0.0363187342882156 -0.0273661315441132 -0.1819856315851212 0.0710402354598045 -0.0212758183479309 -0.0277292914688587 0.1411003321409225 0.0428773239254951 0.1307532191276550 -0.1064991727471352 0.2000870257616043 -0.0388163775205612 0.1494825631380081 0.0412047505378723 0.0026052233297378 0.0818522274494171 -0.0002363966050325 -0.0888594165444374 0.0338032394647598 0.0066837393678725 -0.1244965344667435 -0.0208603627979755 0.0662323832511902 0.0697881057858467 0.0615678317844868 0.0352747254073620 0.0779287815093994 -0.0342173129320145 0.0412609018385410 0.0445542521774769 -0.0942588448524475 0.0141393188387156 -0.0788618102669716 0.0256497878581285 0.0794944614171982 -0.0152712278068066 -0.0680806860327721 0.1487137228250504 0.2399421036243439 0.1189579144120216 -0.1750879436731339
-0.0904345884919167 -0.0527991466224194 0.1129083037376404 0.1352559030056000 0.0341459251940250 0.1166162714362144 0.1608640998601913 -0.0173101220279932 0.0616634935140610 -0.0047687762416899 0.0087305493652821 0.1063493117690086 -0.0273232366889715 0.1268101185560226 0.0551774017512798 0.2005826234817505 0.0082589928060770 0.0612558163702488 -0.1172003597021103 0.1466508060693741 0.1186278164386749 -0.0600080229341984 0.0822277665138245 0.1739416569471359 0.0944756343960762 -0.0526847690343857 -0.0229944940656424 -0.0476401373744011 0.0731541290879250 -0.0013014889555052 0.1365386545658112 0.0720967352390289 -0.0398209318518639 0.2185345292091370 -0.0521117039024830 0.1217677071690559 0.0876124277710915 -0.0109461890533566 -0.0313088670372963 -0.1362153738737106 -0.0040953359566629 -0.0170121323317289 0.0174486320465803 0.0274761673063040 -0.0571458078920841 -0.0034860996529460 0.0237965844571590 0.0440875813364983 -0.1414197832345963 -0.0395068451762199 0.0495761036872864 0.0878786966204643 -0.0936447083950043 -0.0851711109280586 0.1503720879554749 -0.0738258138298988 -0.0451718494296074 0.0585012026131153 -0.0059261894784868 0.0405286327004433 0.1864521801471710 0.0255156476050615 -0.0325911566615105 -0.1021497920155525
-0.0090173520147800 0.0708976611495018 0.0601435266435146 0.1415722221136093 -0.0364257395267487 0.0793407186865807 0.1404370069503784 -0.0467549450695515 0.1343665122985840 -0.1025988981127739 -0.0230234880000353 0.0986001417040825 0.0345900431275368 -0.0147665636613965 0.0014798890333623 0.0161188002675772 0.0916144996881485 0.0059731910005212 0.0673290416598320 0.0318650044500828 -0.0020634343381971 -0.0670567825436592 0.1359832733869553 -0.0654840841889381 0.1413392275571823 0.0891915410757065 0.0413643345236778 0.0922180116176605 -0.1190745458006859 0.0621775537729263 0.0795310288667679 -0.1316476464271545 0.0800665840506554 0.2194762676954269 0.0302982218563557 -0.0192392412573099 0.0572665594518185 0.0951335281133652 0.1752672046422958 0.1076620966196060 0.0645184516906738 0.0257286056876183 0.0277046225965023 -0.1143375858664513 -0.0111302295699716 -0.1490674167871475 -0.0550010688602924 0.0288073029369116 -0.0329732671380043 0.1104931980371475 0.1658451408147812 0.1502064466476440 -0.0053497389890254 0.0318019092082977 0.0667335763573647 0.1377688199281693 -0.0036441748961806 -0.1219872683286667 -0.0573207288980484 0.0923772901296616 0.0354676246643066 0.1380886733531952 0.1226252168416977 -0.0992015823721886
0.0037508804816753 -0.0632689818739891 0.1213708221912384 0.0776785239577293 -0.0159578025341034 0.1309623718261719 0.0594029389321804 -0.0541949532926083 0.0789899602532387 0.0358653590083122 0.0458802804350853 0.0999794229865074 -0.0419910624623299 0.1485053896903992 -0.0716234818100929 0.0577941089868546 0.0349469035863876 -0.0383103005588055 -0.0282584074884653 0.0519150979816914 0.0526748076081276 -0.0276150498539209 0.1564512848854065 0.0420896038413048 -0.0363847948610783 0.0312761589884758 0.1296212524175644 -0.0513071902096272 0.0660316050052643 0.0479102581739426 -0.0654305964708328 -0.0590350218117237 0.1179328039288521 0.0600928068161011 0.0098449289798737 0.0954738110303879 0.0727204084396362 0.0190446600317955 -0.0711359456181526 0.1315004676580429 -0.0287038553506136 -0.0512321144342422 -0.0238331146538258 0.0073879919946194 0.0119487056508660 -0.0540854707360268 -0.0579377524554729 -0.0819493979215622 -0.0619991570711136 -0.0520616397261620 0.1289957910776138 0.1020408496260643 -0.0827582329511642 0.0770385041832924 0.0673719644546509 0.0241719540208578 -0.0268963314592838 -0.0092965560033917 0.0888350382447243 0.0944655835628510 0.1752075254917145 0.0753481313586235 0.1304608434438705 -0.0327493399381638
0.0031504549551755 -0.0517541803419590 -0.0022257936652750 -0.1075206622481346 -0.0928942337632179 -0.1428541094064713 0.0795730724930763 0.0909870415925980 0.0376657098531723 0.0600912570953369 -0.1238725781440735 0.0176810324192047 0.0405551381409168 -0.1108582988381386 0.0887694433331490 -0.1139484867453575 -0.0143070621415973 -0.1019342765212059 -0.1095963194966316 -0.0589014552533627 0.0161494612693787 -0.1793621331453323 0.0717888772487640 -0.1148333251476288 -0.1378526836633682 -0.0323048233985901 0.0426334068179131 0.0197113640606403 -0.0122500434517860 -0.0578495226800442 -0.0668859854340553 -0.0055083376355469 0.0312560647726059 0.0897613614797592 0.0360437557101250 0.0017512670019642 0.0745937079191208 -0.1119792088866234 0.0446105860173702 -0.0921021848917007 -0.0422057621181011 0.0054642199538648 -0.1384237557649612 -0.0326422452926636 -0.0472130589187145 -0.0609435997903347 0.0444892570376396 -0.0864461287856102 -0.0732950121164322 -0.0852143391966820 -0.0079064406454563 0.0756922364234924 -0.1140928938984871 0.0477835349738598 -0.1185367777943611 0.0487482249736786 -0.0306827984750271 -0.0500184483826160 0.0169033911079168 -0.0915693715214729 -0.1372238695621490 0.0201334208250046 -0.0129677820950747 -0.0833547189831734
0.0099061941727996 0.1542170643806458 0.0388670898973942 -0.0159086640924215 0.0063813435845077 0.0264895856380463 -0.0689412504434586 0.0034329965710640 0.0274721626192331 -0.0273276492953300 0.0526573620736599 0.0278037060052156 0.0727806389331818 0.0202230475842953 0.1181656047701836 0.0094352979212999 0.0067047011107206 0.0888316854834557 0.1092112138867378 0.1163568124175072 -0.0074570211581886 0.0762139633297920 -0.0277689136564732 0.1234071925282478 -0.0648179501295090 0.1033916398882866 -0.0242769010365009 -0.0684345662593842 0.1481214016675949 0.0322327278554440 0.0676066130399704 0.1652598083019257 -0.0223954170942307 -0.0546313375234604 0.0590093359351158 0.0718596428632736 -0.0210046302527189 0.0016111958539113 0.0252320840954781 -0.0826258659362793 -0.0927085578441620 0.0105696916580200 0.0022177470382303 0.1295587718486786 0.1427668631076813 0.1724858880043030 -0.0505583100020885 0.1027364283800125 0.0472437441349030 -0.0355113260447979 -0.0248025991022587 0.0442483983933926 0.0586865991353989 0.0709769353270531 -0.0478981733322144 0.0304405130445957 0.0051975469104946 0.1491191685199738 0.0558004640042782 0.0062878006137908 -0.0365698523819447 0.1583843678236008 0.0247181393206120 0.0596670657396317
0.0334588214755058 0.0430473610758781 0.0510547459125519 -0.1557214409112930 -0.0047596674412489 0.0055403904989362 -0.0480887107551098 -0.1094529628753662 0.0480645895004272 -0.0918769761919975 -0.1181022599339485 -0.1235024333000183 -0.1228671073913574 0.1054478958249092 0.0387313328683376 0.0691166371107101 0.0306252688169479 -0.0468105599284172 -0.1277155429124832 0.1084473878145218 -0.1067606657743454 -0.1001689434051514 -0.1356478929519653 -0.0000466241617687 0.0104494374245405 0.0066130361519754 -0.0346520431339741 -0.0891949981451035 -0.0028375915717334 -0.0184980202466249 -0.0388134159147739 -0.1581929177045822 -0.2032162398099899 -0.0623637028038502 0.0843655318021774 -0.2010642290115356 -0.0994981229305267 0.0238778572529554 -0.1142521575093269 0.1324311047792435 0.0964662954211235 0.0451318435370922 0.0450662076473236 -0.0032762140035629 -0.1166263893246651 -0.1336951255798340 0.0061218775808811 -0.1074895039200783 0.1073972433805466 -0.1135707125067711 -0.0131839346140623 -0.0971265062689781 0.0701509043574333 0.0126772373914719 -0.0105761615559459 0.0493585169315338 -0.1610810458660126 0.0477429330348969 -0.0372829586267471 -0.1062339544296265 0.1094477400183678 -0.0724485963582993 0.0248539652675390 0.0028980821371078
-0.0871769711375237 0.0750347971916199 0.1519897580146790 0.1880863308906555 0.1395706683397293 0.0149171147495508 -0.0371773242950439 -0.0861014351248741 0.0662398189306259 -0.1032167598605156 -0.0280145537108183 0.0563876070082188 -0.0847343578934669 -0.0530068352818489 0.0185554940253496 -0.0840457081794739 0.0887513905763626 0.1054685562849045 -0.0681738704442978 0.1574583351612091 -0.0066328295506537 0.0260923840105534 0.1483450531959534 -0.0715349167585373 0.1045628339052200 -0.0802208334207535 0.1691999584436417 -0.0230932254344225 0.0437572114169598 -0.0430405512452126 0.0489337891340256 -0.1405006796121597 -0.0003870095242746 0.0712548345327377 -0.0553704164922237 0.1264730393886566 -0.0790824666619301 0.0339738205075264 -0.0501094944775105 -0.0249928478151560 0.1478593945503235 0.0782762467861176 -0.0212309956550598 0.0302937142550945 -0.0885239616036415 -0.1886997222900391 0.1348862200975418 -0.0152977695688605 -0.0375064425170422 0.0513033643364906 0.0530069172382355 0.1795611977577209 -0.0859313085675240 0.1201030462980270 -0.0445120632648468 -0.0984544157981873 0.1533313244581223 -0.1007146462798119 -0.0175113696604967 0.0493107102811337 0.0441433712840080 0.2095453143119812 0.0412985347211361 0.0219422187656164
0.1072216331958771 -0.0845044925808907 0.0370527952909470 0.0548769980669022 0.1486662328243256 0.1294335275888443 -0.0557725839316845 -0.0483815073966980 0.0216845031827688 0.1280046999454498 -0.0417092479765415 0.0444490276277065 0.0478556528687477 -0.0456614494323730 0.1005944535136223 -0.0055882297456264 0.1043479442596436 0.1535733193159103 0.1056254953145981 0.0228990651667118 0.2118045091629028 -0.0152878873050213 0.1056063324213028 -0.0135075999423862 0.0559936165809631 0.1049873903393745 0.0534167550504208 -0.0473714619874954 0.0838254839181900 -0.0655282437801361 -0.0217873193323612 0.1861441582441330 -0.0755829438567162 0.0753200873732567 -0.0312091279774904 -0.0318153053522110 -0.0314151458442211 0.1121571138501167 0.1183730140328407 0.1217599287629128 -0.0682200342416763 0.0199914723634720 0.1883279979228973 0.0330019816756248 0.1171129271388054 0.1311868876218796 0.0427488461136818 0.0766445249319077 0.1325994729995728 -0.0714957863092422 0.1286268830299377 0.1411783397197723 0.1326398104429245 -0.0175297576934099 0.0041471119038761 0.0823869556188583 -0.0470828339457512 0.2159437537193298 -0.0129520343616605 -0.0775828510522842 0.1401490122079849 0.1926377117633820 0.0293975733220577 0.0906583517789841
0.1175068840384483 0.1328071355819702 -0.0645648390054703 -0.0243851523846388 -0.0196901168674231 -0.0001425978261977 0.1531031280755997 -0.0094022126868367 0.0005441627581604 -0.0932051539421082 -0.0409091301262379 0.0852933377027512 0.0160314626991749 -0.0517848394811153 -0.0945807918906212 -0.1136877387762070 0.0224332157522440 0.0400374121963978 0.0702025741338730 0.0544061101973057 0.0018107764190063 -0.0430984720587730 0.0625968873500824 -0.0741393566131592 0.1050357222557068 0.1004872024059296 0.1293280720710754 0.0817685797810555 -0.0093250619247556 -0.0323396064341068 0.0198042485862970 -0.0619103163480759 -0.0733579248189926 0.2283015549182892 -0.0664420798420906 0.0356081128120422 -0.0748654901981354 0.1543221473693848 -0.0706749558448792 0.1105328351259232 0.1363502442836761 -0.0093629369512200 -0.0820331647992134 0.0137777542695403 -0.0552289523184299 0.1092109605669975 -0.0277166832238436 0.0597108528017998 0.0037765414454043 0.1177353560924530 0.0102102486416698 0.1182453855872154 0.0516426973044872 0.1691882014274597 0.0426288470625877 0.0092410920187831 0.1239092499017715 0.0287831686437130 -0.0537979267537594 0.1479188948869705 0.1387985944747925 0.0019442127086222 0.0801785588264465 0.0091617386788130
0.0486668609082699 0.1162528917193413 0.0700893178582191 0.0980325117707253 0.0771793723106384 -0.0729106813669205 -0.0579021349549294 0.1176003068685532 -0.0248945318162441 0.1748565286397934 0.0994924753904343 0.0886920243501663 -0.0229856148362160 0.0532265491783619 0.0994144007563591 0.0847111791372299 0.1344970315694809 0.1440277546644211 -0.0732830762863159 -0.0145026491954923 0.0962214991450310 0.0731243938207626 0.0366871766746044 0.1306794583797455 -0.0783062279224396 0.1471770852804184 0.0323125235736370 0.0994010642170906 0.1243274137377739 -0.0636741816997528 0.0884266719222069 0.1582827717065811 0.1668050140142441 -0.0283906999975443 0.0483511723577976 0.0697641894221306 -0.0561668574810028 -0.0884205549955368 -0.0423417352139950 -0.0649167224764824 0.0921398028731346 -0.0796181336045265 0.1924554407596588 -0.0101803615689278 0.1689874678850174 0.1465310454368591 0.0136805521324277 0.1165394783020020 -0.0612241849303246 -0.0230672992765903 -0.0045976764522493 0.0701867789030075 0.1064794436097145 0.0549730770289898 0.0021597694139928 0.1352309286594391 0.1018333733081818 0.0766890197992325 -0.0459718741476536 0.1086303144693375 -0.0665264204144478 0.0167318750172853 -0.0802127197384834 -0.0704107731580734
0.0324811078608036 -0.0275581236928701 -0.0670221522450447 0.1015313565731049 -0.0820212066173553 0.0230947416275740 -0.0248650275170803 0.1613316088914871 0.0172745101153851 -0.0349137447774410 0.0800308957695961 0.0183701775968075 0.0455268509685993 0.0459918528795242 0.0281692054122686 0.0064985007047653 0.1076714470982552 -0.0206133835017681 0.0178583376109600 0.1078215762972832 0.1393831372261047 0.1080521047115326 0.0162926204502583 0.1270806789398193 0.0187729336321354 0.0548956543207169 0.0658182054758072 -0.0508325509727001 0.0597117394208908 -0.0627822279930115 -0.0574561133980751 0.0412784814834595 -0.0713426619768143 0.0573890171945095 -0.0620039179921150 -0.0758945420384407 0.0612726099789143 -0.0280757993459702 -0.0098493760451674 -0.0396251082420349 -0.1092255860567093 -0.1074025332927704 0.1691271513700485 -0.0879579633474350 0.0983746871352196 -0.0505266711115837 0.0308712460100651 -0.1065199226140976 -0.0288550276309252 0.0768627673387527 -0.0519549511373043 0.0032371496781707 0.1191064566373825 0.0133287226781249 -0.0789849832653999 0.0108579713851213 0.0677239149808884 0.1237551346421242 -0.0094781173393130 0.1155789345502853 0.0985607579350471 0.0504035279154778 -0.1184117048978806 0.1048678010702133
0.0782885998487473 -0.1201085671782494 -0.0867689177393913 0.0824161469936371 -0.0251285750418901 -0.0081892507150769 0.0244319792836905 0.0756485536694527 0.0788998827338219 -0.0265705864876509 0.0380709953606129 -0.0380463078618050 0.1275336891412735 -0.0985749289393425 -0.0701581537723541 -0.0545885823667049 0.0849028751254082 0.1278138607740402 -0.0971307680010796 0.1089128032326698 -0.0721502974629402 0.0572613738477230 -0.0662432909011841 0.1233956515789032 -0.1364209204912186 -0.0827597007155418 0.0009050215594471 0.0886150076985359 -0.0041811815463006 -0.1045339629054070 -0.0732391774654388 -0.0494055896997452 0.1063577756285667 0.0869673267006874 -0.0454686842858791 0.0782366842031479 -0.0243621990084648 0.0988535657525063 -0.0512134283781052 0.0230400171130896 -0.0265345349907875 0.0667500197887421 -0.0389289930462837 0.0394593179225922 -0.0002814946055878 -0.0840075761079788 -0.1353647857904434 0.0680817142128944 0.0287517774850130 0.0642345473170280 0.1031938567757607 -0.0887589678168297 -0.0544379092752934 -0.0623921565711498 -0.0321175865828991 -0.0753036588430405 -0.1336111426353455 0.1384543329477310 -0.0497331246733665 0.0113478330895305 0.0596628934144974 0.1328673213720322 0.0025388114154339 -0.0276113674044609
0.1211164966225624 0.0587529391050339 -0.0492167845368385 0.0297054536640644 0.1384660303592682 -0.0402547977864742 0.1177263706922531 0.1438590288162231 -0.0573297627270222 -0.0095644295215607 -0.1001512780785561 0.0876851677894592 0.0376765914261341 0.0140733132138848 0.1486708223819733 0.0620462708175182 0.1157653033733368 0.1564463526010513 -0.0892865508794785 0.1153817623853683 0.0395479537546635 -0.1181272938847542 -0.0335079766809940 0.0027092047967017 0.0315014347434044 -0.0620602779090405 0.0639176592230797 -0.0702740699052811 0.0849999263882637 0.0368618443608284 -0.0852847844362259 0.2311893701553345 0.0488176606595516 0.1959091275930405 0.0319890156388283 0.1385367959737778 -0.0200228486210108 0.0580269619822502 0.0834449529647827 0.0372267216444016 -0.0290253199636936 0.1902953088283539 0.1818149089813232 -0.1348012387752533 0.0591026544570923 -0.0048838485963643 -0.0754775851964951 -0.0462219864130020 -0.1640299856662750 -0.0116851972416043 -0.0206251479685307 0.1222330927848816 0.0906826630234718 -0.0642419233918190 0.0325829163193703 -0.1575936079025269 -0.1043176129460335 0.1952696740627289 0.1157125383615494 0.0944041311740875 0.1882470846176147 0.1003335118293762 0.1076241657137871 -0.0070685427635908
-0.0399281866848469 0.0881370380520821 0.0376356095075607 -0.0371841490268707 0.0625865161418915 0.1016358658671379 0.0413495190441608 -0.1090173050761223 -0.0747015550732613 -0.1254957318305969 -0.0982636362314224 0.0933685451745987 0.0954248607158661 -0.0094380984082818 -0.0738598927855492 0.0401712656021118 0.0837689861655235 0.0902084857225418 0.0285207200795412 0.0706347823143005 -0.0695147067308426 0.0764549821615219 0.0032393499277532 0.1075516864657402 -0.0476150363683701 -0.0722705051302910 -0.0982376709580421 -0.1224287375807762 -0.0867045745253563 0.0032496771309525 -0.0179131422191858 -0.0796212926506996 0.1043209731578827 -0.0403864122927189 0.0454442910850048 0.1124276891350746 -0.0813100337982178 -0.1066355630755424 0.0033389651216567 -0.0715038403868675 -0.1324110925197601 0.0852082893252373 -0.0383133962750435 0.1032590344548225 0.0123504437506199 -0.0675745755434036 0.0063261631876230 -0.1249989345669746 0.0203306898474693 -0.0421672426164150 -0.0015061571029946 0.0669254288077354 -0.0489607453346252 -0.0959548503160477 -0.0807098299264908 0.0539716556668282 -0.1045413091778755 0.0512412041425705 -0.0857149362564087 -0.1068853512406349 0.0313604064285755 -0.0087871700525284 0.0699681490659714 -0.0183939803391695
0.1087488979101181 0.1338577866554260 0.0902514830231667 0.0299239922314882 0.0622198358178139 -0.0561472065746784 -0.0268532726913691 0.0960407927632332 0.0939254909753799 0.0852038487792015 0.1131023392081261 -0.0523996055126190 -0.0884625613689423 0.1333895027637482 0.1042999699711800 0.0710747390985489 0.0114766256883740 -0.0677234157919884 0.0485708490014076 0.0835824236273766 0.0059727882035077 -0.0306533407419920 0.0754933729767799 0.0298545993864536 0.0270520448684692 0.1075104400515556 -0.0775658935308456 -0.1061804965138435 0.0745908766984940 0.0742920488119125 -0.0709809586405754 0.0484806671738625 0.1076839342713356 0.0073223933577538 -0.1028344109654427 -0.0205439608544111 0.1135833263397217 -0.0360883213579655 -0.0504064150154591 -0.0853653773665428 0.0016476055607200 -0.1228689476847649 0.0142978308722377 0.0770404264330864 0.0684444531798363 0.0678533688187599 -0.0798535197973251 0.0466713272035122 0.0611058734357357 0.0797503888607025 -0.0607487186789513 0.1006885617971420 0.0641052499413490 0.0512299798429012 -0.1292022317647934 0.1008207425475121 -0.0793557614088058 0.0247600525617599 -0.1082607880234718 0.0861520394682884 -0.0641918405890465 -0.0209546312689781 -0.0016931393183768 0.0187273714691401
0.0813273787498474 -0.0384240485727787 0.0514939501881599 0.1315649300813675 -0.0392308235168457 0.0258050039410591 0.1034558415412903 0.0171777307987213 0.0375418104231358 -0.0326812230050564 -0.0686915069818497 0.1086214631795883 -0.0435559563338757 0.1566109359264374 0.0416030921041965 0.2018879503011703 0.0429238937795162 -0.1027929782867432 0.0329487361013889 0.1902623176574707 0.1334674507379532 0.0937970280647278 0.0796078890562057 0.0818718820810318 0.1174866557121277 -0.0380841866135597 0.1518026441335678 0.1179622933268547 0.1073141396045685 0.1660859435796738 0.0372036881744862 -0.0310794282704592 0.0508165992796421 0.2631894648075104 0.1263545453548431 0.0513240769505501 0.0427260622382164 0.0147460279986262 -0.0317111127078533 -0.0957221239805222 0.0480382442474365 -0.0286493431776762 0.1464148312807083 -0.0315508469939232 0.1040899455547333 0.0229257270693779 0.0093352999538183 -0.0950780287384987 -0.0323041751980782 -0.0654437616467476 0.0102510582655668 0.1419345587491989 -0.0690438002347946 -0.0525428988039494 0.0417893603444099 0.0438633076846600 0.1124883517622948 0.1386463195085526 -0.0539828017354012 0.1338826268911362 0.1604118049144745 0.1102200448513031 0.0052934293635190 0.0486547797918320
0.0833014249801636 -0.0186196472495794 0.0623538941144943 -0.0641024932265282 -0.0817226096987724 0.0621029883623123 0.1166110858321190 0.0691312924027443 -0.0295729860663414 0.0411951877176762 0.0030627790838480 0.1457555145025253 0.0628335550427437 0.0706452727317810 0.0437988676130772 0.0042049121111631 -0.0526357442140579 0.0155753791332245 0.0399987921118736 0.0561697147786617 -0.0138395400717854 -0.0020263954065740 0.1678376495838165 0.0529137626290321 0.1039293482899666 0.0429047681391239 0.0708432868123055 -0.0374227687716484 -0.0190287418663502 0.0451586209237576 -0.0708358660340309 -0.0268258582800627 0.0816829353570938 0.0390622206032276 0.1596336960792542 -0.0689197108149529 -0.0664608031511307 0.1456855833530426 -0.0594550445675850 0.0118095222860575 -0.0699771493673325 0.0933879092335701 0.0010837040608749 0.0119934687390924 -0.0128328669816256 -0.1501269340515137 0.1709151864051819 0.1095131337642670 -0.0658030360937119 0.0969977825880051 0.0785361900925636 0.1542356312274933 -0.0265606138855219 -0.0036132368259132 0.0462700240314007 0.1184114366769791 0.1127487048506737 -0.0619531497359276 0.1311360895633698 0.0421667695045471 -0.0558301247656345 0.0590025745332241 0.1372909545898438 0.0003649108111858
-0.0550133436918259 0.1663481593132019 0.0113405166193843 -0.0081855859607458 0.0025789348874241 0.1521530598402023 -0.0443152263760567 0.0238336920738220 -0.0229205619543791 -0.1108972877264023 0.1335391253232956 0.1380720436573029 0.0634643286466599 -0.0608331076800823 0.0902863591909409 -0.0368840880692005 -0.0224703606218100 0.0170166436582804 0.0312817394733429 0.1423717886209488 0.1322084814310074 -0.0531616769731045 -0.0521517284214497 0.0253158640116453 0.1455476135015488 0.0874022617936134 0.0166649129241705 -0.0579223446547985 -0.1414415091276169 0.1565463542938232 -0.0025186403654516 -0.1495749950408936 -0.0773037225008011 0.0787310749292374 -0.0244511347264051 -0.0272364169359207 0.0338188484311104 0.0987867191433907 -0.0743241757154465 0.0409221872687340 -0.0204108748584986 0.0202880371361971 0.0571114346385002 -0.1170628145337105 0.0909547060728073 -0.1037449985742569 0.1316534131765366 -0.0556132383644581 0.1026742681860924 0.0901660248637199 0.1056102365255356 0.0117667531594634 -0.1008583903312683 -0.0208612419664860 0.1083638668060303 -0.0984372645616531 -0.0455049425363541 0.0805763080716133 0.1131681725382805 0.1035145148634911 -0.0106981163844466 0.1190162152051926 0.1711023449897766 0.1104960963129997
-0.0664841234683990 -0.0178706645965576 0.0341961532831192 -0.1143676191568375 -0.0647305399179459 0.1087244302034378 -0.0635478347539902 -0.0089440643787384 -0.0090882033109665 -0.1170860826969147 -0.0421867370605469 0.0250161588191986 -0.0541289299726486 -0.0823342800140381 -0.0616394877433777 0.0224827826023102 0.0513429492712021 0.0480007827281952 0.0476026982069016 -0.0291806459426880 0.0091767758131027 0.0035195946693420 -0.0428806692361832 0.0636262595653534 -0.0819676518440247 -0.1008400619029999 0.0569998025894165 0.0185411721467972 0.0150088667869568 -0.1000549048185349 0.0652788132429123 0.0835450440645218 0.1076072901487350 -0.0732525140047073 -0.0060216635465622 0.0525000244379044 0.1233321726322174 -0.0819080919027328 -0.0961618125438690 0.0858989655971527 -0.1011590212583542 -0.0352064371109009 -0.1234067231416702 0.0336675494909286 -0.0882782787084579 -0.1073021143674850 -0.0775129199028015 -0.0938156545162201 0.0004163980484009 0.0228836834430695 -0.0515704602003098 0.0195153802633286 0.0796108245849609 -0.1002311408519745 0.0994029641151428 -0.0052316188812256 0.0092095881700516 0.1195213943719864 0.0211944580078125 -0.0749862790107727 0.0840900987386703 -0.1015135198831558 0.0329545140266418 0.0472728610038757
-0.0615993104875088 -0.0762016400694847 -0.0823359563946724 0.0388577729463577 0.1286929994821548 -0.0570679716765881 0.0299436058849096 0.0517053902149200 -0.1062849536538124 -0.0644507482647896 0.0168752912431955 0.0964363962411880 -0.0915827006101608 0.0182659178972244 0.0911333635449409 0.0447350442409515 0.1580344885587692 0.0430787913501263 0.0592593774199486 0.1600864678621292 0.0988454520702362 0.0218762438744307 -0.0407577492296696 0.0432999059557915 -0.0207932889461517 0.0079357409849763 0.0307427458465099 -0.1007580459117889 -0.0287040714174509 0.0790264457464218 -0.0991263091564178 0.0403032749891281 -0.0155658470466733 0.0968447327613831 -0.0241974480450153 0.0295664165169001 -0.0490674562752247 0.0612894669175148 -0.0842880979180336 0.0672113746404648 0.1203587949275970 0.0672102868556976 -0.0028039882890880 0.0574562251567841 -0.1199127659201622 0.0311520472168922 0.0876880660653114 -0.0390692465007305 0.1009768024086952 0.0321998186409473 0.1177460327744484 -0.0422292575240135 0.0630670040845871 -0.0372380837798119 -0.0858526900410652 0.0727673768997192 0.0262638367712498 0.1004981175065041 0.0849195420742035 0.1541938930749893 -0.0201884824782610 0.1434489339590073 -0.0372938774526119 -0.1351584792137146
0.1055649518966675 0.0966618955135345 -0.0462697520852089 0.0790388360619545 -0.0204214230179787 0.0845802724361420 -0.0214867889881134 0.0249825343489647 -0.0342738367617130 0.0935267582535744 0.0239815581589937 0.0080247838050127 -0.0342717096209526 -0.0459697917103767 0.1082149520516396 0.0448162890970707 0.0872449055314064 0.1422730535268784 0.0409174971282482 -0.0043167211115360 -0.0146571164950728 0.0177094954997301 0.0774399116635323 0.1689805239439011 -0.0226435437798500 0.0623286515474319 0.0613744147121906 -0.1064288318157196 -0.0730688869953156 -0.0496780015528202 -0.0124870911240578 0.1145639866590500 -0.0049610687419772 0.0722603797912598 0.1377296745777130 0.0449433736503124 0.0797515586018562 0.1403394788503647 0.0577274002134800 -0.0088922800496221 -0.1109706088900566 0.0807784199714661 0.1251316219568253 -0.0588860586285591 -0.1045577749609947 0.0847074836492538 0.0905509516596794 0.0551561340689659 0.0221756994724274 0.0972364470362663 0.1220058351755142 -0.0833464786410332 0.0952742174267769 0.1151839271187782 0.0629397854208946 -0.0107035059481859 -0.1133324801921844 0.0514553301036358 -0.0695767328143120 0.0902626961469650 0.1479634046554565 0.1794510483741760 -0.0146540449932218 -0.1232456490397453
-0.0182220879942179 -0.0422120913863182 -0.0653853267431259 0.1141893342137337 0.0278173740953207 0.0480496995151043 0.1434275358915329 0.0163843613117933 0.0424439869821072 0.0125490278005600 0.1267297416925430 0.0980351045727730 -0.0298113729804754 0.1066715493798256 -0.0747971236705780 -0.0761497393250465 0.0823164433240891 -0.0570261701941490 0.0805695503950119 0.0142740448936820 0.1397376805543900 0.0983765199780464 0.0446032285690308 0.0295557379722595 0.1710008084774017 0.0403898991644382 0.0226917564868927 0.0963509082794189 0.1223115622997284 0.1453318148851395 0.0986602082848549 0.0790908634662628 -0.0941552370786667 0.0901087820529938 0.0227214395999908 0.1286044567823410 -0.0535351447761059 0.0077979201450944 -0.0322098881006241 -0.0420790165662766 -0.0218250751495361 0.1276054084300995 -0.0338507518172264 -0.0343673527240753 -0.0222328975796700 -0.0235067009925842 0.0421114973723888 -0.0707031413912773 0.1036638244986534 0.0298496689647436 -0.0249091573059559 0.1180873364210129 0.0016748399939388 -0.0071748178452253 0.0332962609827518 0.0156970787793398 0.1189066171646118 -0.0224460363388062 -0.0666601806879044 0.1484414488077164 0.0744776800274849 0.1343562602996826 0.1532849520444870 0.1142856180667877
-0.0725912004709244 0.1419872194528580 0.0107924193143845 -0.0078761149197817 -0.0369966328144073 0.0060498449020088 0.0281464401632547 -0.0206155292689800 -0.1145551949739456 -0.1258255392313004 0.1242432966828346 -0.0458423718810081 0.0619695857167244 -0.0865415334701538 -0.1468419134616852 0.0163725074380636 0.0676245838403702 0.0072588762268424 -0.0844268277287483 0.0500121973454952 -0.1143892407417297 0.0825992897152901 0.0505723729729652 0.1046233847737312 0.1194964647293091 -0.0910913348197937 0.1399276554584503 0.0248423423618078 -0.1186793819069862 -0.0519634373486042 -0.0163244400173426 -0.0362843573093414 -0.1178873777389526 0.1816370487213135 0.1079062670469284 0.0623971261084080 0.0048155724070966 0.0902314633131027 -0.0915921851992607 -0.0355045683681965 0.0797595456242561 0.1583253294229507 -0.0062329461798072 -0.1457233279943466 0.0846768766641617 -0.0308336503803730 0.0586321838200092 -0.0573979690670967 0.0020665235351771 0.0380429960787296 0.1366706043481827 0.1713704317808151 0.0868327170610428 -0.0516211427748203 0.0596714280545712 -0.1010874882340431 -0.0669310390949249 -0.1680796444416046 0.0824320688843727 0.0744142234325409 0.0330517664551735 0.0168918129056692 -0.0569193549454212 -0.0591680966317654
0.1465673446655273 0.0778122171759605 0.0263187475502491 0.1604065150022507 -0.0542651936411858 0.1331968903541565 0.0344382971525192 -0.0562624894082546 0.0946841090917587 0.0068294759839773 0.0932561308145523 0.0134316198527813 0.0143936602398753 0.0021641538478434 0.0151586188003421 0.1253741383552551 0.0189603734761477 -0.0148172453045845 0.0053650490008295 0.0433709509670734 0.1886117011308670 -0.0647009834647179 0.0629664510488510 0.0556305721402168 0.0008542594732717 0.1065883263945580 0.1299841552972794 0.1161983683705330 -0.0223755072802305 0.0121472561731935 0.0487148724496365 -0.0645485892891884 0.1133119612932205 0.0191188510507345 -0.0403226241469383 -0.0412453897297382 -0.0034920913167298 -0.0190115496516228 0.0140024162828922 0.0964057520031929 -0.0470394007861614 0.1967845857143402 -0.0209283288568258 0.0071120182983577 -0.0744820386171341 -0.0971994921565056 0.1115618273615837 0.1225596070289612 0.0993528217077255 0.0428219996392727 -0.0483121536672115 0.1557776182889938 0.1164940521121025 0.1086563318967819 0.1158135831356049 -0.0866876393556595 -0.0155193256214261 0.1427800804376602 0.1383588165044785 0.0130583588033915 0.1620763838291168 -0.0048231962136924 0.1649413704872131 0.1299508661031723
-0.0299868341535330 0.1217347234487534 0.0298851672559977 0.0881642848253250 0.0593648031353951 0.1246172785758972 -0.0361309386789799 0.0465632379055023 -0.0137344533577561 0.0205358341336250 -0.0264002382755280 0.1150085180997849 0.1036067679524422 -0.0152431922033429 0.0469566024839878 0.1649931520223618 -0.0213249474763870 0.0828628167510033 -0.0730097591876984 0.0509232357144356 0.1696563065052032 0.1120307520031929 -0.0690321475267410 0.1576659679412842 -0.0716454014182091 0.1319821923971176 0.0247041415423155 -0.0659302994608879 0.0255657583475113 -0.0232260599732399 0.1284658759832382 0.0067504588514566 0.0013475070009008 -0.0192987415939569 0.0683702081441879 -0.0884740278124809 -0.0578826479613781 -0.1228565573692322 0.0902460813522339 0.1147458702325821 -0.0375795923173428 -0.0809608101844788 0.0492295511066914 0.0225615128874779 0.0700779855251312 0.1324398219585419 -0.1058203279972076 -0.0107646575197577 0.1031369119882584 0.0066686398349702 0.1108409464359283 -0.0193707831203938 0.1143570840358734 0.1540216356515884 -0.0758996456861496 0.0885336026549339 0.0365075916051865 0.1188704669475555 -0.0254418198019266 0.0779551640152931 0.1244961023330688 0.0618768669664860 0.0389948002994061 0.1104326248168945
0.0177686698734760 -0.0169716831296682 0.1312754899263382 0.1489150375127792 -0.0927546843886375 -0.0739959254860878 -0.1031467095017433 0.1184835359454155 0.0171602033078671 0.1098902672529221 -0.0269652418792248 -0.0676687508821487 0.0099659981206059 -0.0378472246229649 0.1064739301800728 0.0736900120973587 -0.0408563837409019 0.1126653999090195 0.0091546317562461 0.1514822244644165 0.2001995742321014 -0.0152062214910984 0.0245157219469547 0.0549694411456585 0.0846633315086365 0.0633037984371185 0.0742572620511055 0.0173118822276592 -0.0565714202821255 0.1392673105001450 0.1052666082978249 0.2069522291421890 -0.0184363778680563 0.0076076830737293 0.0066459765657783 0.0624155402183533 0.0425486117601395 0.0550223775207996 0.0793304815888405 -0.0366258323192596 -0.0686136484146118 0.1762229949235916 0.1711759120225906 0.0504494905471802 -0.0281814113259315 0.0977916568517685 0.0404528602957726 0.0205239951610565 -0.0277210194617510 -0.0309699494391680 -0.0135318255051970 0.1517628729343414 0.0142097137868404 -0.0683842599391937 -0.0562487021088600 0.0057475576177239 -0.0458989664912224 0.0451244898140430 -0.0582643263041973 0.0010363660985604 0.0100025041028857 0.2660093307495117 0.1068788170814514 -0.0700287595391273
0.0759626999497414 0.0412097908556461 0.0195220597088337 -0.0319688469171524 0.0426328144967556 -0.0013333667302504 0.1412817239761353 -0.1090533658862114 0.1396564096212387 0.0385760962963104 -0.0765077248215675 0.0046844929456711 0.0180141609162092 0.1625476181507111 -0.0629981383681297 -0.0140644572675228 0.0442907288670540 -0.0977012962102890 0.1529320776462555 -0.0404220893979073 0.1074362620711327 0.1142156198620796 0.1528084874153137 -0.0881694778800011 0.0199340619146824 0.0082295378670096 0.0993977338075638 0.0068324813619256 0.0266680940985680 0.0390082746744156 0.0869239643216133 -0.0171341318637133 -0.0693621933460236 0.1883235871791840 0.0687389224767685 0.1065776199102402 -0.1192027628421783 0.0001695385581115 0.0755404904484749 0.0087156556546688 -0.0424336083233356 0.1352566331624985 -0.0932455882430077 -0.0802985355257988 0.0614283457398415 -0.0340335592627525 0.0323076136410236 0.0441234707832336 0.0878254026174545 0.0146817080676556 0.0196543950587511 0.0302254240959883 0.0260656569153070 0.0404984764754772 -0.0277155712246895 -0.0464373752474785 0.0936092510819435 -0.1516441404819489 -0.0696374922990799 0.1200954690575600 0.0992809385061264 0.0468063205480576 0.0675286427140236 -0.0060310815460980
0.0161861479282379 0.0579209029674530 -0.0432376898825169 -0.0593049377202988 0.0372513867914677 0.0960097089409828 -0.0933699384331703 -0.0198675636202097 0.0110200298950076 0.0598227940499783 -0.0405008345842361 0.0030716317705810 -0.0499517358839512 -0.0284962709993124 0.0655994713306427 0.2002765685319901 0.0809327065944672 0.1274090856313705 0.0168149806559086 0.0263499952852726 0.1146276518702507 0.0025290146004409 0.0771649628877640 0.0174736939370632 0.0652411356568336 -0.1809566468000412 -0.0108068371191621 0.0550690181553364 0.1466164588928223 -0.0098219402134418 0.1437847614288330 0.0224386323243380 -0.0318665616214275 0.0639447718858719 -0.0416016355156898 0.0424025170505047 0.0454294979572296 0.1288763433694839 0.1172933951020241 -0.0206342563033104 -0.0301044732332230 0.1641830801963806 0.1990503370761871 0.0074859373271465 -0.0720435231924057 -0.0019990415312350 -0.0141532858833671 0.0793148279190063 -0.1894209831953049 -0.0302924122661352 -0.0476330295205116 0.1078969240188599 -0.0517750233411789 0.0560036115348339 0.1271941512823105 0.0163291897624731 0.0814409404993057 0.1606367826461792 -0.1184534654021263 -0.0048208194784820 -0.0297638364136219 0.2209467589855194 -0.0050352127291262 -0.1346932798624039
-0.0087175406515598 0.1041760966181755 0.0204705055803061 -0.0653174817562103 -0.0833107307553291 0.0921498909592628 0.0354333557188511 -0.0276583135128021 0.0427473895251751 -0.0212369691580534 0.0214439202100039 0.0479088164865971 -0.0084558948874474 0.1197831332683563 0.0370731465518475 0.1047221720218658 0.0600796528160572 0.1279399991035461 0.0457274764776230 -0.0470421537756920 0.0451216362416744 -0.0263905022293329 0.1043883711099625 0.0824978128075600 0.0651012063026428 -0.0414966270327568 0.1603508591651917 -0.0846177041530609 0.1263266354799271 -0.0380386896431446 -0.0421910136938095 -0.0652998387813568 -0.0002148928324459 0.1953823566436768 0.1192442923784256 0.0592114925384521 -0.0423615686595440 0.0895167663693428 0.0240033343434334 0.0430494360625744 -0.1069105789065361 0.0011227248469368 0.0136363115161657 -0.1424498111009598 0.0661920383572578 0.0414809249341488 0.1202299296855927 -0.0230447668582201 -0.0057107284665108 0.0105173308402300 -0.0921049043536186 0.1387891918420792 0.0772312805056572 0.1172784715890884 0.1393408477306366 0.0409323573112488 -0.0606515668332577 0.0755204036831856 0.0770204886794090 -0.0193989295512438 -0.0177873093634844 -0.0397043749690056 0.1158984825015068 -0.0732450708746910
-0.0213995315134525 -0.0615591853857040 0.0784571766853333 0.0484899803996086 0.0401694551110268 -0.0647383779287338 0.1449698209762573 0.1112996339797974 0.0525401197373867 -0.1337104886770248 -0.0534499250352383 0.0980003923177719 0.0936549380421638 0.1574668586254120 -0.0640059113502502 0.1193495616316795 0.0064708832651377 0.0484392307698727 -0.0117253949865699 0.0912859365344048 -0.0437339991331100 -0.0114147877320647 -0.0250403471291065 0.1458548903465271 0.0139022143557668 0.0041506770066917 0.0680162310600281 0.1095486357808113 0.0350880660116673 -0.0541127324104309 0.0943024903535843 -0.0173416808247566 -0.0625395551323891 0.0108094783499837 -0.0064437557011843 0.0595331266522408 -0.1183263435959816 0.0623544715344906 0.1547583639621735 -0.0910751447081566 -0.0305411051958799 0.1758430898189545 -0.0820103734731674 -0.0652604475617409 0.0742875635623932 -0.1114986762404442 0.1086226627230644 0.1434576064348221 -0.0174494683742523 -0.0470894351601601 -0.0208832323551178 0.0051530855707824 -0.0133739942684770 -0.0373229905962944 0.0467990785837173 -0.0534142404794693 0.0674059987068176 -0.0601812116801739 -0.0712140873074532 0.1098210364580154 0.1744134873151779 -0.0143358930945396 0.0614335462450981 -0.0490979105234146
0.0276003722101450 0.0549834482371807 -0.0301165971904993 -0.0382360108196735 0.0114446589723229 -0.0834912359714508 0.0807543545961380 -0.0442475788295269 0.0860237404704094 -0.0772381797432899 0.1137798652052879 -0.0821914374828339 -0.1263181120157242 0.0837802588939667 -0.0690450966358185 0.0746534019708633 0.0054742149077356 0.1189347952604294 0.0107761202380061 0.0818353667855263 0.0427444614470005 0.0089178429916501 0.1341419667005539 0.1071956828236580 0.0416990332305431 -0.0331395566463470 0.0351127870380878 -0.0216130632907152 -0.0130727691575885 0.1574919372797012 0.0133120920509100 -0.0814336389303207 -0.0557980313897133 0.1759587377309799 0.0085521852597594 -0.0853624045848846 0.0001226239546668 -0.0254651550203562 -0.0892881304025650 0.0621749944984913 0.1519462764263153 -0.0195265989750624 -0.1221246495842934 0.0121343927457929 0.0590082146227360 0.0034407249186188 0.0432581529021263 0.0902765393257141 -0.0108114946633577 0.1058300137519836 0.0658318623900414 -0.0628719925880432 0.1066012382507324 0.1362248957157135 -0.0111655397340655 0.1234836876392365 0.0292831156402826 0.0580201037228107 0.1254041790962219 -0.0230259001255035 0.1533470004796982 0.0675940662622452 -0.0313920006155968 -0.0408967286348343
0.0009358194074593 -0.0272704716771841 -0.0106485169380903 -0.0951212495565414 0.1258295923471451 0.1229494959115982 -0.0133884381502867 -0.0638755857944489 0.0992554128170013 -0.0614360086619854 0.1426258236169815 -0.1176549270749092 0.0890861302614212 -0.0400576554238796 -0.0248047430068254 -0.0108627211302519 0.1180163398385048 0.1253063678741455 -0.0405837260186672 -0.0449023172259331 0.1742483824491501 0.0263085290789604 0.0877074375748634 0.1027046665549278 -0.1454142034053802 -0.1269070655107498 -0.0828594043850899 -0.1740727275609970 0.1385522037744522 -0.3170353770256042 0.1021339520812035 0.2202898114919662 0.1110471338033676 0.1841177791357040 -0.0903659537434578 -0.0540360771119595 0.0434745512902737 -0.4178648591041565 -0.0784008651971817 -0.0193057507276535 0.0387872233986855 0.0213069133460522 0.0968708172440529 0.0236294325441122 0.0015875196550041 0.0633593723177910 0.0133311534300447 -0.1365950554609299 0.1108239814639091 -0.1561216413974762 0.0217177718877792 -0.0863005742430687 0.1113232895731926 -0.0641537979245186 -0.0540307201445103 -0.0646123588085175 -0.0777186974883080 0.1707469820976257 -0.3177630603313446 0.0136781716719270 0.1457334458827972 0.1755996048450470 0.0926922783255577 -0.0058364132419229
0.0633690655231476 -0.0191980171948671 0.1029758900403976 0.1348027735948563 -0.0347216762602329 0.0975062027573586 -0.1026844009757042 -0.0162640940397978 -0.0588524490594864 -0.0737003535032272 0.0072227348573506 -0.0471467413008213 0.1049684211611748 0.0514474846422672 0.0067251990549266 0.0058049852959812 0.0165608264505863 0.1135424524545670 -0.0396427400410175 -0.0512790121138096 -0.0122477440163493 0.0410558655858040 0.0491386502981186 -0.0457757264375687 -0.0475666895508766 -0.0772387087345123 -0.1266152262687683 0.0078565860167146 0.0542725138366222 -0.0320125780999660 0.0865806043148041 0.1425516307353973 0.0352648831903934 -0.0059589636512101 0.0680654048919678 0.0535774864256382 0.1154255941510201 -0.0338021516799927 -0.0161640215665102 0.0978245064616203 -0.0876907929778099 0.0082922652363777 0.0560557022690773 0.0776131823658943 0.0034049516543746 0.0080916471779346 -0.0456437692046165 0.1059377267956734 0.0189401321113110 0.1138146743178368 0.0781430825591087 -0.0679407641291618 0.1292693018913269 -0.0796814635396004 -0.0372753888368607 0.0400235019624233 -0.0917333737015724 0.0153478579595685 0.1251530498266220 -0.0585308484733105 0.0583442971110344 0.0189947411417961 0.0580796860158443 -0.0683836862444878
-0.0236200653016567 -0.0505010336637497 0.1319162249565125 -0.0403614044189453 -0.0182680469006300 0.1133225560188293 0.0736014097929001 -0.0695429369807243 0.0633841976523399 -0.1154139488935471 -0.0491611063480377 -0.0385048277676105 -0.0355067886412144 0.1272905021905899 -0.0957255735993385 -0.1254787296056747 0.0938533470034599 0.0555704310536385 0.0200131516903639 -0.0211071129888296 0.1423790603876114 -0.0544732138514519 0.1320043057203293 0.0603306218981743 0.1196646615862846 0.0581788979470730 0.0553540699183941 0.0837304070591927 0.0343075096607208 0.1465883851051331 0.1382551193237305 -0.0655972957611084 0.1055869907140732 0.1426676660776138 0.0162052437663078 0.0089282095432281 -0.0185039620846510 0.1024902537465096 -0.0091652311384678 0.0471760183572769 0.1455006748437881 0.0501711703836918 0.0489734038710594 0.0865793302655220 -0.1149123534560204 -0.0511485747992992 -0.0206677056849003 0.0286994688212872 0.0961287319660187 -0.0716514587402344 0.0015284551773220 0.1369978338479996 -0.0977744534611702 0.1066531017422676 -0.0430006831884384 0.0669289082288742 0.0160098634660244 -0.1858796030282974 0.1461976468563080 0.1247522160410881 0.0180233865976334 -0.0400072373449802 -0.0208367686718702 -0.0145530560985208
0.0701033174991608 0.0690438970923424 0.0310385394841433 0.1037546768784523 0.0388688482344151 0.0517149493098259 0.1097476556897163 -0.0012572985142469 0.0433471128344536 0.0679221972823143 0.1303483992815018 -0.0897687748074532 0.1275305449962616 0.0459416508674622 0.0002642575709615 -0.0152512406930327 0.0113605149090290 0.1600198000669479 -0.0644446387887001 0.0774962604045868 0.0432739630341530 0.0346717983484268 -0.0333976373076439 0.0601598024368286 0.0860723033547401 -0.0529476553201675 0.1348318904638290 0.0599249266088009 0.0687230899930000 0.0404863767325878 0.0453313700854778 0.2221820205450058 0.0733874961733818 -0.0439353697001934 0.0988626256585121 -0.0815409719944000 0.1458281278610229 0.1112366765737534 0.0653761327266693 0.0047323848120868 0.0195680204778910 0.0308574941009283 0.1804897189140320 0.0922236889600754 -0.0796481892466545 0.0638931244611740 0.0871183574199677 0.0274341031908989 0.0622878037393093 0.0160031262785196 -0.0935707837343216 0.1411272585391998 0.1141607910394669 0.0485281646251678 0.0624973587691784 -0.0289734378457069 0.0723316222429276 0.2636020183563232 -0.0132605982944369 0.1186845079064369 -0.0000274931499007 0.1046519130468369 0.1277429610490799 0.0699252262711525
0.1354076564311981 0.0827923193573952 0.0626761913299561 0.1255233734846115 0.0421844646334648 0.0536941289901733 -0.0554396063089371 -0.0531235150992870 -0.0621065571904182 0.0483713634312153 -0.0604087375104427 0.0690423846244812 0.1429136097431183 0.0271263848990202 0.0227758605033159 0.0189145617187023 -0.0859329476952553 0.0312665551900864 -0.0471431799232960 -0.0806789919734001 0.0891814008355141 0.0384741313755512 -0.0609818920493126 0.0316618755459785 0.0703920051455498 0.0197220891714096 0.0254262909293175 -0.0726860687136650 0.1265137940645218 -0.0001454130833736 0.0992621257901192 0.2161053866147995 -0.0149672627449036 -0.0248569343239069 0.0170319247990847 -0.0129383271560073 -0.0797722786664963 0.0259389244019985 -0.1011536344885826 -0.0768792852759361 -0.0558493994176388 -0.0074312230572104 0.0761342793703079 0.0399529896676540 -0.0877836793661118 -0.0332063920795918 0.0236063525080681 -0.0886737927794456 0.0332114621996880 0.1062168627977371 0.0266576856374741 -0.0280246194452047 0.1529621183872223 0.0849478095769882 -0.0148186776787043 0.1308417618274689 0.0530626513063908 0.1936784386634827 0.0262848697602749 0.0217335168272257 -0.0319114476442337 0.0924977660179138 -0.0410443991422653 0.0612627118825912
0.1169706508517265 -0.0261903516948223 0.1248819306492805 -0.0375407487154007 0.1324542760848999 -0.0672134384512901 0.0488310940563679 -0.1121610403060913 -0.0563344284892082 -0.0562439784407616 0.1132219508290291 -0.0398649573326111 -0.0727972909808159 0.1431045532226562 -0.0731687620282173 -0.0630808472633362 0.1030941531062126 -0.0689300745725632 -0.0925769284367561 0.0719740837812424 -0.0389729067683220 0.1268424689769745 -0.0921391546726227 0.0984142422676086 0.0903497785329819 -0.0465108603239059 0.0814635157585144 -0.0382734723389149 0.0387322716414928 -0.0506651438772678 -0.0237223692238331 -0.0288189202547073 -0.0833863317966461 0.1685766875743866 -0.0454320274293423 -0.0686421915888786 -0.1105560958385468 -0.0057950015179813 0.0442374385893345 0.1024812832474709 0.0185974575579166 0.0420651063323021 -0.0447492189705372 -0.0601423680782318 -0.1132833585143089 -0.1506609916687012 0.1201765537261963 0.0601678006350994 -0.0938466191291809 0.1379664391279221 0.0828158780932426 0.0888991579413414 0.1266368776559830 0.0787262097001076 0.0854078754782677 -0.0626952052116394 0.1237374246120453 0.0676740631461143 -0.1014171242713928 -0.0953269898891449 -0.0537996180355549 0.2368375211954117 0.1369478851556778 0.0010117490310222
-0.1151982322335243 0.1476909071207047 0.0266627594828606 0.0761130824685097 -0.0851648375391960 0.1168021634221077 0.1432612687349319 -0.0015237453626469 0.0343534164130688 -0.1014932245016098 -0.0244927946478128 -0.0136477984488010 0.1273488998413086 -0.0537409745156765 -0.0968873351812363 0.1080801188945770 -0.0827148333191872 -0.0933489799499512 0.1370511502027512 0.1264476776123047 -0.0379935428500175 0.0477216057479382 -0.0295163914561272 0.1270324885845184 0.0923690125346184 0.0902914404869080 0.0672809556126595 -0.0836383029818535 -0.0275561939924955 0.1379431933164597 0.1132798120379448 0.0236304383724928 -0.0840877518057823 0.2118609100580215 -0.0603710226714611 0.1097887083888054 -0.0091742286458611 -0.0275253765285015 -0.0548580735921860 -0.0740323588252068 -0.0240370817482471 0.0256039313971996 -0.0348427370190620 0.0755515471100807 0.0114883659407496 -0.0621637962758541 0.1387630105018616 0.0481428503990173 0.0238808337599039 0.0029415490571409 0.0675027146935463 0.1261446923017502 0.0504892207682133 0.0368424355983734 0.0362230464816093 0.0991760119795799 0.1418718546628952 -0.1197750717401505 0.0177134405821562 -0.0184394270181656 -0.0663719773292542 0.0159374158829451 -0.0670998767018318 -0.0948037281632423
0.1066474840044975 -0.0384149029850960 -0.0300981625914574 0.1622082740068436 0.0461219064891338 -0.0338415950536728 0.1268646121025085 -0.0723914504051208 -0.0528226494789124 0.0236035101115704 -0.0774844363331795 0.0495649352669716 0.1199305877089500 -0.1540323942899704 -0.0445097275078297 0.0308192446827888 0.0346524007618427 -0.1093039140105247 0.0277704875916243 0.0345839224755764 0.0522857159376144 0.1622982472181320 0.0852755904197693 -0.0561279952526093 -0.0383255220949650 -0.0782365053892136 -0.0169187784194946 0.0351596474647522 -0.0013879699399695 -0.0977272242307663 -0.0785769000649452 0.2220233827829361 0.0159897878766060 0.1520285755395889 0.0343680903315544 0.1653492748737335 0.1292177587747574 -0.0015310671878979 -0.0988132134079933 0.0299628283828497 -0.1010974049568176 0.1011592894792557 0.0765852704644203 -0.0467058271169662 -0.0086273262277246 -0.0485021471977234 0.0690803751349449 0.0596016049385071 -0.0836356133222580 -0.0919357091188431 -0.0510072335600853 -0.0813376829028130 0.0262138657271862 0.0458950102329254 -0.0501043237745762 -0.0414199940860271 0.0898861214518547 0.2025095224380493 0.0865206494927406 -0.0461297631263733 -0.1145560964941978 0.0435622520744801 0.0063031609170139 0.1024936437606812
0.1371635347604752 -0.0838343650102615 -0.0009562076884322 -0.0573424696922302 0.1552137583494186 -0.0652493909001350 -0.0199986919760704 0.1033496558666229 -0.0675086751580238 0.0390683710575104 0.0068718218244612 -0.0385380722582340 -0.0496384464204311 0.1394084841012955 0.0117055810987949 -0.0136497989296913 -0.0030487340409309 0.1435468792915344 0.0084002576768398 -0.0752006918191910 0.1873311400413513 0.1229922920465469 -0.0757261514663696 0.0383128561079502 0.0456169694662094 0.1287727952003479 0.0584103204309940 -0.0093711102381349 0.0813196003437042 -0.0705495253205299 0.0050266683101654 -0.0133978063240647 -0.0289454553276300 -0.0447542518377304 0.0928704813122749 0.1112307608127594 0.1229098439216614 -0.0369519107043743 0.0070668314583600 0.0357742644846439 0.1315075457096100 0.0054152919910848 0.0348632857203484 0.0046915733255446 -0.0522057637572289 0.0883963480591774 0.0891807228326797 0.1314283460378647 -0.0630572438240051 0.0467559397220612 0.0175128206610680 -0.0746350586414337 -0.0444352962076664 -0.0209260098636150 0.0385267212986946 0.0643492788076401 -0.0756119415163994 0.0355915091931820 0.0729689002037048 -0.0545103996992111 -0.0970428511500359 0.1798553168773651 -0.0275825038552284 0.0268868338316679
0.0831587761640549 0.0051244935020804 -0.0096673872321844 0.1389071196317673 -0.0504650175571442 0.1291474550962448 0.0271853394806385 0.0360193736851215 0.0262322220951319 0.0965040996670723 0.0429107137024403 0.0349551886320114 -0.0237213447690010 0.0169655047357082 -0.0410205051302910 0.1596819758415222 0.1291136741638184 0.0497199520468712 -0.0414092801511288 -0.0300134308636189 0.0758128091692924 -0.0254935380071402 0.0405538529157639 0.0657228678464890 0.0729874745011330 -0.0778446197509766 0.0535324476659298 -0.0418290309607983 0.1425627768039703 -0.1143960580229759 0.0396588779985905 0.0735615491867065 0.1614728271961212 -0.0088603682816029 -0.0185393523424864 0.0691558942198753 0.0112307779490948 -0.0588900558650494 0.1274268776178360 0.1439636647701263 -0.0662079975008965 -0.0256511345505714 0.0374829843640327 0.1141198351979256 0.0029425018001348 0.0059415125288069 -0.0690452009439468 0.1534740328788757 0.1355375200510025 -0.0511922352015972 0.1284331977367401 0.0466792173683643 0.0928800180554390 -0.0624974854290485 0.0366198942065239 0.1113958358764648 -0.0131231872364879 0.0914221554994583 0.1252797544002533 0.0540296994149685 -0.0008659184095450 0.1433722823858261 -0.0806156471371651 0.0679626539349556
0.1145408451557159 0.0419538766145706 0.0199780501425266 -0.0704629123210907 -0.0154283875599504 -0.0467934347689152 -0.0063282870687544 0.1545709967613220 -0.0447116978466511 -0.0009520490420982 0.0822018086910248 -0.0679748430848122 0.0187327396124601 0.0534367524087429 0.1598638147115707 0.1770691722631454 0.1267189681529999 -0.0552850477397442 0.0062248115427792 0.0253137219697237 0.1066476106643677 -0.0332960113883018 -0.0175816901028156 0.0912078842520714 -0.1241761669516563 0.0902035683393478 -0.0454932115972042 0.1061730533838272 0.1362790763378143 0.0586349330842495 0.1316666901111603 0.0961832255125046 0.0545316822826862 0.0251226108521223 0.0725267529487610 -0.0397475734353065 0.0400595180690289 -0.0574786625802517 0.1080693528056145 -0.0351474434137344 0.1345215737819672 -0.0527028366923332 0.1189803332090378 -0.0092476606369019 0.0798660144209862 0.1097800433635712 0.0168408695608377 0.0921505391597748 0.1383651643991470 0.0102951005101204 0.0139848738908768 0.0545133464038372 -0.0403094179928303 -0.0754093974828720 0.0429614186286926 -0.0741587132215500 0.1379330009222031 0.1986464858055115 -0.0660151839256287 -0.0973993837833405 0.0147732999175787 -0.0140109257772565 -0.1168532744050026 -0.0435903705656528
-0.0663804113864899 -0.0251377578824759 0.0517918728291988 0.0374479480087757 -0.0818623304367065 -0.0974871665239334 -0.0097440946847200 0.0194834172725677 0.0392119251191616 -0.0864991620182991 0.1274462789297104 0.1272864192724228 0.0921940878033638 -0.0011931034969166 0.0188068486750126 -0.0312183871865273 -0.0414661206305027 -0.0089115072041750 0.1492518186569214 -0.0096060158684850 -0.0883378237485886 0.0964954569935799 -0.0595669709146023 -0.0307464879006147 -0.0007224780274555 -0.0131678823381662 0.1644880771636963 0.0782960578799248 -0.0582931600511074 0.0434215255081654 0.1393714398145676 -0.0802712067961693 0.0174627341330051 0.1938052773475647 -0.0387921854853630 0.0205088946968317 0.0676374584436417 0.1985938698053360 -0.0801750868558884 0.0921151041984558 0.0238153189420700 -0.0044829882681370 -0.0823004245758057 -0.1447569280862808 0.0094196256250143 -0.0315450392663479 -0.0718470513820648 0.0671131834387779 0.1282407194375992 0.0693904608488083 -0.0489506945014000 0.1215467154979706 -0.0750037059187889 -0.0307749994099140 -0.0154474489390850 -0.0752000659704208 0.0988282337784767 -0.0343459174036980 0.1141056567430496 0.1502446532249451 -0.0128891570493579 0.0121456589549780 -0.0592159926891327 -0.0151428272947669
-0.0217659622430801 0.0397718213498592 0.0927663445472717 0.1510833203792572 0.0594119168817997 -0.0093507906422019 0.0660651698708534 -0.0060915611684322 0.0496126078069210 -0.0700196921825409 0.0473412275314331 -0.0526660606265068 -0.0312500782310963 -0.0049761626869440 0.0570592321455479 0.1726354360580444 0.1091257929801941 0.0322166346013546 0.0980146825313568 0.0342727489769459 0.0192474704235792 0.0781304463744164 0.0324835181236267 0.1300915479660034 -0.0787066519260406 -0.0923341289162636 0.0529004521667957 -0.1137191876769066 0.1074895188212395 -0.0252694785594940 0.1287374198436737 0.0826829746365547 -0.0502057895064354 0.0083875302225351 -0.0421112366020679 0.0784080773591995 -0.0297368951141834 0.0644297376275063 0.1236798018217087 0.0239805635064840 0.0463005937635899 -0.0606454536318779 0.1815007328987122 -0.0783492252230644 -0.0123335644602776 -0.0520871393382549 -0.0369225591421127 -0.0515903010964394 -0.0095216296613216 0.1259605139493942 -0.0528902225196362 0.1289200782775879 0.1078104376792908 0.0752144530415535 0.0981622338294983 -0.0566496104001999 -0.0605494230985641 0.0739850774407387 0.0936356261372566 -0.0447087995707989 -0.0841621682047844 0.0613442808389664 0.1341901421546936 0.0194097794592381
-0.1363577693700790 0.0542134009301662 0.0239086430519819 0.0242240279912949 -0.0596962012350559 0.0627035349607468 -0.0225827116519213 0.0122208744287491 0.0270697176456451 -0.0518232621252537 0.0264109149575233 0.1117417514324188 -0.0441108644008636 -0.0306658484041691 0.0479826778173447 -0.0271095186471939 -0.0057628648355603 0.1168457865715027 0.0377262756228447 -0.0064336871728301 0.0558856949210167 -0.0900214463472366 0.1763228625059128 0.1155447810888290 0.0121519537642598 0.0173876974731684 -0.0040813521482050 0.1471136659383774 -0.0145754506811500 0.1077383160591125 0.0161878392100334 0.0548939406871796 0.0365416221320629 0.1773325949907303 -0.0919836312532425 -0.0736350119113922 0.0212192330509424 0.0511269681155682 0.0402377024292946 0.0256553143262863 -0.0932732447981834 0.0177208129316568 -0.1094819381833076 -0.0527131892740726 0.1098673418164253 -0.1072686687111855 0.1347503364086151 0.1622706800699234 0.0363945923745632 -0.0380861349403858 0.1225803717970848 0.0710042268037796 -0.0219144802540541 0.0908580943942070 0.0784756764769554 -0.0779024660587311 -0.0849326774477959 0.0187059324234724 0.0183219611644745 0.1460509747266769 0.1505872905254364 -0.0286642313003540 0.0634793490171432 0.0485626533627510
-0.0853564962744713 -0.0356043875217438 0.0234084986150265 0.0032002802472562 -0.0089656645432115 0.0863724723458290 0.1376101523637772 -0.0954224541783333 0.1032796800136566 -0.0241569168865681 -0.0727562159299850 0.1347692012786865 -0.0388760641217232 0.0537956282496452 0.0767456218600273 0.0789649635553360 -0.0410541296005249 0.0440847985446453 -0.0164543110877275 0.1574626266956329 -0.0893564894795418 0.0038654899690300 -0.0609366931021214 0.1057963371276855 0.1723399758338928 0.0153514072299004 0.1872169226408005 -0.0831547901034355 0.0729959085583687 -0.0144292609766126 0.1066444292664528 -0.0917394384741783 0.1488804519176483 0.1305880844593048 0.0590066686272621 -0.0713193863630295 0.1017763093113899 0.0605050437152386 -0.0070690056309104 -0.0313611179590225 0.1210460588335991 0.0296333804726601 0.0137845305725932 -0.0843862518668175 -0.1096969991922379 -0.1007460951805115 0.0595804713666439 0.0773522108793259 -0.0488199554383755 0.0501693747937679 0.1088854372501373 -0.0076554780825973 0.0462931916117668 -0.0045050485059619 0.1424026489257812 0.0895434692502022 -0.0355830267071724 -0.1845120787620544 0.1433584243059158 0.0981727913022041 0.0462435595691204 -0.0274456050246954 -0.0438855662941933 -0.0926620364189148
0.0322821736335754 0.0302312076091766 -0.0177716165781021 0.0268520414829254 0.1078746914863586 -0.0550551563501358 0.0367170423269272 0.1100707650184631 -0.0753902345895767 -0.1121757030487061 -0.1129559427499771 0.1088942587375641 0.0010701268911362 -0.0505884736776352 0.0241055488586426 -0.1036722362041473 -0.0973985642194748 -0.0777410566806793 -0.0723818987607956 0.0346345752477646 -0.0711098760366440 -0.0431551337242126 -0.0456470698118210 0.0954737812280655 -0.1112060844898224 -0.0162330567836761 -0.0536454916000366 -0.0104698389768600 -0.0325528234243393 -0.0019239187240601 -0.1192107945680618 -0.1079668253660202 -0.0501039922237396 0.1147318482398987 0.0744272917509079 -0.0870875418186188 0.0905494242906570 -0.0324518382549286 -0.1243261992931366 0.0652799159288406 -0.0452004671096802 0.0608479380607605 0.0156850516796112 0.0038941204547882 -0.0186143815517426 -0.0959656536579132 -0.0846494585275650 0.0996569544076920 0.0169964730739594 -0.0289606302976608 -0.0418837964534760 -0.1107944399118423 -0.0450643301010132 -0.0792635083198547 -0.0306380242109299 0.0268590450286865 -0.0508056879043579 -0.0232188403606415 -0.0156577974557877 -0.0745350420475006 0.1162029355764389 -0.0105587244033813 0.1097646206617355 0.0587729215621948
0.1610960513353348 -0.0642092898488045 0.0863750204443932 0.0551884695887566 0.1618879884481430 0.0154114430770278 0.0000903162945178 0.0530162714421749 0.0663009583950043 -0.0569325052201748 0.1170664653182030 0.0689112097024918 0.1241721883416176 0.0442353114485741 0.1579157412052155 -0.0357697233557701 -0.0435842201113701 0.0107305571436882 0.1549555659294128 -0.0879885256290436 -0.0348177775740623 0.0832943841814995 0.1051652133464813 0.1481989026069641 0.0036409897729754 -0.0646896883845329 -0.0812885388731956 -0.0873025432229042 -0.0322513915598392 0.0615330711007118 0.0237468294799328 0.1993623673915863 0.0078921830281615 0.0054357419721782 -0.0768563747406006 -0.0341485738754272 0.1062609329819679 -0.0398903228342533 -0.0429168269038200 0.1243567094206810 -0.0147911272943020 -0.0778449848294258 0.0250453334301710 0.0544011071324348 0.0754983797669411 0.1481406539678574 0.1182068735361099 0.0701314061880112 0.1404843032360077 0.1494872272014618 0.1326436698436737 -0.0894887819886208 -0.0504487119615078 0.0750255063176155 -0.0379311479628086 0.1413976550102234 -0.1030606031417847 0.2455747872591019 -0.0285952836275101 -0.0838256105780602 0.1110856160521507 0.0748872160911560 -0.1050081327557564 0.0498388260602951
0.0624674186110497 0.0864233970642090 0.0356258563697338 -0.0161507055163383 0.1414201259613037 0.1388729512691498 0.0078063537366688 -0.0674918740987778 0.1125909239053726 -0.0596714355051517 0.0753472000360489 0.1404745429754257 0.1596039831638336 0.1199104562401772 0.1516375988721848 0.0885175317525864 -0.0149821098893881 -0.0203488506376743 0.1216913312673569 -0.0846929997205734 0.0037747300229967 -0.0661060214042664 0.1246283352375031 0.1706216931343079 0.0116984592750669 -0.0900694057345390 0.0617020241916180 0.0693953558802605 -0.0374772064387798 -0.1128372475504875 0.1258498579263687 0.1828796714544296 -0.0310540720820427 0.0658676326274872 -0.0043499479070306 0.1493176072835922 0.0289580356329679 -0.1876090764999390 0.0641386359930038 -0.0825066342949867 0.0214119609445333 -0.0306173618882895 0.1104556173086166 -0.0610222332179546 -0.0416920110583305 0.0077839144505560 -0.0886260792613029 -0.0659725889563560 -0.0562797412276268 -0.0379949063062668 -0.0327260196208954 0.0709388479590416 0.0349516384303570 -0.0304160024970770 0.0358136668801308 0.1272668093442917 -0.0614506304264069 0.0230127405375242 -0.0772615894675255 -0.0878511592745781 -0.0655298009514809 0.0070500620640814 -0.0803670659661293 -0.0515284873545170
0.1387055814266205 0.0764078497886658 0.0830225571990013 0.1480370163917542 0.1174574717879295 0.0989502221345901 -0.0377248302102089 0.1184621974825859 -0.1042254120111465 -0.0531566217541695 -0.0601646639406681 0.1030878871679306 0.0501472614705563 -0.0543534867465496 -0.0313529409468174 0.1954656392335892 -0.0286754164844751 0.1600057333707809 -0.0131348306313157 0.0928896740078926 0.1337960809469223 0.1315317153930664 -0.0654133483767509 -0.0168668702244759 -0.0685244947671890 -0.0906689465045929 -0.0144456597045064 0.0915380641818047 0.0295468810945749 -0.0695389062166214 0.1392037272453308 0.2330563664436340 -0.0111351395025849 -0.1748143434524536 0.0865996405482292 0.0165392216295004 0.1109432205557823 -0.0934222787618637 0.0272250417619944 0.1065527573227882 0.0698500648140907 -0.0869328975677490 -0.0190987177193165 -0.0270253866910934 0.0231242105364799 0.0807016789913177 -0.0839659273624420 -0.0787684917449951 0.1313394755125046 0.0499630160629749 -0.0642007142305374 0.0973063707351685 0.0187719650566578 0.0999334752559662 0.1123761162161827 -0.0374033711850643 0.0931676253676414 0.1962752938270569 0.0203989744186401 0.0938602164387703 0.0349216349422932 0.1586960852146149 -0.1168366223573685 0.1179735586047173
0.1603374928236008 -0.0243447348475456 -0.0270998012274504 0.0006838049157523 -0.0419531352818012 -0.0763307511806488 0.0031288187019527 0.0542799346148968 0.0631754100322723 0.1361373066902161 0.0379480682313442 0.0059860451146960 0.1365410536527634 -0.0938443839550018 0.1565138995647430 0.0665812641382217 -0.0403529070317745 0.0944860503077507 0.1010294854640961 0.0661991685628891 0.1176182702183723 0.1073368713259697 0.0549877658486366 0.0426423847675323 -0.0585867986083031 -0.0981085896492004 -0.1012772023677826 -0.1050918847322464 -0.0187120307236910 0.0771641358733177 0.0751730501651764 0.0436637736856937 0.1423981934785843 0.0441363193094730 0.0628665983676910 -0.0441349744796753 0.1447017639875412 -0.0360062383115292 0.0363970398902893 0.0588085316121578 -0.0080465190112591 0.0270549077540636 0.1953632682561874 -0.0335678644478321 0.0778225734829903 0.0638492479920387 -0.0795569047331810 0.1009854674339294 0.0226328689604998 0.1335108131170273 0.0502558797597885 0.0610466003417969 -0.0023623141460121 -0.0484286881983280 0.0113962404429913 0.0282857343554497 -0.0009823149302974 0.1065052375197411 -0.0618507079780102 -0.1148631051182747 0.1160114556550980 0.0925493016839027 -0.0675411596894264 -0.0621388517320156
0.0885370671749115 0.0804459527134895 -0.0277170743793249 -0.3089129328727722 -0.0021442268043756 0.0518597885966301 -0.0967479720711708 -0.0263518579304218 -0.0823889225721359 -0.1359743475914001 -0.0271508395671844 0.0065765352919698 0.0216686427593231 -0.0774923563003540 -0.3687043786048889 0.0341352559626102 0.0564390905201435 0.0366933010518551 -0.0127986837178469 0.0567148178815842 0.3166400790214539 0.0650418028235435 -0.0667191147804260 -0.0092721041291952 0.0586034506559372 0.0795030891895294 -0.0842690393328667 -0.0577977821230888 -0.0679483115673065 0.0505583994090557 -0.0763582363724709 0.1258700788021088 -0.1553880423307419 -0.2281649708747864 0.0182061903178692 -0.3084806203842163 0.1205645576119423 -0.2403334230184555 0.0450483262538910 -0.0666081309318542 0.1339475512504578 -0.0271824933588505 0.0400976166129112 -0.1151603236794472 0.0449380353093147 0.1113078743219376 0.1035894528031349 -0.0181762501597404 0.0693443939089775 0.1507400572299957 -0.0479111336171627 0.1051730811595917 -0.0321134664118290 0.0558274984359741 -0.0379261896014214 0.0313782170414925 0.0705443173646927 -0.0516810938715935 0.0750192478299141 0.1020785272121429 0.0564666762948036 -0.0898565948009491 -0.0773200690746307 -0.0500250495970249
-0.1089630722999573 0.0914196893572807 0.0647564306855202 0.1164872944355011 0.0416777916252613 -0.0311266910284758 0.0964914187788963 -0.0248170588165522 0.0113810133188963 0.0727875828742981 -0.0647448897361755 -0.0402978099882603 -0.0327707193791866 0.0807060226798058 -0.1209562122821808 -0.1616036593914032 -0.0441244058310986 0.0099866911768913 -0.0335410162806511 0.0708776563405991 0.0151817435398698 0.1105789020657539 0.0677286088466644 -0.0412210971117020 0.0699840635061264 0.0853149443864822 0.0320746190845966 0.0275015346705914 0.0661256536841393 0.0039810976013541 -0.0443538278341293 -0.0499558299779892 0.0905884578824043 0.0341306775808334 -0.0798001885414124 -0.0710301548242569 0.0745635554194450 0.0870467126369476 -0.0650639161467552 0.0708778798580170 0.1284728497266769 0.0386505015194416 -0.0190208870917559 0.0466740280389786 -0.0898661464452744 -0.0819292888045311 -0.0514733046293259 -0.0754452869296074 0.0636703968048096 0.0519000403583050 -0.0499507039785385 0.1137249171733856 0.1039530858397484 -0.0070792636834085 0.0746473222970963 0.0686584562063217 0.0405784137547016 0.0550723113119602 0.1234037131071091 -0.0095327924937010 0.1181336492300034 0.0653324574232101 -0.0125866485759616 0.1072901114821434
-0.0206163227558136 -0.0089131202548742 0.0618648156523705 -0.0558874830603600 0.0129043785855174 -0.0556132309138775 0.1579242348670959 -0.0775209963321686 -0.0231361314654350 -0.0187356043606997 -0.0621282272040844 0.0709134042263031 -0.1207907050848007 0.1508385092020035 0.1021882072091103 0.0350765585899353 0.0944181457161903 0.0514055266976357 0.0323146320879459 -0.0168523564934731 0.0760251432657242 -0.0902129337191582 0.0763418674468994 -0.0503919385373592 0.0990698337554932 -0.0031652187462896 0.0281544607132673 -0.0614345856010914 -0.0020177245605737 -0.0484179444611073 0.0553414672613144 -0.1257080435752869 0.1378607600927353 0.1656215041875839 -0.0514060035347939 0.0657384395599365 0.0043379724957049 0.1028936952352524 -0.0062521565705538 -0.0102206971496344 0.1305878609418869 0.0385717079043388 -0.0795794203877449 0.0077722971327603 0.0333941467106342 0.0272484552115202 0.1736010462045670 -0.0033754729665816 -0.0273615214973688 0.0624484531581402 0.0498015582561493 0.0042667761445045 0.0522564239799976 0.0207869131118059 0.0849460735917091 -0.0871806889772415 0.0962524414062500 -0.1532723009586334 0.1575252860784531 0.0645235404372215 0.1145036742091179 -0.0762305706739426 0.0941098928451538 0.0488544814288616
0.0906713008880615 -0.0223777946084738 0.1103706210851669 0.1083934903144836 -0.1011358425021172 0.0201489087194204 0.0059072584845126 -0.0994909554719925 -0.0476457774639130 -0.0364961251616478 0.1394266933202744 -0.0652508437633514 0.0046141408383846 0.0685805082321167 0.1286868304014206 0.1092832088470459 0.1818148195743561 -0.0713596865534782 -0.0911332666873932 -0.0216495674103498 0.0841584205627441 0.1205037608742714 -0.0953880622982979 0.1647356450557709 -0.1095480173826218 -0.0376471355557442 0.1318569183349609 -0.0321932286024094 -0.0549841374158859 -0.1022455841302872 0.0178192127496004 0.0927724465727806 0.0756050050258636 -0.0024334259796888 -0.0854410603642464 0.0426909737288952 0.1060097292065620 -0.0057020653039217 -0.1108745485544205 -0.0347251445055008 0.1061667650938034 0.0609740503132343 0.0120950490236282 0.1467141956090927 -0.0143005233258009 -0.0616942308843136 -0.0235941912978888 -0.1105853989720345 -0.0540066622197628 -0.1272056698799133 -0.1408372223377228 0.0261318515986204 0.0521151125431061 0.1302619278430939 -0.0735270157456398 0.0752707198262215 -0.0806590020656586 0.1823840588331223 0.1068293005228043 -0.0009143624920398 0.0610079877078533 -0.0376972109079361 0.0241776350885630 -0.0112636871635914
-0.0364138707518578 0.1207894533872604 0.0285359192639589 -0.0178878325968981 0.0466473512351513 0.0030900109559298 0.1191609948873520 -0.1158130168914795 0.0810462459921837 -0.0026830588467419 0.0522112324833870 0.1220155209302902 0.0764948874711990 0.1558717340230942 -0.0445389971137047 0.0327915363013744 -0.0728706270456314 -0.0350476950407028 -0.0456466600298882 -0.0454367846250534 0.1427062600851059 -0.0347033329308033 0.0099923508241773 -0.0938860327005386 0.0013564473483711 -0.0735283493995667 -0.0091781197115779 0.1106765940785408 0.0773802697658539 0.1433766633272171 0.0735474750399590 -0.0156554430723190 0.0778439044952393 0.0097978254780173 0.0183931868523359 -0.0617049038410187 -0.0947300344705582 0.1448575109243393 -0.0390667952597141 0.0570677928626537 -0.0022937189787626 0.1547189205884933 0.0015931498492137 -0.1477264314889908 -0.1051710695028305 -0.0019502564100549 0.0402365028858185 0.0898234620690346 0.1282172352075577 -0.0727548301219940 0.1341920644044876 0.0827143415808678 0.0039611528627574 0.1231096908450127 0.0297821089625359 -0.0307410173118114 -0.0388044565916061 -0.1292335093021393 -0.0804011076688766 -0.0569989271461964 -0.0688702464103699 0.0607181340456009 0.1628990769386292 0.0917967557907104
-0.0796791240572929 0.1044209375977516 -0.0593814067542553 0.1428207159042358 -0.0722205489873886 -0.0458845086395741 0.1578713059425354 -0.0326543934643269 -0.1049830988049507 -0.0702070668339729 0.0711741745471954 -0.0474014505743980 0.0268746912479401 0.1513712555170059 0.1040914803743362 0.0255059711635113 -0.0949128195643425 0.0078132450580597 0.0243242420256138 0.0906933024525642 0.0347188413143158 0.0192764531821012 -0.0480045787990093 0.0941946133971214 0.0428356491029263 -0.0866700410842896 0.1409023702144623 0.0802782773971558 -0.0687131509184837 0.0414581000804901 -0.0673336833715439 0.0424794033169746 0.0708850845694542 0.0887974724173546 -0.0122888358309865 -0.0150456754490733 -0.0760160163044930 0.1050483435392380 0.0801519080996513 0.0492048673331738 -0.0313090980052948 0.0221214834600687 0.0400779061019421 -0.0713906288146973 0.0990447252988815 -0.1106915548443794 0.0711092054843903 0.0701336637139320 0.0346455127000809 0.1138583198189735 0.1511870473623276 0.1141160875558853 0.0575816072523594 0.0465179048478603 -0.0569471530616283 0.1236057728528976 0.1076406911015511 -0.0429542809724808 -0.0356461070477962 -0.0540627986192703 0.1188447624444962 -0.1124122664332390 0.1010164245963097 0.0631443262100220
-0.3117143809795380 0.0009460800793022 0.0627634003758430 -0.1979911923408508 -0.0954183116555214 -0.1392412632703781 0.1100724041461945 0.0626908838748932 -0.1075837984681129 0.2118340432643890 -0.1628516614437103 0.0283410847187042 -0.0118229407817125 -0.0734473019838333 0.0317960269749165 -0.0266052670776844 -0.1121648550033569 0.0152363125234842 0.1170356050133705 -0.1609089374542236 -0.0413730628788471 -0.0620331056416035 -0.0081898281350732 -0.1558527648448944 -0.0042893071658909 0.1463692784309387 -0.0117404675111175 -0.0033543375320733 -0.1019901782274246 -0.0389231033623219 -0.1749889850616455 -0.1268952339887619 -0.0356425009667873 -0.2710794806480408 0.0318786576390266 -0.1705488115549088 -0.1195123717188835 -0.0775281563401222 -0.0664984062314034 0.0240873601287603 0.1845627427101135 0.0331061705946922 0.0815917849540710 -0.0083917593583465 0.0741773694753647 0.0928823873400688 0.1052711308002472 0.0411653034389019 0.0257891304790974 -0.0771326720714569 0.1324751228094101 -0.0104806050658226 -0.1535735130310059 0.0206777192652225 -0.0498783774673939 0.0023858225904405 -0.1109785661101341 -0.0920553058385849 0.0985347777605057 0.1328681856393814 0.0963215902447701 -0.0481584891676903 -0.0757866203784943 0.0428614430129528
-0.0656852349638939 -0.0803533568978310 0.1020628139376640 0.1327634155750275 0.1375976949930191 -0.0847838893532753 -0.0099330283701420 -0.0458043627440929 0.1115996092557907 0.0085375355556607 -0.0124226221814752 0.0966904014348984 -0.0112124467268586 -0.0188649315387011 0.1372689455747604 0.0173193812370300 0.1284880936145782 -0.0335490331053734 0.0378037914633751 0.1023657023906708 0.0198247507214546 0.0537184737622738 -0.0817182213068008 0.0499293319880962 -0.0769675895571709 0.0439460910856724 -0.0292218364775181 0.1230415105819702 -0.0578043572604656 -0.0183498151600361 0.1589024215936661 0.0823521986603737 0.0879415124654770 0.0340181291103363 0.0579700134694576 -0.0098174558952451 0.0943024531006813 0.0550820864737034 0.0988114476203918 -0.0336408279836178 0.0171973053365946 -0.0497665628790855 0.1395321190357208 0.1105987653136253 0.1430303454399109 0.1474255174398422 0.0027993808034807 -0.0699700787663460 -0.0972587913274765 -0.0188940092921257 0.0731260702013969 -0.0441479422152042 0.1531593203544617 0.0451283194124699 -0.0805224031209946 -0.0585738345980644 0.0133849512785673 0.0119194807484746 0.0635645017027855 0.0994006842374802 0.0471274852752686 0.0808631926774979 -0.1185979768633842 -0.0700754895806313
0.0405746214091778 0.0558855161070824 0.1485937386751175 0.0611117817461491 0.0500305071473122 0.0314391292631626 -0.0089200548827648 -0.0239810310304165 -0.0747991055250168 0.0507321208715439 -0.0818175077438354 -0.0778090655803680 0.1569057404994965 0.0634904503822327 0.1567829996347427 0.0983239039778709 0.1221972703933716 0.1271894574165344 0.0157350637018681 0.0026080410461873 0.1150424033403397 0.1223764196038246 0.0271107126027346 0.0634505301713943 -0.0027497950941324 0.1062519475817680 0.0139660835266113 -0.0379337482154369 0.1732333749532700 -0.1109471023082733 0.1441921591758728 0.0156087800860405 0.0577437877655029 0.1094250008463860 0.1005647033452988 0.0360156148672104 0.1724747270345688 0.1281478852033615 0.0509616658091545 0.0055374908261001 -0.0389286279678345 0.0471746698021889 0.1883681416511536 0.0172441080212593 0.0654932782053947 -0.0415387377142906 0.0102326618507504 -0.0846835598349571 0.0619835555553436 0.0019364965846762 -0.0539189726114273 0.0341773293912411 -0.0144766671583056 -0.0468945093452930 -0.0882696956396103 0.0193018335849047 -0.0438432693481445 0.2236533910036087 -0.0078204274177551 -0.0272174347192049 0.0731438025832176 -0.0232570171356201 -0.0992045253515244 0.0478521361947060
0.1362113952636719 0.1052951440215111 -0.0068742646835744 0.0832759886980057 0.0093972105532885 -0.0771302059292793 0.0101946676149964 0.1513770222663879 0.1174305304884911 0.0722587183117867 0.1504289209842682 0.1055493429303169 0.0333081185817719 0.0532898604869843 0.0704304054379463 0.0624118410050869 0.1359581053256989 0.1133998334407806 0.0844779536128044 -0.0112532246857882 -0.0025606914423406 -0.0061373771168292 -0.0468466132879257 0.0504866130650043 0.0178801771253347 -0.0324032790958881 0.0194331295788288 0.1481237858533859 -0.0374432615935802 -0.1059344857931137 0.1235130354762077 -0.0111068710684776 0.0293930694460869 -0.0414656661450863 0.0086758928373456 -0.0709061101078987 0.1186864972114563 -0.1054815053939819 0.0694606080651283 0.0898087099194527 0.0474771484732628 -0.0663465186953545 0.1965590268373489 -0.0228021480143070 0.1034833863377571 -0.0499939508736134 0.0872292667627335 -0.0308805257081985 0.1204700469970703 0.1044888943433762 -0.0635237246751785 -0.0441609025001526 -0.0068530794233084 -0.0580173246562481 0.0468165166676044 0.1550321727991104 0.0924536511301994 0.1177359819412231 -0.0248331204056740 -0.0666816756129265 -0.0297287423163652 0.1246992573142052 -0.1061498597264290 0.1489321738481522
0.0169962346553802 0.1597950160503387 -0.0471158176660538 0.1157227158546448 0.0209805648773909 0.0349805690348148 -0.0697485432028770 -0.0752854421734810 0.0027152551338077 0.0465326271951199 0.1096455305814743 -0.0271590389311314 0.0646524503827095 -0.0301757212728262 0.1049656793475151 0.0353782810270786 -0.0053407675586641 -0.0365412980318069 -0.0508349053561687 -0.0667148679494858 0.1667029112577438 0.0309036970138550 0.0146132437512279 0.0267874635756016 -0.1238581836223602 0.1391095370054245 0.0077926325611770 0.0049454327672720 0.0670850053429604 -0.0071702385321259 0.0345698855817318 0.0215838439762592 0.0760805308818817 -0.0314837023615837 0.0837567597627640 -0.0478814840316772 0.0858995541930199 0.0536986589431763 0.1249747276306152 0.1117029935121536 -0.0671431869268417 -0.0861977040767670 0.0050551425665617 -0.0557073280215263 -0.0670473352074623 0.0806377455592155 0.0664930343627930 0.0294187255203724 -0.0507282279431820 -0.0321518518030643 0.0687992051243782 -0.0784626007080078 0.0936430841684341 0.0397218540310860 0.0685145407915115 -0.0598697848618031 0.0565900392830372 -0.0119074266403913 0.0015164803480729 0.0976866409182549 0.1235475689172745 0.0280504170805216 -0.0840673297643661 0.0630324557423592
0.0680068433284760 0.1345235258340836 0.0409362092614174 0.0567950345575809 -0.0231936704367399 0.0281143784523010 -0.0604318194091320 -0.0438768416643143 0.0852595716714859 0.0431104861199856 0.0408537238836288 0.0446796603500843 0.0044276351109147 -0.0462516210973263 0.1654932796955109 0.1129847764968872 0.1498542577028275 0.0906578525900841 0.0360267460346222 -0.0789976119995117 0.0298765599727631 -0.0532708168029785 0.0297664441168308 0.0682586580514908 0.0471957623958588 0.0220594853162766 0.0632220059633255 -0.0124220363795757 0.0799024328589439 -0.1185973659157753 0.1452647298574448 0.2001082301139832 -0.0582719705998898 -0.0354494601488113 -0.0330764800310135 0.1362779289484024 0.0583947710692883 -0.0936052948236465 -0.0710670650005341 0.0468966625630856 0.0922986418008804 -0.1206213608384132 0.0172227583825588 0.0486193597316742 -0.0466508828103542 0.1295339912176132 -0.0036598998121917 0.0613128542900085 0.0559086948633194 -0.1195956617593765 -0.0369055755436420 0.0807804092764854 0.1578090786933899 0.1194239556789398 0.0786840468645096 0.1154695823788643 0.0092463074252009 0.0655944645404816 0.0980949178338051 0.1092962101101875 -0.0272562596946955 0.0378139987587929 -0.0264042895287275 0.0465388707816601
-0.0203839596360922 0.0530071631073952 -0.0612186603248119 -0.0939064547419548 0.0962991863489151 -0.0102279838174582 0.1006454974412918 -0.0674219578504562 -0.0974971055984497 0.0511930733919144 -0.0186860188841820 -0.0450965426862240 0.1159600988030434 0.0790060535073280 -0.1148529574275017 -0.1204620972275734 -0.0305711012333632 0.1119174882769585 0.0954692214727402 0.1205088272690773 0.0990184769034386 0.0779117792844772 0.0672964304685593 0.0436300411820412 0.1287123858928680 -0.0352384150028229 -0.0241800453513861 -0.0474505200982094 -0.1092928498983383 0.0853584334254265 -0.1209924668073654 -0.0205703787505627 0.1365879178047180 0.1705533862113953 0.1104435846209526 0.0171982236206532 -0.0790168344974518 -0.0202947650104761 -0.0564229339361191 0.1343310773372650 0.0398529544472694 0.0293864607810974 -0.1015849262475967 0.0141169205307961 0.0539448373019695 0.1056090891361237 0.1189528182148933 -0.0656457170844078 0.0800909474492073 0.0748880505561829 -0.0645236000418663 0.0840568393468857 0.0827768966555595 0.1241170093417168 0.1659821271896362 0.0198651198297739 0.0516356006264687 -0.0036365285050124 0.0875676125288010 0.1538137197494507 -0.0221462100744247 0.0963805466890335 0.0477452464401722 0.0861225128173828
-0.0666919723153114 0.0096541866660118 -0.0383379198610783 0.1057143211364746 -0.0402850583195686 0.0018015742534772 0.0645309388637543 0.0518979094922543 -0.0543269626796246 0.0903044044971466 -0.0711915343999863 0.1062057912349701 0.0995349735021591 -0.0650309771299362 -0.0344198048114777 -0.0647067204117775 0.0378011353313923 0.1101936846971512 -0.0561739988625050 0.1115437746047974 0.1448159217834473 0.1287895590066910 0.0222206115722656 -0.0263072438538074 0.0695881471037865 0.1124940738081932 0.1651919335126877 0.0569273419678211 -0.0364278331398964 -0.0375015363097191 0.1135575696825981 -0.1049231439828873 0.0725617036223412 0.1700267940759659 0.0587855465710163 -0.0647794529795647 -0.0737482607364655 0.0978038981556892 0.0877633467316628 0.0143954884260893 -0.0565722286701202 0.1662227213382721 0.0697268992662430 -0.0490977913141251 0.0941248610615730 0.0898172408342361 0.0101187303662300 0.0390895456075668 0.1158950850367546 0.1380252987146378 0.0280987191945314 -0.0354597754776478 -0.0212055779993534 0.0248616896569729 0.0996779277920723 0.0828722044825554 0.0842611193656921 0.0663484483957291 0.0273694694042206 0.1158234849572182 0.1733124256134033 -0.0364737585186958 0.0281704161316156 0.0893698558211327
0.0578151084482670 0.0067871022038162 -0.0444318652153015 -0.0476254336535931 -0.0273415856063366 -0.0189213398844004 0.0472884401679039 0.0854903608560562 0.0602599643170834 0.0173899941146374 0.1205864027142525 0.0784330740571022 0.0907407104969025 -0.0604646280407906 0.0357999615371227 0.1449385583400726 0.0840363278985023 0.1546673178672791 0.0182910636067390 0.0025525372475386 0.0482198782265186 -0.0520809553563595 0.0923128798604012 0.1743955761194229 -0.1430497169494629 0.0905971974134445 -0.0532060340046883 -0.0843516886234283 0.0089721269905567 -0.0542496778070927 0.0186356678605080 0.1642738729715347 0.1416279375553131 0.0758258625864983 0.0862597152590752 -0.0645705759525299 0.1718786060810089 -0.0089045045897365 -0.0309832990169525 -0.0368894673883915 -0.0548073537647724 0.1151556000113487 -0.0333877727389336 0.0720769613981247 0.0724649205803871 0.0675962120294571 0.1101078614592552 0.0316196158528328 -0.0748088359832764 0.1302657276391983 -0.0685173049569130 -0.0489124283194542 0.1039354279637337 0.0209933593869209 0.0393443852663040 -0.0794060975313187 -0.0445102602243423 0.2368345856666565 0.1328358352184296 -0.1060145199298859 -0.1132431328296661 -0.0098728816956282 0.0812679082155228 0.0869019031524658
0.0224724765866995 -0.0466700494289398 0.0694233030080795 0.0346737131476402 0.0859941840171814 0.0817996785044670 -0.0502745024859905 -0.0864987447857857 0.0038807853125036 -0.0966105759143829 0.0801121070981026 0.1298589706420898 -0.0344868749380112 -0.0395870469510555 0.0929795727133751 -0.0251170638948679 0.0271213799715042 0.0351488627493382 -0.0558006279170513 0.1495126783847809 -0.0289148576557636 -0.0722152888774872 0.0956969931721687 0.0436771512031555 -0.0329565033316612 0.0918978601694107 -0.0388446748256683 0.1323787271976471 0.0327688567340374 0.1398945599794388 0.1322807073593140 0.0572629421949387 -0.0003574625006877 0.2317537069320679 -0.0071974894963205 0.0913423895835876 -0.0826911777257919 -0.0311198439449072 0.0790892690420151 0.0816993564367294 -0.0870208740234375 0.0821195468306541 -0.0709737092256546 -0.0676186308264732 -0.0272250361740589 0.0037158899940550 0.0296478234231472 -0.0230598039925098 0.0477574989199638 0.0611873418092728 -0.0081582423299551 0.1451568454504013 -0.0185427404940128 0.0599915757775307 -0.0444670766592026 -0.0752240866422653 -0.0849264934659004 -0.0153824547305703 0.0075258836150169 0.1290479153394699 0.1110646352171898 -0.0602694116532803 -0.0342965312302113 -0.1163326352834702
-0.0950022041797638 -0.0583950988948345 0.0031515478622168 0.0456533990800381 -0.1227709725499153 -0.0755537003278732 0.0584643445909023 0.0228108186274767 0.0603984966874123 -0.0634376853704453 0.0746757611632347 -0.1182177588343620 -0.1246502697467804 -0.1271157264709473 -0.0001061707735062 -0.1028575003147125 -0.0212634801864624 -0.0515492893755436 0.0182164814323187 -0.1275741010904312 0.1033687144517899 -0.0962403118610382 -0.1018363684415817 0.0459996908903122 0.0842761695384979 -0.1146455109119415 0.0720536857843399 -0.1212690994143486 -0.0326959639787674 0.0559569969773293 0.0488620549440384 0.0979672372341156 -0.0608553960919380 0.0028282552957535 0.0742719769477844 -0.0940956994891167 0.1164403557777405 -0.0519090071320534 -0.0246990788727999 0.1006987765431404 -0.0515597239136696 -0.0073036160320044 0.1220330595970154 -0.0283554345369339 -0.0822954475879669 -0.0391639210283756 -0.0531852506101131 -0.1259607076644897 0.1134968474507332 -0.1210735589265823 0.0845749899744987 -0.0298114325851202 -0.0741595253348351 -0.0405565947294235 0.0829620435833931 -0.1033853441476822 -0.0888514220714569 0.0757622420787811 -0.0316046625375748 0.1060752868652344 -0.0737319290637970 -0.0084421634674072 0.0475350469350815 0.1107275560498238
0.0494264960289001 0.0705961883068085 -0.0618686527013779 0.0283643007278442 -0.0053912252187729 -0.0206075757741928 -0.0959199517965317 -0.1160389333963394 0.0488788187503815 0.0590562522411346 -0.1174152642488480 -0.0914401561021805 -0.0585377812385559 -0.1014484316110611 -0.1047157943248749 -0.0674656778573990 0.0270408391952515 -0.0845518112182617 0.0464443415403366 -0.1238789558410645 -0.0834222137928009 -0.0099670290946960 -0.0677428990602493 -0.0779663175344467 0.0097886323928833 0.0455573797225952 0.0758624374866486 0.0068326294422150 -0.0978625267744064 -0.0644848644733429 0.0162821263074875 0.1076344698667526 0.0416061133146286 0.0093667358160019 0.0223608165979385 -0.1205756515264511 0.0303664356470108 -0.0398947000503540 0.0211393833160400 -0.0359493792057037 -0.0353449881076813 -0.0151604861021042 0.0390201807022095 -0.0850611031055450 -0.0325748026371002 -0.0387583374977112 0.0515435636043549 -0.0339014381170273 -0.0376874059438705 -0.0335201621055603 0.0468198955059052 0.0330694466829300 0.0219601839780807 -0.0539144426584244 -0.0415379106998444 -0.0910207778215408 0.0134827345609665 0.1243890076875687 0.0105965882539749 -0.0095106810331345 0.0608069598674774 -0.1106179207563400 -0.0428410917520523 0.0637476742267609
